-0.0002930662	-0.0007477652	-0.0007960593	0.0006328670	0.0013717647	0.0012860426	0.0000582267	-0.0008814465	-0.0010299962	-0.0002486814	-0.0007642888	-0.0003407093	-0.0009690491	-0.0007144056	-0.0003395315	-0.0004570232	0.0006890729	-0.0009475951	-0.0019437359	-0.0004122209	0.0011536760	0.0006797385	-0.0004677942	-0.0007346128	-0.0014375541	-0.0002658220	0.0006883754	0.0007518587	0.0011399280	0.0024773446	0.0021395108	0.0011097684	0.0031082330	0.0009015438	-0.0002606770	0.0010706295	0.0016397880	0.0018706203	0.0013150008	0.0004265476	0.0007004061	0.0014272362	0.0017323543	0.0013396809	0.0001044041	0.0004893181	0.0022774367	0.0023080639	-0.0002207822	0.0018524814	-0.0024046586	-0.0036924973	-0.0007845095	0.0040841689	0.0016562694	0.0025514422	0.0001664574	0.0005877569	0.0015146623	0.0015268091	0.0026882892	0.0003430714	0.0006550923	0.0008099242	-0.0033926135	-0.0036060465	-0.0041326694	-0.0024943589	-0.0023179806	0.0006112299	0.0016296669	0.0022615069	0.0014024118	-0.0008665766	0.0003412967	0.0011254041	0.0012771012	0.0012756257	-0.0007592256	0.0004799949	0.0004784828	-0.0021318372	-0.0014930749	-0.0007566122	0.0019575236	0.0007107148	-0.0054605119	-0.0047995150	-0.0048035672	-0.0030127517	-0.0028576839	-0.0008353760	-0.0019662038	-0.0027160463	-0.0023290599	-0.0042232201	-0.0012042728	-0.0006484084	-0.0020404554	-0.0051149949	-0.0064981487	-0.0045321756	0.0008269788	0.0021805018	0.0059919171	0.0020199318	0.0012650819	0.0024730528	0.0020698979	0.0051504551	0.0055280104	0.0059364568	0.0032465039	0.0004029915	0.0025536963	0.0020840496	0.0019024600	0.0021659008	0.0011792042	0.0009808100	0.0012119323	0.0012147682	0.0008399322	0.0007173835	0.0009247242	0.0007478391	0.0005473011	-0.0006734467	-0.0015205925	-0.0009065043	0.0003311920	0.0002474242	0.0009200822	0.0006632991	0.0002969021	-0.0012927611	-0.0006053216	-0.0004782729	-0.0037136031	-0.0016882513	-0.0000686594	0.0017036024	0.0012938143	0.0026574619	0.0013104609	-0.0003168897	0.0002138043	0.0001020980	0.0010579355	-0.0002839788	-0.0016222976	-0.0014929119	0.0003842674	0.0000260453	-0.0002013535	-0.0013376946	-0.0010865113	-0.0008618998	-0.0013345790	-0.0009073031	-0.0010574682	-0.0006829535	-0.0008400017	-0.0002264742	0.0005308281	0.0004662638	-0.0010811060	-0.0005982895	-0.0032187419	-0.0021314153	-0.0024204745	-0.0019378650	-0.0014685765	-0.0005274494	-0.0005711213	-0.0017964606	0.0034999494	0.0016142665	0.0020602876	0.0019308571	0.0012617669	0.0011472750	0.0008388608	0.0007855807	0.0010024533	-0.0003448392	0.0002972544	0.0015247551	0.0008566375	-0.0002103049	-0.0011494838	0.0007930995	-0.0025237985	-0.0014603918	-0.0014375644	-0.0013830788	-0.0027879206	-0.0016097933	-0.0015831122	-0.0011501091	0.0000411389	0.0003893265	0.0005967937	0.0005087324	0.0010218718	0.0020204587	0.0026249033	0.0018633407	0.0016711553	0.0005931316	0.0014853217	0.0016247339	0.0012635990	0.0010545199	0.0001447495	0.0006417453	-0.0004394413	-0.0000092665	-0.0007614944	0.0001816105	0.0008983578	-0.0004188198	0.0001027622	0.0008169546
-0.0008302415	-0.0004731168	0.0003283788	0.0004822001	0.0002978418	0.0004089652	0.0011898133	0.0007805532	-0.0006125104	-0.0006441419	-0.0004589359	0.0002507847	-0.0004601863	-0.0007787727	-0.0001377517	-0.0009471512	0.0013053895	0.0007590169	0.0005143496	0.0013665128	0.0022468704	-0.0004549711	-0.0010111431	0.0016385990	0.0003286873	0.0003853451	0.0015953345	0.0014262404	0.0027409596	0.0025648756	0.0010240184	-0.0009258281	0.0025613219	0.0013508765	0.0001213574	0.0004995211	-0.0001358891	-0.0007721918	-0.0007461963	0.0010958696	0.0015111470	0.0012026427	0.0000902422	0.0003723919	0.0003696361	0.0014990877	0.0028553745	0.0012591181	-0.0008717656	0.0032380465	-0.0012395501	-0.0026211953	0.0001703399	0.0049061938	0.0022080182	0.0042467257	0.0021448270	0.0008739803	0.0014386832	0.0005793707	0.0023420677	0.0005256835	-0.0007454321	-0.0015096642	-0.0059465012	-0.0052977800	-0.0036371292	0.0006238245	0.0025158990	0.0051576342	0.0063673365	0.0061916206	0.0056626708	0.0009161693	0.0029077763	0.0036503428	0.0035270457	0.0021484888	0.0025204739	0.0027837574	0.0031682504	-0.0005436750	0.0009943218	0.0014874230	0.0041116718	0.0030794940	0.0015208685	0.0007184120	-0.0013830801	-0.0012764881	-0.0000670141	0.0028215752	0.0013891445	-0.0014676929	-0.0002919348	-0.0001174664	0.0028726251	-0.0012207051	-0.0013179337	-0.0037853178	-0.0065714340	-0.0049959854	-0.0015724204	-0.0002926608	0.0052014953	0.0020700314	0.0007503631	0.0017098556	0.0012576478	0.0030149766	0.0041763955	0.0048067011	0.0028827013	0.0008783268	0.0026404983	0.0028157525	0.0028467244	0.0024081371	0.0006553261	0.0007683410	0.0017430073	0.0002813457	0.0010648248	0.0014177777	0.0007576804	-0.0001217930	-0.0009210601	-0.0013633760	-0.0010395549	0.0002925836	0.0020376083	0.0013664318	0.0005837903	-0.0002864045	-0.0014339283	-0.0021017620	0.0002609470	0.0011892003	-0.0018571501	-0.0027336308	-0.0021442389	0.0003676547	0.0040110946	0.0049402569	0.0003241206	-0.0000280460	0.0011640962	0.0007779049	0.0017449127	0.0000700839	-0.0002306927	-0.0001745580	0.0004839689	-0.0010105950	0.0003814418	-0.0002179166	-0.0004740928	-0.0007105457	-0.0016602989	-0.0013091090	-0.0016000200	-0.0007129338	0.0002153157	0.0007755555	0.0013654933	0.0005159311	0.0008867893	0.0014925376	-0.0016761362	-0.0016433917	-0.0015881211	-0.0003661048	-0.0016750128	-0.0019523167	-0.0015179346	-0.0027232510	0.0041871793	0.0001507562	0.0013352794	0.0025872458	0.0019497143	0.0006245190	-0.0003014408	-0.0007408253	-0.0000346054	-0.0000632447	0.0011644500	0.0013543433	-0.0006572405	-0.0003192828	0.0016475110	0.0020507826	-0.0014941038	-0.0004998459	0.0002564826	-0.0001471114	-0.0009025662	0.0006231954	0.0003410521	-0.0002143305	0.0006048908	0.0005232955	0.0011420858	0.0017813749	0.0027505886	0.0026143305	0.0021383865	0.0015604944	0.0018156389	0.0012003523	0.0017295262	0.0010264126	0.0004988569	0.0004607201	-0.0005793180	0.0002572920	-0.0007133206	-0.0002314630	-0.0006878140	0.0006737692	0.0008216160	-0.0008843518	0.0005320563	0.0006414613
0.0012798330	0.0001477713	0.0002077823	0.0012900801	-0.0007171287	-0.0013291823	-0.0045350739	-0.0035990588	-0.0038833548	-0.0039862148	-0.0014273205	0.0000709073	0.0000134122	-0.0013486731	-0.0015352370	-0.0011906157	-0.0006730814	0.0005779013	0.0020959391	0.0006633869	-0.0025571729	-0.0018444805	-0.0010711652	-0.0018711039	0.0040626531	0.0016850665	0.0013348397	0.0051270183	0.0056535956	0.0030265821	-0.0009990293	0.0001415001	0.0013585640	0.0019156380	0.0019707782	0.0001691228	-0.0031602196	-0.0036400552	-0.0037932838	-0.0030845939	0.0009149336	-0.0003178759	-0.0020671128	0.0028697229	0.0040111616	0.0035326194	0.0036561778	-0.0001314632	-0.0013277486	0.0042806338	0.0012930783	-0.0015118140	0.0023767778	0.0052624219	0.0017020793	0.0033520134	0.0028550252	0.0024099136	0.0020135439	0.0005894529	0.0030670774	0.0000541764	-0.0030660778	-0.0052128537	-0.0081556272	-0.0053243185	0.0013813224	0.0099923043	0.0122905755	0.0190863870	0.0072802273	0.0012531506	0.0129081029	0.0049990271	0.0070012389	0.0041764411	0.0015923920	-0.0003734354	0.0035141464	0.0048532668	0.0045362040	0.0025891296	0.0043796846	0.0032921226	0.0046636551	0.0065205367	0.0037793578	-0.0083793104	-0.0078008184	-0.0072196941	-0.0099917389	-0.0095625659	-0.0101405429	-0.0061514024	-0.0001957566	0.0044502062	0.0045459149	0.0062946295	0.0064880871	0.0037352268	0.0029904561	-0.0003214336	0.0007408345	-0.0020610059	0.0069796592	0.0045825527	0.0053000702	0.0038542505	0.0026701768	0.0021311727	0.0028270839	-0.0015140615	0.0052949716	0.0010479619	-0.0006344849	0.0026416960	0.0020724307	0.0005654237	-0.0029939783	-0.0028689017	-0.0007776651	0.0006108664	0.0021962631	0.0036841794	0.0013481710	-0.0001507593	-0.0010080007	-0.0009322847	0.0033046571	0.0029582917	0.0028252918	-0.0025116676	0.0023869274	-0.0014321193	-0.0053674323	-0.0002688436	0.0025258702	0.0024648174	-0.0029540977	-0.0007982190	-0.0022450308	-0.0002358756	0.0039057275	0.0028915941	0.0004162749	-0.0009945368	-0.0042986912	-0.0029737519	-0.0028606702	-0.0026093924	0.0008143161	0.0024166894	-0.0000087657	-0.0006539656	0.0026076457	0.0029325918	0.0008768864	-0.0004435141	-0.0015566178	-0.0012098434	-0.0018918008	-0.0007543811	0.0027379377	0.0032855626	0.0023290263	0.0023489976	0.0029537163	0.0000159045	0.0014561431	-0.0021812299	-0.0037809007	-0.0015402418	-0.0050870897	-0.0062907585	-0.0057325368	-0.0036566891	0.0028399243	-0.0006684031	-0.0000815438	0.0004300730	0.0017340403	0.0002213382	-0.0020424989	0.0008309517	0.0018345760	0.0024019382	0.0025617129	0.0047201202	0.0009183740	0.0035707974	0.0028253261	0.0026599611	-0.0053678909	-0.0017527324	-0.0008735512	-0.0009698377	0.0022088992	0.0029618042	0.0000447810	0.0005320445	-0.0009573807	0.0006626785	0.0021202017	0.0034085482	0.0050206962	0.0043633287	0.0034627793	0.0042646523	0.0030664522	0.0023088050	0.0015918687	-0.0000849107	-0.0007863626	-0.0001383878	-0.0030484751	-0.0031812387	0.0000732566	0.0003544762	0.0010277375	0.0026236558	0.0015704009	0.0001253583	0.0020187902	0.0019053991
0.0027374336	-0.0018706453	0.0022869061	0.0008720297	-0.0002790573	0.0023039496	-0.0061711362	-0.0042149685	-0.0022230255	-0.0005816480	0.0026909707	0.0035634385	0.0021935613	0.0000035835	-0.0015669693	-0.0009894903	-0.0009275033	-0.0029832753	-0.0027524405	-0.0012735623	0.0009625424	0.0022538481	-0.0023222473	-0.0046302266	0.0018552924	-0.0001637002	0.0060512261	0.0046071718	0.0035927789	0.0068449127	-0.0036370936	-0.0000659782	0.0021846562	0.0014281444	0.0004166096	0.0003819598	0.0016608004	0.0002716294	-0.0045543225	-0.0077317171	-0.0023920028	0.0005953158	0.0016682968	0.0041334447	0.0020022918	0.0021491288	0.0013010963	0.0018932502	0.0012986814	0.0040405924	-0.0003519544	-0.0046619992	-0.0009635142	0.0032616365	0.0018219446	0.0042287586	0.0031007726	0.0023322699	0.0042848205	0.0053528012	0.0061715096	0.0009640427	-0.0057309121	-0.0052896738	-0.0034206554	-0.0006920814	0.0004955531	0.0029113945	-0.0011094573	0.0158534981	0.0235259235	0.0102630286	0.0085420059	0.0039899545	0.0047546043	0.0018816775	-0.0007516395	0.0009759126	0.0079163155	0.0064925109	0.0072146840	0.0074164481	0.0086711431	0.0055018044	0.0042221239	0.0070110080	0.0103478441	-0.0036324095	-0.0063798646	-0.0026878933	-0.0055266470	-0.0078437133	-0.0060888315	0.0015035283	0.0057961955	0.0057481714	0.0088577727	0.0123914611	0.0122135170	0.0044898787	-0.0026604086	-0.0041248612	-0.0008143530	-0.0012020099	0.0061554266	0.0028083038	0.0045577707	0.0027279141	0.0031917049	0.0020194366	0.0018945092	-0.0053538345	0.0016890377	-0.0012843686	0.0017970230	0.0004145277	0.0001106918	0.0018977367	-0.0027246505	-0.0012304051	0.0027396630	0.0019045083	0.0017337200	0.0010936905	-0.0003390280	0.0004076493	0.0013832900	0.0008045013	0.0013172210	-0.0001657797	0.0048340047	-0.0009228408	0.0013699092	-0.0000507595	0.0016285726	0.0016377389	-0.0002094315	0.0047928318	-0.0015743265	0.0015596156	-0.0008495959	-0.0003205669	0.0026863774	0.0022129407	-0.0012930256	-0.0038443552	-0.0028147239	-0.0031305752	-0.0014563584	0.0011490858	0.0002320696	0.0035252315	0.0048101107	0.0032435923	0.0021364810	-0.0000584525	-0.0008122547	-0.0003374373	-0.0014867641	-0.0000187482	-0.0006197401	-0.0014004556	0.0005489322	0.0009859444	0.0018000819	0.0025670580	0.0025453579	-0.0001319810	-0.0005987911	-0.0055648233	0.0007435179	-0.0015859858	-0.0055302568	-0.0012266611	-0.0056793713	-0.0045759897	0.0017044386	-0.0026660394	-0.0020160358	-0.0027945889	-0.0012902813	-0.0029964563	-0.0020828955	-0.0018435201	-0.0003398890	0.0021951071	-0.0015843565	0.0005386296	-0.0009414654	0.0035545479	0.0018659381	-0.0016961559	-0.0043421369	0.0025603743	0.0016198818	-0.0015846665	0.0001865861	-0.0003547667	-0.0009229885	-0.0008871655	-0.0029330289	-0.0000566482	0.0006178917	0.0017728291	0.0029557412	0.0045258193	0.0037151095	0.0049689789	0.0025973597	0.0003606468	0.0007042107	0.0005722197	-0.0001266402	-0.0002189539	-0.0021643818	-0.0030175822	-0.0002406688	0.0010779370	0.0013202579	0.0017739333	0.0004862398	-0.0000240409	0.0020232066	0.0014546431
0.0028363094	-0.0035157735	0.0021501333	-0.0018574035	-0.0049566426	-0.0025303885	-0.0066692200	-0.0040257885	0.0003824860	0.0047817770	0.0074251890	0.0066706319	0.0036290602	0.0004601561	-0.0013571456	-0.0041652545	-0.0054287366	-0.0040107346	-0.0040126611	-0.0027995547	-0.0036912037	-0.0032592444	-0.0039399364	-0.0040918742	0.0024894339	-0.0025018677	0.0085753789	0.0067237769	0.0052076336	0.0076672882	-0.0005702701	0.0007164066	0.0048976918	0.0028546136	0.0008974309	0.0009052823	0.0019122357	0.0004609045	-0.0030306415	-0.0051115756	-0.0006207583	0.0014531065	0.0021585457	0.0038508622	0.0017429739	0.0032088812	-0.0008970777	0.0015185073	0.0027802775	0.0045205215	-0.0018635613	-0.0039272616	-0.0018981483	-0.0010585126	-0.0008714789	0.0001303599	0.0010638350	0.0006155636	0.0015147069	0.0024555000	0.0031072008	-0.0011325027	-0.0068818289	-0.0100482553	-0.0055746157	0.0010490007	0.0070843711	0.0112493811	-0.0037982359	0.0000168795	0.0106305704	0.0112627521	0.0105323680	-0.0011937855	0.0023105277	-0.0000507723	-0.0037484504	-0.0018936347	0.0028520487	0.0022316929	0.0055139693	0.0059491219	0.0019258722	0.0039103734	0.0054804375	0.0067875739	0.0100874286	-0.0044236602	-0.0041906550	-0.0010428536	0.0005322384	-0.0005115577	0.0025652242	0.0133748837	0.0134464074	0.0097215427	0.0124545787	0.0129564861	0.0119366096	0.0048124972	0.0036646987	0.0034571388	0.0023484703	-0.0000998523	0.0061386377	0.0020784296	0.0029230474	0.0007502422	0.0021322472	0.0035924409	0.0059944862	-0.0015146252	0.0038007763	-0.0009302907	0.0026021493	-0.0009434285	-0.0042253998	-0.0016940428	-0.0061927522	-0.0047209426	-0.0000533173	0.0027031924	0.0018795629	0.0027445122	0.0012633802	0.0005714745	0.0010661955	0.0003049006	0.0012440360	-0.0026572689	0.0021010274	-0.0018193952	0.0040235613	-0.0016855472	0.0030777287	0.0020151746	0.0023912869	0.0081155412	0.0006481010	0.0011048791	0.0013908005	0.0007412166	0.0027957452	0.0018917407	-0.0025125500	-0.0060730851	-0.0007007116	-0.0023928946	-0.0004949622	0.0046009906	0.0040982310	0.0054785586	0.0046846010	0.0013561939	0.0024204482	0.0008399884	-0.0007227458	-0.0002288331	-0.0009424223	-0.0001914400	-0.0007185059	-0.0001747049	0.0009618560	0.0011134499	-0.0000237517	-0.0007812413	0.0001915368	-0.0021744031	-0.0022528081	-0.0091619845	0.0026006005	-0.0005560486	-0.0032933075	0.0021254877	-0.0017090787	-0.0040449458	-0.0005625642	-0.0044339523	-0.0028560550	-0.0038259067	-0.0022462204	-0.0048756651	-0.0031975070	-0.0021987488	-0.0013978414	0.0010471436	-0.0022451598	0.0000209414	0.0019715449	0.0034682476	-0.0021925862	0.0000676414	0.0030897926	0.0056257411	-0.0009779576	-0.0025763256	0.0007182900	-0.0012624871	-0.0024528354	-0.0021734287	-0.0032905145	-0.0020840587	-0.0014131909	0.0002321024	0.0018333434	0.0034444283	0.0025789277	0.0042263628	0.0025038708	-0.0001014750	-0.0006602734	-0.0009020378	-0.0008573884	-0.0009772812	-0.0011166297	-0.0015430639	0.0008506061	0.0027724199	0.0024444982	0.0027771411	0.0008778042	0.0008197682	0.0021837140	0.0009641951
0.0041522384	-0.0009471226	0.0003660089	-0.0027593095	-0.0070180190	-0.0071682688	-0.0056626066	-0.0001302031	0.0036508343	0.0070820134	0.0085111503	0.0056289658	0.0016389729	-0.0012635894	-0.0024295193	-0.0048983940	-0.0057291859	-0.0031181895	-0.0027011668	-0.0036694035	-0.0086041624	-0.0085705323	-0.0046929205	-0.0038000634	0.0009545274	-0.0015073463	0.0047628297	0.0024387119	0.0029222225	0.0032687131	-0.0027046851	0.0023663086	0.0048710294	0.0046084262	0.0021098708	0.0011783906	-0.0008434852	-0.0018635786	-0.0012128898	-0.0000996180	0.0037221767	0.0029520169	0.0002388303	0.0023709957	0.0013552423	0.0028717087	-0.0023705040	-0.0016947293	0.0008196127	0.0055185133	-0.0024161765	-0.0038879835	-0.0039888760	-0.0054271352	-0.0058940412	-0.0015618210	0.0034663633	0.0035098433	0.0035899763	0.0045110942	0.0074869255	0.0044426280	0.0020838913	-0.0039719320	-0.0043528960	-0.0025693004	0.0021818269	0.0132051082	0.0053932825	0.0044810586	-0.0040172371	0.0003557582	0.0153208980	-0.0005978996	0.0052960599	0.0044833967	0.0024254862	0.0041640718	0.0043560201	0.0045001679	0.0075829388	0.0057355007	0.0007603714	0.0039380318	0.0049015665	0.0039357101	0.0072260583	-0.0063531091	-0.0111020729	-0.0050584241	0.0014587468	0.0021665250	0.0087280106	0.0180278309	0.0122714937	0.0095025320	0.0083531272	0.0069648852	0.0042024273	0.0030531813	0.0066544833	0.0065856855	-0.0014912901	-0.0043833088	0.0005640900	-0.0015752340	-0.0016282974	-0.0024564099	0.0001525109	0.0018728701	0.0061655124	0.0017987152	0.0084794760	0.0046642674	0.0032149130	-0.0005409470	-0.0044287154	-0.0031406353	-0.0064449264	-0.0040711872	-0.0026890347	0.0016248744	0.0010869986	0.0010413994	-0.0005989026	-0.0012971442	-0.0014519563	-0.0019829166	0.0014547309	-0.0006437685	0.0006943547	-0.0051392918	0.0025419972	-0.0020503015	-0.0000235853	0.0021868546	0.0051452233	0.0076459884	-0.0009354166	0.0020325296	-0.0002578009	-0.0008501376	0.0015727271	0.0009928296	-0.0026537166	-0.0042598327	0.0000331014	-0.0005773249	0.0015837563	0.0046295431	0.0056493464	0.0055451868	-0.0006024642	-0.0033355081	0.0003521808	0.0010070052	-0.0006125985	-0.0003643326	-0.0012048723	-0.0010693596	-0.0016068375	-0.0006849638	-0.0000476773	-0.0007102792	-0.0031616751	-0.0047116247	-0.0020785327	-0.0034843776	-0.0014108492	-0.0054204348	0.0016752748	-0.0013055634	-0.0025888807	-0.0002201623	-0.0010052035	0.0000630162	0.0006143833	-0.0031298134	-0.0021093583	-0.0034779466	-0.0032307422	-0.0039612558	-0.0024551642	-0.0025606628	-0.0032703641	-0.0026556561	-0.0035883812	0.0013849792	0.0033652517	0.0015279617	-0.0007759330	0.0060563968	0.0076760817	0.0032542355	-0.0018724194	-0.0002247745	0.0021758713	-0.0001102851	-0.0044704629	-0.0049564037	-0.0058143763	-0.0043311627	-0.0036153200	-0.0016088325	-0.0005907211	0.0010849200	0.0002116637	0.0022723018	0.0018455763	0.0005773232	-0.0015502494	-0.0022892614	-0.0012544176	-0.0010595988	-0.0005405655	-0.0006262105	0.0013958616	0.0023729214	0.0019481705	0.0010267794	-0.0002971554	0.0003611904	0.0002491307	-0.0004185321
0.0014998603	-0.0004081807	-0.0001365857	-0.0043100193	-0.0072084395	-0.0067039635	-0.0040409523	-0.0017815178	0.0045172516	0.0048191841	0.0027508659	0.0015722318	-0.0011312170	-0.0046115890	-0.0059800334	-0.0053190598	-0.0040372121	-0.0037678494	-0.0052584046	-0.0055992184	-0.0055843405	-0.0047657355	-0.0054925848	-0.0022644345	-0.0080380747	-0.0044835638	0.0004297043	-0.0037586619	-0.0026474381	-0.0015873309	-0.0048441808	0.0003083904	0.0072798948	0.0032739427	0.0001036982	-0.0001308366	0.0000103352	-0.0010242357	-0.0017716634	-0.0008077836	0.0024401583	0.0027506538	-0.0003112236	0.0021260113	-0.0048367078	-0.0021780655	-0.0107709784	-0.0110322777	-0.0069832020	-0.0050104843	-0.0039356668	-0.0056831753	-0.0001566384	-0.0120528666	-0.0099741407	-0.0068945773	-0.0086116828	0.0066323625	0.0083662672	0.0177922770	0.0104077710	0.0012068781	-0.0174575225	-0.0216726623	0.0016234568	0.0052241506	0.0065117180	0.0085165231	0.0028434971	0.0055634934	-0.0116802137	-0.0152958054	-0.0086424267	-0.0106173102	-0.0017772282	-0.0033883189	-0.0038079917	-0.0052994764	0.0000257144	0.0025589559	0.0160707496	0.0068545109	0.0063090650	0.0015940508	-0.0054184999	-0.0040079700	0.0079695862	-0.0056441366	-0.0128404172	-0.0127274878	-0.0067048604	0.0068143755	0.0153771974	0.0159851070	-0.0053145951	-0.0011315494	-0.0253958143	-0.0116737653	-0.0195686873	-0.0197487362	-0.0174160153	-0.0146398582	-0.0250763595	-0.0295276754	-0.0191289112	-0.0104312720	-0.0212947223	-0.0087395459	-0.0067468463	-0.0048347972	0.0043817097	0.0095727909	0.0106644407	0.0090952441	0.0052088927	0.0000308078	-0.0053165033	-0.0034870626	-0.0067732972	-0.0033491880	-0.0013349148	0.0019117451	0.0000016035	-0.0016291845	-0.0030459573	-0.0021879403	0.0000493024	-0.0015785104	0.0003367715	-0.0007782403	0.0004866282	-0.0025922591	-0.0008148511	-0.0010174061	0.0004526176	0.0084397830	0.0099955993	0.0119689070	0.0021318377	0.0118678855	0.0025794874	0.0009208771	0.0059044417	0.0051319073	-0.0015870307	-0.0036739917	0.0002146746	0.0008662656	0.0023558540	0.0026341691	-0.0006555596	-0.0020958346	-0.0001450543	-0.0019143895	-0.0026172767	-0.0012733781	-0.0011320966	0.0001107339	0.0019138849	0.0049021039	-0.0006123293	0.0006158933	0.0009264192	0.0014396847	-0.0010337561	-0.0007254560	-0.0003988396	-0.0007807022	0.0003377334	-0.0032983662	0.0018928737	-0.0007540715	-0.0047781789	-0.0027210037	-0.0036217566	-0.0033440928	0.0028541666	-0.0001504533	-0.0005644659	-0.0019817383	-0.0063979262	-0.0039966991	-0.0017469357	-0.0042757224	-0.0051163058	-0.0032181449	-0.0041726027	0.0005177117	0.0004283438	-0.0023395368	-0.0003065027	0.0070109405	0.0039604879	0.0003455519	-0.0025147535	0.0011609426	-0.0005359395	-0.0000021074	-0.0032858034	-0.0031467848	-0.0050877831	-0.0049270359	-0.0054686079	-0.0064182114	-0.0023817823	-0.0013605139	-0.0021255470	0.0022178753	-0.0021055818	-0.0025706748	-0.0028857940	-0.0021141043	0.0016868028	-0.0003495851	-0.0019017332	0.0034750202	0.0014655052	0.0009236045	-0.0014175831	-0.0002700065	-0.0022826958	-0.0017716088	-0.0029149074	-0.0017657009
0.0020755534	0.0014700923	0.0003154256	-0.0020702840	-0.0026234169	-0.0057154624	-0.0001505942	-0.0017178988	0.0027651964	0.0002694190	-0.0006439722	-0.0039933836	-0.0060000494	-0.0059814118	-0.0092469985	-0.0071113328	-0.0050589172	-0.0041136523	-0.0059972517	-0.0060625421	-0.0058921254	-0.0043933559	-0.0068252836	-0.0050109178	-0.0076493532	-0.0053719375	-0.0054103783	-0.0061552343	-0.0031702463	-0.0062193270	-0.0022223205	-0.0012491015	0.0062432755	0.0009057809	-0.0018884572	-0.0018879198	-0.0015381534	-0.0019578757	-0.0018443512	-0.0008762220	0.0009936208	0.0012264014	-0.0012698896	0.0022648857	-0.0047928495	-0.0011406820	-0.0133731514	-0.0086719608	-0.0004994525	0.0039042977	0.0091753667	0.0004335077	0.0004943605	-0.0078064743	0.0005715057	-0.0107890265	-0.0200635605	0.0035612211	0.0012878974	0.0079119289	0.0043537589	0.0048792996	-0.0015203708	-0.0117944628	0.0008651689	0.0072028884	0.0068611400	-0.0041352566	-0.0109283850	0.0017321478	-0.0130839171	-0.0181190148	-0.0114240209	-0.0026008338	0.0025043867	0.0006386232	0.0004412900	-0.0027685468	-0.0002259172	0.0000387239	-0.0012398716	-0.0080767069	0.0016798283	-0.0054284851	-0.0001903088	0.0070003737	0.0025715174	-0.0005283006	0.0143472208	-0.0083342083	-0.0182000250	-0.0151275396	-0.0000376063	-0.0095590865	-0.0095146205	0.0027293558	-0.0196599402	-0.0157100074	-0.0236408617	-0.0133338245	-0.0116330078	-0.0112244803	-0.0216968544	-0.0173027664	0.0056983065	-0.0013490501	-0.0036374922	-0.0027879449	-0.0016878780	0.0097338296	0.0043188329	0.0128512830	0.0133124320	0.0101590976	0.0006784644	-0.0034977840	-0.0091624092	-0.0086820265	-0.0085321693	-0.0072636046	-0.0048517575	-0.0001871662	-0.0023864857	-0.0040785167	-0.0054821600	-0.0029554591	-0.0003773461	-0.0008495918	0.0026356683	-0.0003718731	0.0023686560	-0.0014620040	0.0039874045	0.0000082781	0.0000115497	0.0029278644	0.0049636168	0.0068496913	-0.0005987065	0.0079510203	0.0039644768	-0.0020278709	-0.0012420226	0.0017733907	-0.0017071249	-0.0039271195	0.0008314586	0.0004078984	0.0006307404	-0.0007335522	-0.0030565015	-0.0064379461	-0.0027820014	-0.0038118800	-0.0022917469	-0.0006158581	-0.0005960150	0.0002630702	-0.0011677488	0.0014295486	-0.0043054665	-0.0031097964	-0.0019755655	0.0000010714	-0.0027272722	-0.0025127172	-0.0032715397	-0.0013290665	0.0016309055	-0.0021827456	-0.0034908024	-0.0029988883	-0.0039253193	-0.0063433703	-0.0029764692	-0.0066321939	0.0023525856	-0.0001270398	-0.0026968622	-0.0044120857	-0.0064300136	-0.0044679660	-0.0065559456	-0.0069112428	-0.0056261807	-0.0033330605	0.0009366702	0.0015980328	0.0000514674	-0.0025409071	-0.0030505150	0.0017592319	-0.0012927568	0.0003059403	0.0011799498	0.0018800303	-0.0008257270	-0.0013707773	-0.0056124311	-0.0050808159	-0.0037572358	-0.0037821701	-0.0038787611	-0.0056036711	-0.0030898328	-0.0041175936	-0.0021955045	0.0015152529	-0.0030848426	0.0008434508	-0.0030317581	-0.0014204744	0.0019432814	-0.0017069177	-0.0001157398	0.0005920656	-0.0026154625	0.0019580114	-0.0041583534	-0.0021490990	-0.0032778848	-0.0032840255	-0.0035713161	-0.0012673854
0.0022507410	0.0023868070	-0.0016528104	-0.0021304702	-0.0009608582	-0.0059998841	-0.0006070300	-0.0018167131	-0.0014528332	-0.0049904492	-0.0026925658	-0.0063201813	-0.0076292059	-0.0046204235	-0.0066183852	-0.0054316120	-0.0008037913	-0.0001040522	-0.0017618374	-0.0013341879	-0.0024623494	-0.0030966809	-0.0025044759	-0.0040719616	-0.0060939454	-0.0025029145	-0.0070755249	-0.0075814044	-0.0030243949	-0.0098559735	-0.0043131039	-0.0011902957	0.0030692797	0.0003341665	-0.0025584353	-0.0025045413	-0.0034922068	-0.0027710402	-0.0038949342	-0.0030529955	-0.0016890987	-0.0027906909	-0.0056263874	-0.0006718212	-0.0084631825	-0.0013645610	-0.0100485170	-0.0052475291	0.0064282026	0.0087418221	0.0056646741	0.0017807056	0.0042837099	-0.0100378152	-0.0083010728	-0.0187357645	-0.0197176468	0.0204035677	0.0064257174	0.0120399008	0.0167700239	0.0134139918	-0.0016717585	-0.0103725996	0.0017919540	0.0065057226	-0.0012130565	-0.0088843172	-0.0122481063	0.0032051355	-0.0088461060	-0.0144287329	-0.0133359041	0.0022986680	0.0057360949	0.0074285557	0.0125462469	0.0074861990	0.0125097679	0.0121931136	0.0050657303	-0.0122563150	0.0011203791	-0.0019685733	0.0056341542	0.0225186944	0.0114160264	-0.0132090375	0.0071653249	-0.0059921844	-0.0189940743	-0.0009254019	0.0116999671	-0.0005000716	-0.0118324906	0.0077489372	-0.0078884922	-0.0090060206	-0.0163979232	-0.0144591350	-0.0070263594	-0.0060866755	-0.0086810533	-0.0060545802	0.0206877012	0.0156376064	0.0180264469	0.0121767782	0.0120908478	0.0194140784	0.0115474183	0.0115834260	0.0141510731	0.0125267971	0.0016584884	-0.0024459418	-0.0065671667	-0.0047677062	-0.0031933023	-0.0028130345	-0.0026469289	-0.0008170744	-0.0023522091	-0.0030731333	-0.0029413963	-0.0016362839	-0.0006747477	-0.0023029286	0.0024269405	-0.0025025322	-0.0015838097	-0.0080166794	0.0019065361	-0.0032633964	-0.0011224397	0.0002829438	-0.0006311334	-0.0002187721	-0.0058294800	0.0031833225	-0.0000074091	-0.0032325685	0.0013893992	0.0033954177	0.0051000556	-0.0025647774	0.0022826744	0.0009538541	0.0006959840	-0.0017526713	-0.0035282744	-0.0057113813	-0.0040638633	-0.0043536802	-0.0029068622	0.0005736696	0.0013840689	0.0006547251	-0.0000826033	-0.0002316287	-0.0084278267	-0.0064291642	-0.0050810114	-0.0018758336	-0.0031556708	-0.0033587930	0.0023404874	-0.0000430634	0.0029618884	0.0019795168	-0.0029723712	-0.0019159095	-0.0005857674	-0.0030940757	0.0025507922	0.0000193532	0.0061698812	0.0020277821	0.0010085336	-0.0026366941	-0.0031167185	-0.0008551117	-0.0049622948	-0.0035947750	0.0007611296	-0.0019406433	0.0017901357	0.0004289174	-0.0024718530	-0.0016663434	-0.0014087076	0.0031975934	0.0012206240	0.0003097222	0.0001920912	0.0006277517	-0.0013103347	-0.0023831828	-0.0064550797	-0.0026295162	0.0008542597	-0.0023383233	-0.0024116747	-0.0028413930	0.0001880110	-0.0052498686	-0.0005745830	0.0037905192	0.0000795784	0.0024195632	-0.0035501330	-0.0043299436	0.0036622721	-0.0014804166	0.0024118512	0.0003172805	-0.0032167085	0.0016621950	-0.0046188803	-0.0019498258	-0.0011046967	-0.0029451137	-0.0019186772	0.0003786487
0.0014565720	0.0012680332	0.0026624671	-0.0010010281	0.0010206047	-0.0022118853	-0.0036492602	-0.0060432558	-0.0027921046	-0.0058718664	-0.0059668878	-0.0073404764	-0.0060933372	-0.0046018297	-0.0047599203	-0.0015937622	-0.0003852503	-0.0005401853	-0.0015571981	-0.0003704134	-0.0006854519	-0.0003371900	-0.0030905758	0.0005835743	-0.0055291168	-0.0041109142	-0.0016319159	-0.0059291855	-0.0018592388	-0.0031298681	-0.0029817901	-0.0027475990	0.0014902874	-0.0023304175	-0.0033970240	-0.0022159317	-0.0017591144	-0.0001994654	-0.0001409250	-0.0013021738	-0.0024189174	-0.0015504883	-0.0059006982	-0.0023185713	-0.0084419223	-0.0033472893	-0.0055837436	0.0037151168	0.0185822118	0.0158699825	0.0130708963	0.0009875996	0.0086115152	-0.0077997977	-0.0104618734	-0.0200178456	-0.0234585404	0.0129170325	-0.0051964996	0.0051758671	0.0153973727	0.0115697896	-0.0060582459	-0.0087766889	0.0053073796	0.0134388432	0.0136231175	0.0051798960	-0.0037008899	0.0037909599	-0.0002584312	-0.0065512517	-0.0103021627	0.0006024400	-0.0037103158	-0.0020372816	0.0092251850	0.0054339967	-0.0110431593	-0.0078671863	-0.0048441095	-0.0092690345	-0.0014708441	-0.0121543743	-0.0252999663	0.0106650954	0.0046236040	-0.0090754852	0.0132282386	0.0144601567	0.0050750608	0.0205676667	0.0243491102	0.0195042901	-0.0054903831	0.0094902860	-0.0028110382	0.0101909004	-0.0156223513	-0.0278473459	-0.0211088937	-0.0101352604	0.0085816262	0.0077280011	0.0351913497	0.0424803160	0.0407376438	0.0284112059	0.0272320118	0.0267760344	0.0140850693	0.0147779174	0.0070946896	0.0065266518	0.0000128028	-0.0068053473	-0.0086441105	-0.0041620415	-0.0057634981	-0.0050200187	-0.0027618750	-0.0015520556	-0.0021501649	-0.0019266004	-0.0021490918	-0.0016627404	-0.0009095001	0.0001120254	0.0006473265	-0.0022758890	0.0005432485	-0.0024134899	0.0005929895	-0.0029793768	0.0030879527	-0.0004596702	-0.0001811156	-0.0018249225	-0.0145924175	-0.0105239796	-0.0100976601	-0.0062537529	-0.0009497190	0.0012147396	0.0008427729	-0.0032498119	0.0015327982	-0.0017345345	-0.0005015975	-0.0023012629	-0.0063085249	-0.0058916318	-0.0042937375	-0.0030500838	-0.0023519823	-0.0002755626	0.0002700669	-0.0003941447	0.0010209511	-0.0009238691	-0.0079570310	-0.0068692276	-0.0090415822	-0.0099106655	-0.0112752980	-0.0079990327	-0.0039678686	0.0003741750	-0.0009387045	-0.0003460294	0.0017898922	-0.0019935283	-0.0005558175	-0.0011793296	-0.0010230180	-0.0011436795	0.0033747333	0.0019029800	-0.0003078879	0.0002037281	-0.0034806547	-0.0020113401	-0.0018991462	-0.0025392773	-0.0001161920	-0.0008526033	-0.0004930050	-0.0018900610	-0.0000205833	0.0012454258	0.0013631101	0.0031975266	-0.0019243306	-0.0033371188	-0.0067151980	-0.0053380015	-0.0041005928	-0.0027016075	-0.0011396621	0.0003523127	0.0014213234	-0.0004104390	-0.0015432797	-0.0020908618	0.0013151000	-0.0012132077	-0.0005444517	0.0022329162	0.0026071782	0.0015042787	-0.0025360140	-0.0027998015	0.0023617290	0.0003524433	0.0015809434	0.0001329742	-0.0007270520	0.0004607852	-0.0038739308	-0.0002442762	-0.0019301319	-0.0023194468	-0.0011206847	0.0001148815
0.0020056635	-0.0004168687	0.0034176188	0.0016450416	-0.0000727274	-0.0017322877	-0.0023764302	-0.0056650927	-0.0058996580	-0.0058655133	-0.0053537712	-0.0065542180	-0.0045598019	-0.0026220605	-0.0037456986	-0.0026364892	-0.0002547402	-0.0016790389	-0.0013503754	-0.0001382229	-0.0009284023	-0.0005332292	-0.0038865800	-0.0003451218	-0.0044328212	-0.0065960917	-0.0025670922	-0.0047379700	-0.0039266935	-0.0021059329	-0.0050698980	-0.0089707682	-0.0025200122	-0.0044568614	-0.0033679830	-0.0004231967	0.0016866809	0.0019241931	0.0003213928	0.0000715095	-0.0021270586	-0.0007737174	-0.0077611180	-0.0037985605	-0.0095056891	-0.0029673767	-0.0094793271	0.0054251230	0.0203661118	0.0141051887	0.0130678080	0.0016065864	0.0001195739	-0.0138921263	-0.0139841335	-0.0261896048	-0.0218865760	0.0121277124	-0.0080744270	-0.0019697994	0.0146897463	0.0182510130	0.0085980287	0.0108893206	0.0015904360	-0.0063661891	0.0182959363	0.0248715989	0.0090936245	0.0038713166	0.0069001042	-0.0098664677	0.0144589096	0.0077415658	0.0068110568	0.0066544479	0.0216365475	0.0064227330	-0.0140877850	-0.0052434867	0.0013640383	0.0066621127	0.0111943725	-0.0073909545	-0.0322994292	-0.0056608403	-0.0099183638	-0.0038251313	0.0253789295	0.0145542426	0.0027781683	0.0230534859	0.0127055822	0.0078150574	-0.0122186821	0.0086003011	-0.0068467199	0.0213693418	-0.0008596854	-0.0225912333	-0.0043125106	-0.0015272684	0.0174153633	0.0218815673	0.0334346145	0.0399285555	0.0379888900	0.0137154376	0.0159819983	0.0155132934	-0.0046373708	-0.0045071621	-0.0006544341	0.0037489585	0.0030554298	0.0008863799	-0.0019507710	-0.0029780488	-0.0051988182	-0.0049229725	-0.0042921822	-0.0029120059	-0.0029478823	-0.0036017476	-0.0020115313	-0.0018590607	-0.0028803700	-0.0011545643	-0.0029804818	-0.0043232846	-0.0022382957	-0.0004522770	-0.0048978175	-0.0047905226	0.0037075900	0.0002727864	-0.0004114391	0.0021706165	-0.0090826750	-0.0089843366	-0.0057497318	-0.0067023318	-0.0068606278	-0.0011914109	0.0001621300	-0.0020802468	0.0023294794	-0.0007862568	-0.0024865160	-0.0025618626	-0.0055857622	-0.0061674062	-0.0025175579	-0.0014817875	-0.0011247835	0.0004164129	-0.0007232035	-0.0013658366	-0.0014825484	-0.0012133617	-0.0086040329	-0.0036049453	-0.0054245172	-0.0131327529	-0.0131758517	-0.0138389142	-0.0131810997	-0.0027662546	-0.0005095013	-0.0034842384	-0.0002683820	0.0007796111	-0.0031924951	-0.0004152000	0.0005085828	-0.0023481513	0.0019401910	0.0003442245	-0.0010489400	0.0003467397	-0.0012165441	-0.0021952018	0.0009809415	-0.0023523660	-0.0010388496	0.0007051687	0.0000166146	0.0033776131	0.0085179741	0.0070283469	0.0066338335	0.0069004074	-0.0010033909	-0.0020089913	-0.0056077335	-0.0044626384	-0.0035171737	-0.0018933692	-0.0005708096	-0.0011507375	-0.0019050865	-0.0006836525	-0.0010649321	0.0002839042	-0.0014623200	-0.0002951871	0.0001694781	-0.0021600919	0.0021178720	0.0027336294	-0.0027068525	-0.0008336594	-0.0012738436	-0.0007530427	-0.0006483535	-0.0021481668	-0.0028634507	-0.0007068852	-0.0037384951	-0.0009378043	-0.0009428035	-0.0013629451	0.0000782553	0.0011329805
0.0005639248	0.0007226553	0.0004332862	0.0040230788	-0.0002026651	-0.0020840610	-0.0026648766	-0.0061676987	-0.0056339605	-0.0055744313	-0.0064356942	-0.0055144248	-0.0021533989	-0.0028576406	-0.0011331172	-0.0022832952	0.0004117448	-0.0014582149	-0.0011217432	0.0004398093	-0.0010526613	-0.0008253937	-0.0020015582	-0.0030834032	-0.0050129225	-0.0027909433	-0.0077293427	-0.0034391442	-0.0047728289	-0.0031543653	-0.0052151759	-0.0093843713	-0.0039452231	-0.0038148970	-0.0005932690	0.0005336594	-0.0000157807	0.0007508298	0.0006790110	0.0001617265	-0.0026521313	-0.0008029131	-0.0049860370	0.0002425697	-0.0082121845	0.0008565053	-0.0018421616	0.0044862237	0.0136038056	0.0103253126	0.0136359753	0.0073293978	-0.0070483116	-0.0214464515	-0.0165835358	-0.0170937274	-0.0092298631	0.0239688363	0.0035238429	0.0014296839	0.0240277890	0.0237621330	-0.0051967991	0.0142534487	0.0120364660	-0.0257557109	-0.0077997912	0.0224016011	0.0248490218	0.0091246478	0.0151600707	-0.0144730173	-0.0019734427	-0.0195133295	-0.0146991182	-0.0007416632	0.0118405754	0.0007244141	-0.0053034551	0.0102020986	0.0178017914	0.0135990083	0.0060213921	-0.0077019874	-0.0309964344	-0.0013441979	0.0025580572	-0.0002467619	0.0304973330	-0.0033369344	-0.0072528678	0.0283667091	-0.0050221793	-0.0067765294	-0.0097437073	0.0039651836	-0.0200579669	0.0090621468	0.0005562902	0.0020899083	0.0236619990	0.0021796860	0.0125062419	0.0208931826	0.0216985624	0.0237521771	0.0164052434	-0.0079690907	-0.0113970563	-0.0154576516	-0.0162351895	-0.0249376111	-0.0056243278	-0.0040481891	-0.0002053502	0.0028732028	-0.0009233233	-0.0001515055	-0.0045697377	-0.0042897644	-0.0039787930	-0.0009992063	-0.0006111794	-0.0007653991	0.0002341753	-0.0001398829	-0.0009379396	-0.0018402725	-0.0002934643	-0.0006468366	-0.0029363842	-0.0022647239	-0.0024396770	-0.0023324727	-0.0018070024	-0.0002382676	-0.0014177464	-0.0023942520	-0.0012167315	-0.0055784066	-0.0051630633	-0.0082417270	-0.0055638487	-0.0015755023	0.0019245385	-0.0000547724	-0.0037418255	-0.0003586044	-0.0021191689	-0.0047618607	-0.0043776575	-0.0060482156	-0.0022681416	-0.0006255790	0.0007015609	0.0021052135	-0.0000949871	-0.0016061539	0.0003475216	0.0005749803	-0.0034143392	0.0011120040	0.0012564951	-0.0051931455	-0.0039506233	-0.0073316665	-0.0036337248	-0.0026526661	-0.0000783915	0.0015420034	-0.0060555032	0.0016272077	-0.0036537929	-0.0020199607	-0.0001014746	-0.0024576397	-0.0005424068	-0.0010707190	-0.0008892899	-0.0011248804	-0.0018560486	0.0000722342	-0.0028396305	-0.0023464435	-0.0030020550	-0.0011765116	0.0019023250	0.0020011822	0.0034687526	0.0027782491	-0.0002212878	0.0045146639	-0.0009272716	-0.0004420175	-0.0019635465	-0.0037444159	-0.0039427485	-0.0016465686	-0.0036552292	-0.0013311342	-0.0027773050	-0.0008417036	-0.0012318514	-0.0009548017	0.0004252272	0.0002099961	-0.0002759069	-0.0027722945	0.0011632547	0.0035168626	-0.0000615234	-0.0037019332	-0.0000086129	-0.0018393842	-0.0043219430	-0.0042363484	-0.0019408744	-0.0027908362	-0.0007891976	-0.0020379808	0.0012276790	-0.0001915295	0.0009809397	0.0019368168
-0.0001037856	0.0017666311	0.0020021494	0.0020752111	0.0023806959	0.0001556961	-0.0004846990	-0.0035677264	-0.0033384089	-0.0031891807	-0.0043170792	-0.0034644054	0.0005179188	-0.0013933610	0.0015156877	0.0006878298	0.0023088320	0.0005665635	0.0014264199	0.0018546041	-0.0002119215	-0.0002976041	-0.0016848595	0.0024378661	-0.0056879171	-0.0009072630	-0.0041749049	-0.0048285951	-0.0013364315	-0.0017232118	-0.0042503066	-0.0040993597	0.0008065728	0.0017798709	0.0042768368	0.0051269517	0.0041082380	0.0038153580	0.0029865496	0.0014130700	-0.0004013623	-0.0015909153	-0.0091322288	-0.0021387150	-0.0098661091	-0.0008841875	-0.0022190262	-0.0022541338	0.0011940533	0.0035127532	0.0152643844	0.0006320348	-0.0184304640	-0.0192944854	-0.0030568303	-0.0097838296	-0.0112536326	0.0140096676	-0.0084643867	-0.0056100548	0.0130735328	0.0252644867	-0.0172522329	0.0072029927	0.0122233517	-0.0380365103	-0.0255364440	0.0201035161	0.0144300386	-0.0096647693	0.0211493820	-0.0073706168	-0.0099898279	-0.0246881079	-0.0082430961	0.0014454899	-0.0029489249	0.0046017393	0.0037489526	0.0153179904	0.0117797190	0.0028151199	-0.0021199111	0.0034298259	-0.0063250982	0.0210347269	0.0012492214	-0.0189972091	0.0104883015	-0.0126485080	-0.0059434739	0.0282725245	-0.0024009966	0.0043343091	-0.0037938461	0.0097114556	-0.0057202023	0.0098329810	-0.0059176120	-0.0043493034	0.0211498532	0.0133802714	0.0380179435	0.0354304947	0.0160897747	0.0042112684	-0.0139705399	-0.0228594542	-0.0182933807	-0.0207587946	-0.0216009356	-0.0223678164	-0.0105962399	-0.0127145704	-0.0028907764	-0.0015353184	0.0030273681	0.0032631233	-0.0030379416	-0.0019616843	-0.0030987237	-0.0005094169	-0.0001998631	-0.0001302095	0.0007717834	0.0013677500	0.0019773834	0.0019392304	0.0006622857	0.0040460993	0.0019585355	0.0017227022	-0.0006983118	0.0016933233	-0.0022114192	-0.0022011490	0.0024449935	-0.0028540008	-0.0034083389	-0.0042977170	-0.0065275724	-0.0055101519	-0.0016213807	0.0000095926	0.0009981227	0.0021367858	-0.0021512974	-0.0008573288	0.0019720485	-0.0020848038	-0.0005894163	-0.0004158812	0.0016282168	0.0023231346	0.0038489876	0.0034078790	0.0017951017	-0.0013923676	-0.0040412480	-0.0039078197	-0.0063994783	-0.0042465311	-0.0062896013	-0.0112882573	-0.0076572127	-0.0121016959	-0.0062072347	-0.0019167133	-0.0035874131	0.0048925523	-0.0023483881	-0.0010822352	-0.0001083766	-0.0011363282	-0.0018224644	0.0001067666	0.0023088402	0.0001410364	0.0013536317	0.0023766479	-0.0030380285	-0.0001512550	-0.0003057385	-0.0034461769	0.0004128406	-0.0005497555	0.0015527220	-0.0011226784	-0.0020921167	-0.0010482772	-0.0041901092	0.0019516255	-0.0013610173	0.0010293616	-0.0005285335	-0.0003224789	-0.0024504664	0.0014008908	-0.0003641812	0.0004688168	-0.0007941542	-0.0004324364	0.0003980048	-0.0020309128	0.0000584173	0.0010857609	-0.0001445466	-0.0021980735	-0.0003208827	0.0027856249	0.0051660468	-0.0044184178	-0.0016387171	0.0007919199	-0.0046754442	-0.0036983145	0.0006993442	-0.0024538520	-0.0010166906	0.0000770092	0.0012926676	0.0003715541	0.0012768793	0.0019332026
0.0004834074	-0.0005562686	0.0010476076	0.0011135552	0.0002384428	-0.0002606831	0.0004201941	-0.0003832362	-0.0026288717	-0.0025403644	-0.0004329522	-0.0023137466	0.0004582101	-0.0005211485	-0.0017979328	-0.0013763282	0.0014047034	0.0008158883	0.0013849922	0.0006731112	0.0003725525	-0.0001274989	-0.0002139860	0.0002092293	-0.0015620573	-0.0008476477	-0.0011434747	-0.0021326509	-0.0017646458	-0.0012109377	-0.0025470790	-0.0021856395	0.0022294833	0.0029539256	0.0033350445	0.0035249295	0.0033178583	0.0026828935	0.0015490137	0.0003542115	0.0000918760	0.0002545161	-0.0037438450	-0.0019900424	-0.0085003506	0.0045473762	-0.0024165909	-0.0075822757	-0.0022935825	-0.0007430199	0.0095492518	-0.0049513299	-0.0195517801	-0.0082645696	0.0070140385	-0.0142264199	-0.0135933571	0.0090665938	-0.0134576103	-0.0163597912	0.0033204972	0.0251646303	-0.0174417961	0.0149333850	0.0145560950	-0.0204807278	0.0026741968	0.0269163065	0.0096060354	-0.0093199462	0.0176014565	-0.0030568813	0.0035109005	-0.0173283331	0.0044712545	0.0086987987	-0.0013361317	0.0099801738	-0.0034203725	0.0064478870	0.0082577299	-0.0046368390	0.0070807026	0.0094920192	0.0126577243	0.0192189366	-0.0222514383	-0.0276512019	0.0151739568	0.0009806752	0.0021917825	0.0220446978	-0.0115964608	-0.0137780737	-0.0291760452	0.0010693227	-0.0075474982	0.0136594363	0.0042931205	-0.0053834207	0.0154108135	0.0194328334	0.0314808525	0.0355962738	0.0094386358	-0.0080515658	-0.0195392892	-0.0251279697	-0.0149678253	-0.0164328590	-0.0280582979	-0.0262815617	-0.0155195035	-0.0142899323	-0.0051340237	-0.0022344941	0.0038538894	0.0020206627	-0.0011242528	0.0005985867	-0.0018116203	0.0003050067	0.0010075571	0.0005862507	0.0012414940	0.0012811096	0.0012095683	0.0022066203	0.0013070474	0.0027807916	0.0030301500	0.0029116282	-0.0021307357	-0.0016687907	0.0012146329	-0.0036218334	0.0014518888	0.0003904450	-0.0051308889	-0.0035495914	-0.0021442596	-0.0024299312	-0.0025584581	-0.0009615517	-0.0001618344	-0.0006218338	-0.0004664193	-0.0025611268	-0.0005081824	-0.0007900189	-0.0017333744	-0.0022599213	0.0000671042	-0.0001801609	0.0009753376	0.0013792958	-0.0000493503	-0.0001516080	-0.0020553898	-0.0021691867	-0.0038639421	-0.0025388007	-0.0041156779	-0.0079325689	-0.0030878054	-0.0057746591	-0.0047897859	-0.0036738375	-0.0002787440	0.0000086484	-0.0036620889	-0.0008235098	-0.0026726292	-0.0014775118	-0.0015161883	0.0000629349	0.0020625165	0.0005933976	0.0023003670	0.0020477541	0.0005155519	0.0004471559	0.0024968644	0.0003205506	0.0018655838	0.0003187641	-0.0008823697	-0.0062639727	-0.0038249190	-0.0008610557	-0.0035795793	-0.0013773227	-0.0047038291	-0.0051664412	-0.0052220491	-0.0008655102	0.0017256296	0.0024374642	0.0013477803	-0.0005555592	-0.0010009435	0.0003201089	0.0001117776	0.0016925004	-0.0010477640	-0.0006320744	0.0030360387	-0.0021027201	-0.0016012695	0.0039757830	0.0033135158	-0.0017739086	-0.0014702482	-0.0001722621	0.0002707966	-0.0026283860	-0.0001243516	0.0012431102	-0.0001514232	0.0024318874	0.0044806516	0.0009974050	0.0010296241	0.0013186412
0.0045147315	0.0005111132	-0.0000628921	0.0015088979	-0.0004237626	-0.0011670456	-0.0009508154	-0.0025439996	-0.0012367256	-0.0015539068	-0.0006489138	0.0017496170	0.0018193875	0.0000838646	0.0033154835	0.0038224848	0.0025336198	0.0014859071	-0.0002099980	0.0023025533	-0.0006471983	0.0022460958	0.0026107808	0.0004304836	0.0061862888	0.0023362506	-0.0016133911	0.0031697140	-0.0029142401	-0.0023678071	0.0035784910	0.0058275932	0.0081247799	0.0071089286	0.0021717681	0.0031515073	0.0012034903	0.0011659423	0.0018721994	0.0015697391	-0.0013996055	-0.0047689644	-0.0051703681	-0.0003729040	-0.0193092674	-0.0004057735	-0.0119902529	-0.0150760580	0.0041015632	-0.0070777861	-0.0091071799	-0.0111370794	-0.0019702965	-0.0062207486	0.0217287187	0.0167286322	0.0170941688	0.0050518694	-0.0249824524	-0.0143802464	0.0157551467	0.0178762190	-0.0446309075	-0.0195571035	-0.0319212079	-0.0344447345	-0.0069184033	0.0010866462	0.0005707736	-0.0187633429	0.0234303679	0.0114953741	0.0040023709	-0.0154586034	0.0159974936	0.0121000065	0.0006826937	0.0031494533	-0.0163409319	-0.0015150001	0.0084832134	-0.0001685750	0.0204663724	-0.0014821126	0.0033380948	0.0299377814	0.0107547287	-0.0027409054	0.0308783352	0.0143191516	-0.0060576852	0.0014878097	-0.0126481000	-0.0174651965	-0.0187440999	-0.0112707345	-0.0179476514	0.0060567181	0.0034300881	0.0096020550	0.0328398161	0.0260028597	0.0201353654	0.0324613973	0.0243136324	0.0106423479	0.0095520718	-0.0024593500	-0.0164716206	-0.0152391884	-0.0300030317	-0.0260387585	-0.0136797968	-0.0151644731	-0.0082760798	-0.0008658709	0.0042733364	0.0028176741	-0.0029073113	0.0049396250	-0.0006204562	0.0001380348	0.0018271803	0.0039288332	0.0043014782	0.0034793494	0.0028390442	0.0057992763	0.0024257200	0.0018648214	0.0002895446	0.0018092291	-0.0015249185	-0.0035600706	0.0028781868	-0.0022855287	-0.0034909584	0.0011443830	-0.0025116394	-0.0008342807	-0.0039941822	-0.0024384274	-0.0020070467	0.0027985151	0.0016997011	-0.0001372535	0.0022526905	0.0035221996	-0.0003487122	0.0006756721	0.0007671783	-0.0017643189	-0.0000097853	-0.0000245687	-0.0006733171	0.0014278891	0.0006395844	0.0016382460	0.0023850137	0.0019498968	-0.0034674243	-0.0040943623	-0.0046998588	-0.0048561264	-0.0063242624	-0.0054380810	-0.0007941353	-0.0044656117	0.0007827423	-0.0017334515	-0.0058854399	-0.0006082847	-0.0022767659	0.0001771583	-0.0004452487	-0.0004478927	-0.0023548170	-0.0063402895	-0.0060553290	-0.0055445354	-0.0053294213	-0.0049688388	-0.0007326711	0.0040107574	-0.0033153621	-0.0046941596	-0.0008874622	-0.0022505247	-0.0037185061	-0.0023347875	-0.0012294448	-0.0005885289	-0.0099834753	-0.0088571832	-0.0053170403	-0.0013369466	0.0051742615	0.0044208323	0.0045031649	0.0012121614	0.0035961508	-0.0005662737	-0.0008235897	-0.0006509388	-0.0014312540	-0.0026465780	0.0026376455	0.0000135133	0.0010208469	0.0051550404	0.0085911946	0.0034912080	0.0050772433	0.0028704524	0.0072891233	0.0036648354	0.0010552839	0.0050234459	0.0054250639	0.0041813063	0.0044761351	0.0009913896	0.0012796086	0.0012226617
0.0043270569	-0.0006589541	0.0023260345	0.0005518484	-0.0019888976	0.0013905125	0.0002588639	-0.0021035648	0.0006319236	-0.0003953460	0.0024063643	0.0032576208	0.0003062413	0.0034647901	0.0007353610	0.0027117166	0.0009001505	-0.0006257094	-0.0012682178	0.0008379294	-0.0018483538	-0.0006208345	0.0007227917	0.0010412188	0.0046607936	-0.0013713703	-0.0011581560	0.0000790822	-0.0061156931	0.0009606577	0.0004580823	0.0035394761	0.0041812342	0.0011422939	-0.0022785016	-0.0020176754	-0.0037687744	-0.0027550587	0.0014872230	0.0005717622	-0.0004792911	-0.0018374713	-0.0032942721	0.0047376491	-0.0121452659	-0.0000144135	-0.0075486652	-0.0170396380	0.0119869737	-0.0004207722	0.0062427428	0.0100764185	0.0225921087	0.0078917146	0.0133453226	0.0186111815	0.0127003053	-0.0222626198	-0.0247011147	-0.0194439590	0.0208824109	0.0176700577	-0.0618774742	-0.0378128663	-0.0329881459	-0.0064292070	-0.0012695174	-0.0101317447	0.0122441370	-0.0165253337	0.0322754346	0.0094242636	-0.0168115310	-0.0055705588	0.0291245412	0.0217303094	0.0229429156	0.0094845500	-0.0014036312	0.0069586700	0.0088895112	0.0068166796	0.0227583572	-0.0025195852	0.0109566972	0.0376951471	0.0177401397	-0.0099828988	0.0038710530	0.0016074546	-0.0153250936	0.0053399103	-0.0089600077	-0.0019363138	-0.0181762073	-0.0179480668	-0.0130226593	0.0013489912	0.0046576387	0.0111830384	0.0106507298	0.0092350971	-0.0034961724	0.0045845602	0.0087508857	-0.0017505836	-0.0164650381	-0.0130210016	-0.0283896402	-0.0103951255	-0.0184652116	-0.0136938626	-0.0072105033	-0.0109552825	-0.0053239460	-0.0008977921	0.0016723203	-0.0006494288	0.0036824981	0.0068348367	0.0024131916	0.0011955781	0.0027019160	0.0041942592	0.0044035036	0.0040551508	0.0031447760	0.0027565013	0.0000683429	0.0011583217	-0.0042467746	-0.0029394552	-0.0058268625	-0.0034784244	-0.0037237487	0.0005736360	-0.0034866442	-0.0005667745	-0.0010214043	0.0012706952	-0.0013681572	-0.0010426005	-0.0015234754	0.0002143616	0.0007637350	0.0000853619	-0.0014037129	0.0040507950	-0.0008902591	-0.0002618795	0.0002721102	-0.0016775436	0.0000661120	-0.0012200278	-0.0022872388	-0.0013074997	-0.0023716092	0.0012088633	0.0054004784	0.0080734855	0.0011960993	-0.0003218715	-0.0018685726	-0.0015208328	-0.0034278275	-0.0020754721	0.0001096423	0.0001224627	0.0047389860	-0.0041312468	-0.0011292346	-0.0007265970	0.0014939604	0.0027791723	-0.0046124379	0.0012476433	0.0053195213	0.0056178859	0.0054879691	0.0033311420	0.0010291225	-0.0006438005	-0.0022890659	-0.0002719478	-0.0039610905	-0.0044992133	0.0046047387	0.0059600365	0.0025192164	-0.0002679144	-0.0017203414	-0.0010587379	-0.0042859339	-0.0022562149	0.0010151793	0.0026059337	0.0079262545	0.0072359978	0.0055816062	0.0056276307	0.0071567553	-0.0002660229	0.0002886838	-0.0025633636	-0.0007462837	0.0001038598	-0.0034440192	0.0014994415	-0.0024782752	-0.0013542043	0.0064279488	0.0016435134	0.0006168229	-0.0002588285	-0.0002723179	0.0057120537	-0.0003348840	0.0033917052	0.0006055922	-0.0004565889	0.0027293547	0.0024620239	0.0031055089	0.0027493583
0.0076968214	0.0005205239	0.0041647679	0.0019485869	-0.0007727194	0.0043275082	-0.0008365919	-0.0003162097	0.0033445561	-0.0002146027	0.0064535229	0.0029182921	0.0019935826	0.0045776037	0.0011017862	0.0004270956	-0.0007763384	-0.0034208714	-0.0069392505	-0.0030371326	-0.0060483511	-0.0043416917	-0.0020588667	-0.0005868860	0.0045837513	-0.0001981133	0.0054482822	0.0048988201	0.0005739572	0.0050130612	0.0080483118	0.0081342440	0.0100024818	0.0015934163	-0.0038122796	-0.0023044534	-0.0019709680	0.0012950972	0.0022943157	0.0031306772	0.0065252986	0.0017774245	-0.0037929262	-0.0008593539	-0.0131936977	-0.0026102557	-0.0208091736	-0.0236550830	-0.0054265410	-0.0279843193	-0.0099569121	-0.0037551979	0.0163947232	0.0302355681	0.0076827789	-0.0035142601	0.0043902397	-0.0278772414	-0.0343868434	-0.0391601138	-0.0068477169	-0.0146330427	-0.0396972299	-0.0138601195	-0.0201035999	0.0298293792	-0.0030612436	0.0036236471	0.0503077917	-0.0077391211	0.0188332330	-0.0199472308	-0.0308031719	0.0092790555	0.0261496194	0.0022970857	0.0059933430	-0.0039676852	-0.0089938622	-0.0070753344	-0.0092688836	-0.0074008629	0.0088038202	0.0064676013	0.0243612714	0.0262230616	0.0121697308	0.0048227748	0.0240143985	-0.0014684056	-0.0143713541	-0.0032603536	-0.0126512367	-0.0102667557	-0.0299049858	-0.0192500520	-0.0084198993	-0.0065735877	0.0061020618	0.0114310337	0.0056456206	0.0082306918	0.0042261514	0.0146955764	0.0105173625	0.0017811563	0.0070763212	0.0035763623	-0.0123887127	0.0142310020	0.0129153114	0.0064077773	0.0078049386	-0.0001107833	-0.0025788990	-0.0029624312	0.0018977665	-0.0074562402	-0.0077140145	0.0018442123	-0.0001961689	-0.0017859489	-0.0007584165	0.0009157435	0.0014027336	0.0023443107	0.0033404152	0.0069388133	0.0002989805	0.0014273132	-0.0022457126	0.0021420026	-0.0042774291	0.0016681277	0.0005548691	0.0034184644	0.0050543658	0.0040772646	-0.0010614832	0.0056015751	0.0020783967	0.0029511026	0.0000219692	0.0051246439	0.0010723927	0.0005344705	0.0004961277	0.0046374444	0.0028294164	0.0019930967	0.0010765423	-0.0001717023	0.0010164792	-0.0027164365	-0.0029601906	-0.0016951768	-0.0057610450	-0.0030485219	0.0007082027	0.0040702019	0.0031022597	0.0052426001	0.0027264673	-0.0018958729	-0.0032700188	0.0002063726	0.0018879577	0.0014947959	0.0089598056	-0.0009298619	0.0064498843	0.0043484517	-0.0003478522	0.0004857240	-0.0045798328	0.0002311462	0.0026347078	0.0007420151	0.0040530562	0.0052353726	0.0024737185	0.0011677356	-0.0028570793	0.0000620000	0.0027372560	0.0006759606	-0.0020847013	0.0003808247	-0.0017703669	-0.0051262951	-0.0093789576	-0.0095321126	-0.0180163700	-0.0174196195	-0.0133500844	-0.0100296214	-0.0050986302	0.0017615829	0.0018045169	-0.0014042859	-0.0010564579	-0.0032388561	-0.0025063299	0.0000335483	-0.0042341757	-0.0011480437	-0.0015133346	-0.0001803829	0.0001051300	-0.0022055574	0.0051646838	0.0098565640	0.0047708852	0.0060315123	0.0067094211	0.0078813154	0.0018924959	0.0010720575	-0.0028103918	-0.0038053365	-0.0006582855	-0.0025056452	-0.0012476139	-0.0014421794
0.0073462892	0.0019448518	0.0029617795	0.0010054391	-0.0011677451	0.0025389944	-0.0012582578	-0.0015398533	0.0018791693	-0.0005675572	0.0032718449	0.0009580447	0.0010711798	0.0015657832	0.0009233822	0.0010776641	-0.0044370652	-0.0044538798	-0.0093000820	-0.0066982671	-0.0100688338	-0.0078709871	-0.0056248023	-0.0052382993	0.0020054337	-0.0003390186	0.0026168858	0.0043030069	0.0030120516	0.0033992070	0.0030503229	0.0043871421	0.0006947743	-0.0025212604	-0.0090898480	-0.0066213170	-0.0052261469	-0.0006065632	0.0010456503	0.0026849788	0.0050881640	0.0048975898	0.0009012171	0.0059494427	-0.0064725871	0.0023993733	-0.0077540963	-0.0026155219	0.0100169303	-0.0097529972	-0.0054460228	0.0086849602	0.0224938430	0.0290594324	0.0122936256	0.0090930695	-0.0025250972	-0.0512758233	-0.0466376655	-0.0261696950	-0.0159175340	-0.0291705877	-0.0012607612	0.0310641453	0.0117777772	0.0717341378	0.0122139901	-0.0029245252	0.0469254814	-0.0216805935	-0.0122067649	-0.0146647263	-0.0086747473	0.0215611942	0.0115041882	-0.0172510631	-0.0084386747	0.0025667287	-0.0049513327	-0.0077189878	-0.0079480931	-0.0123122977	0.0000143693	0.0079528214	-0.0025644531	-0.0000895520	0.0175136514	0.0068155639	0.0181533918	-0.0017531667	-0.0136803575	-0.0196409505	0.0052872435	0.0175438039	-0.0006015177	-0.0108168982	0.0014983470	-0.0096306540	0.0028877289	-0.0044519436	-0.0088872686	0.0120515656	0.0150762871	0.0116323903	0.0097865118	-0.0171275921	0.0048371628	0.0159610845	-0.0200237315	-0.0029030018	0.0044090874	0.0018090489	0.0035272487	-0.0012924294	-0.0028236755	-0.0023750940	-0.0007053522	-0.0095727071	-0.0080413446	0.0033226034	0.0015834635	-0.0020210252	-0.0005767993	0.0001481450	0.0003019507	0.0011894972	0.0010207790	0.0019883877	-0.0006234292	-0.0010549694	-0.0018949943	-0.0024661978	-0.0014682498	-0.0007431183	-0.0006771032	0.0001934170	-0.0010315099	0.0002488536	-0.0010454598	0.0012351741	-0.0024219537	-0.0008445788	-0.0022995009	-0.0001545333	-0.0008602149	-0.0001176162	-0.0015093648	-0.0004620064	-0.0035664083	-0.0015892250	0.0000877060	-0.0008889153	-0.0008007077	-0.0018496853	-0.0027905912	-0.0027400006	-0.0031106600	-0.0038432449	-0.0026923036	-0.0013164098	-0.0006154227	0.0013968793	0.0010252297	0.0024945340	0.0007475470	-0.0008266664	0.0045171315	-0.0008862202	0.0037055165	-0.0010927919	-0.0006037423	-0.0035095450	-0.0034747808	-0.0031232664	-0.0050284541	-0.0035351918	-0.0061720167	-0.0064577148	-0.0032523421	-0.0009604458	0.0014188245	0.0036182690	-0.0024076488	-0.0006021874	0.0049758097	0.0010180264	-0.0014945021	-0.0020114551	-0.0023827690	-0.0049327491	-0.0077702608	-0.0061927852	-0.0118864765	-0.0142395757	-0.0125191351	-0.0093835490	-0.0053943181	-0.0025036884	-0.0004202316	-0.0025124829	-0.0004297810	-0.0025616838	-0.0034046564	-0.0039898553	-0.0019217927	-0.0025899347	-0.0019709277	-0.0021458499	-0.0004013929	-0.0013636450	0.0000207823	-0.0020078612	0.0007875533	0.0026497790	0.0052322326	0.0028396142	-0.0042991098	-0.0048874700	-0.0035488566	-0.0044360701	-0.0032452962	-0.0022528775	-0.0006457751	-0.0012151235
0.0056654355	0.0023834165	0.0047741500	0.0009474870	-0.0015292437	0.0027079356	0.0037398955	0.0053082011	0.0025166636	0.0026882510	0.0071222410	0.0025859089	0.0012335272	0.0020079359	0.0031005791	-0.0011632515	-0.0027524903	-0.0031511607	-0.0081236186	-0.0078723617	-0.0129618049	-0.0098525127	-0.0083601465	-0.0113023957	-0.0001491823	-0.0000823454	0.0012694157	0.0063654087	0.0059133037	0.0039716843	0.0004724617	0.0050151418	-0.0022493773	-0.0044441423	-0.0116474647	-0.0077345944	-0.0050712926	0.0002981589	0.0054623052	0.0048619998	0.0149719957	0.0103015946	0.0014393231	0.0067590103	-0.0039185272	-0.0021662812	-0.0049621826	-0.0005769413	0.0059614792	-0.0018287278	0.0080652405	0.0314047784	0.0243466273	0.0191722885	0.0081207426	-0.0081937062	-0.0319672935	-0.0876502320	-0.0719046444	-0.0165836811	-0.0145808049	-0.0220246743	0.0160034467	0.0297120363	0.0104092946	0.0775713772	0.0159299597	-0.0465291515	-0.0027655275	-0.0208649915	-0.0062210774	-0.0113070169	-0.0076600742	0.0092259860	-0.0062690107	-0.0124328369	0.0026640273	-0.0025392100	-0.0115240589	0.0000125689	-0.0083041508	-0.0058980426	-0.0004023653	-0.0037254135	-0.0179396160	-0.0134790335	0.0000468148	-0.0042502526	0.0339147896	0.0345269889	0.0161493886	-0.0018888535	0.0181372799	0.0227167476	-0.0008649705	0.0061148135	0.0184083059	0.0178684499	0.0217532124	0.0152640715	0.0007831967	0.0037810933	-0.0031334769	0.0113931159	0.0187023431	-0.0040870309	0.0090154959	0.0222986061	-0.0051327711	-0.0096747167	-0.0014140689	0.0084355827	0.0082606198	0.0000611773	0.0089501860	0.0040387930	-0.0012814826	-0.0086341249	-0.0033732196	0.0006721382	-0.0014584427	-0.0001691973	-0.0005541418	-0.0015694518	0.0005768018	0.0005195360	0.0000934166	0.0012711867	0.0006769329	-0.0005904905	-0.0020366306	-0.0017037441	-0.0006279286	0.0000111072	-0.0002121869	0.0005802497	-0.0015954345	-0.0002424431	-0.0024148978	0.0014424955	-0.0031914476	-0.0015837263	-0.0027765678	-0.0005033728	0.0011750998	0.0039041862	0.0031879335	0.0016804702	-0.0033375272	-0.0022130432	-0.0047572339	-0.0056884349	-0.0044368645	-0.0024123720	-0.0016736450	-0.0020255269	-0.0012007552	-0.0016380234	-0.0007802538	0.0004397886	-0.0014882402	-0.0014090217	0.0001012034	0.0027162244	0.0020173434	-0.0024826583	0.0050593764	0.0015006057	-0.0019144067	-0.0012555904	-0.0003565263	-0.0062869620	-0.0015803991	-0.0008663710	0.0009146841	0.0033729486	0.0065681953	0.0047458094	0.0041203662	0.0067912485	0.0102480520	0.0107513638	0.0040110247	-0.0042972905	-0.0009049584	0.0006508587	0.0000260817	-0.0027983312	-0.0097959796	-0.0071495078	-0.0062717078	-0.0045829741	-0.0059905555	-0.0066279708	-0.0042641200	-0.0034925309	-0.0038821164	-0.0051668119	-0.0051867506	-0.0033029867	0.0008201390	-0.0011175617	-0.0040575219	-0.0053751161	-0.0019749356	-0.0014731232	-0.0039813337	-0.0061285794	-0.0032191901	-0.0030762688	-0.0021743609	-0.0010907706	0.0013334602	0.0009957660	-0.0002132508	-0.0015626382	-0.0090841651	-0.0092859128	-0.0042283130	-0.0037731919	-0.0028809342	-0.0022438117	-0.0004155508	-0.0009311527
0.0068649501	0.0018737081	0.0032173044	0.0012549444	-0.0014556181	-0.0001359222	0.0032114976	0.0011016864	0.0023740216	0.0002435693	0.0015455463	0.0000479585	0.0002522977	-0.0047497996	0.0009352103	-0.0065279352	-0.0038624378	-0.0028295212	-0.0073961942	-0.0070373844	-0.0114110336	-0.0080748815	-0.0082742004	-0.0090422239	0.0019701724	-0.0023915628	0.0046779895	0.0052159303	0.0038431608	0.0042684395	-0.0036274723	0.0001075852	-0.0044668643	-0.0072762743	-0.0156032583	-0.0111091789	-0.0075272396	-0.0007741714	0.0047862306	0.0051630400	0.0155957201	0.0118796434	0.0055457978	0.0045153759	-0.0024279554	0.0049773152	-0.0021944726	0.0026273793	0.0074951882	-0.0047697602	0.0078836400	0.0242197067	0.0078582168	0.0035375464	-0.0193253458	-0.0372186378	-0.0099204946	-0.0420260802	0.0013359198	0.0328136422	-0.0187832937	-0.0464680567	0.0282286312	0.0194840226	-0.0048118662	0.0361778289	-0.0073012528	-0.0573513135	-0.0321286917	-0.0227737390	0.0163169727	-0.0212880261	-0.0155865056	0.0065735220	0.0045870962	0.0145013090	0.0308942460	0.0012592524	-0.0213547572	-0.0002540727	0.0115632154	-0.0018350427	0.0034508656	-0.0074560503	-0.0204561912	-0.0059365500	0.0048863608	-0.0180105679	0.0063279900	0.0150629422	0.0251888111	-0.0045755589	-0.0004792572	-0.0050254553	-0.0326237902	-0.0329993963	-0.0392907076	-0.0462171808	-0.0222386755	-0.0001218295	-0.0037201841	-0.0064361552	0.0135689145	0.0183497258	0.0108415801	-0.0051268283	-0.0101779941	-0.0031144603	0.0001165178	-0.0126989372	0.0106120342	0.0268179383	0.0225940142	0.0028063480	0.0033342964	0.0094936341	0.0060787825	-0.0015077338	-0.0020071610	-0.0051008789	-0.0042172084	-0.0011552928	0.0011014079	-0.0008493316	-0.0016910911	0.0004237156	0.0005709466	0.0017946168	0.0008347692	-0.0006038894	-0.0023174305	-0.0022177994	-0.0006983347	0.0000630015	-0.0010444147	0.0004458708	-0.0017341950	-0.0006315938	-0.0024430349	0.0001105605	-0.0036967697	-0.0001181901	0.0003634892	-0.0000946074	0.0013091925	0.0043016393	0.0018845908	0.0018429930	-0.0007600572	-0.0006498813	-0.0052100769	-0.0035542203	-0.0006029189	0.0004178464	0.0014153353	0.0018415207	0.0015454997	0.0001076261	0.0017615674	0.0025337087	0.0006310184	0.0005392052	0.0043386095	0.0008530693	0.0024419343	0.0028378693	0.0031518335	0.0031993445	0.0014733702	-0.0013528231	0.0028133378	-0.0022105894	-0.0010782747	-0.0040076142	0.0042466861	-0.0004217181	0.0014032520	-0.0055093961	-0.0073082345	-0.0110424394	-0.0071645402	0.0015647167	0.0081638005	-0.0043077152	-0.0019190975	0.0016000615	-0.0080397278	-0.0071214866	-0.0028142035	-0.0041633355	-0.0008508671	0.0004938520	-0.0012553916	0.0002553696	0.0021638069	0.0006420103	-0.0010166368	-0.0020251069	-0.0019392172	-0.0021072614	-0.0030897108	-0.0051259403	-0.0030082059	-0.0019365903	-0.0009813076	-0.0009126803	-0.0048386380	-0.0050899331	-0.0017390066	-0.0009263188	0.0013318011	0.0003053172	0.0001324209	-0.0016228843	-0.0018369564	0.0023454172	-0.0043197614	-0.0056443852	-0.0019269717	-0.0036847917	-0.0009332722	-0.0011010820	0.0005450451	-0.0000320413
0.0064444882	0.0033859124	0.0031980854	0.0006109474	-0.0020695892	-0.0011777255	0.0044581150	-0.0028347510	-0.0023398991	-0.0017571403	-0.0032920591	-0.0038477029	-0.0022847047	-0.0081751533	0.0021448622	-0.0037208737	-0.0011944383	-0.0014214632	-0.0069496841	-0.0058062137	-0.0081880372	-0.0060426574	-0.0060770717	-0.0107596451	0.0059312452	-0.0012420861	0.0068363962	0.0052844309	0.0041917558	0.0033005795	-0.0013945666	0.0008947238	-0.0023447662	-0.0050521847	-0.0119066536	-0.0078812670	-0.0055551901	0.0011105939	0.0057938704	0.0062955990	0.0199034493	0.0150010930	0.0130593311	0.0098499637	-0.0034185189	0.0059489552	-0.0133412788	-0.0016857304	-0.0095580677	-0.0267126579	0.0059629739	0.0148918321	0.0010348847	0.0121717267	0.0057735289	0.0192253813	0.0493638664	0.0124328621	0.0431723520	0.0626652315	0.0054861242	-0.0178435240	0.0566465259	0.0226252023	-0.0153559949	0.0074600275	-0.0136353821	-0.0287625305	-0.0436108112	-0.0394525826	0.0153426761	0.0014393139	0.0281490441	0.0074169384	-0.0174681693	-0.0064274506	0.0251353495	0.0079635875	-0.0153523581	-0.0180861726	-0.0195027106	-0.0140187535	-0.0019568226	-0.0117735425	-0.0165315326	-0.0172976889	-0.0000513414	-0.0118869962	0.0154947964	0.0263495855	0.0214391239	0.0035193949	0.0136375222	-0.0042971615	-0.0175210442	-0.0008087170	0.0101128854	-0.0090356395	-0.0223767813	-0.0181606244	-0.0163903888	-0.0117226606	0.0078805806	0.0027146745	-0.0206058659	-0.0204451345	-0.0276198555	-0.0162932463	0.0187203269	0.0087039303	0.0048465668	0.0110357320	0.0065087043	0.0026996941	0.0083981911	0.0111974292	0.0063449107	-0.0012284274	-0.0083525460	-0.0096519245	-0.0061584059	-0.0045084986	-0.0011124951	0.0003606483	-0.0012963340	-0.0012590071	-0.0010774274	0.0009611716	-0.0002300525	-0.0000483401	-0.0014557511	-0.0010665834	0.0012619382	0.0020256548	0.0016909539	0.0022538316	0.0002206497	-0.0004749730	-0.0025294910	-0.0000341877	-0.0033643872	-0.0000500501	-0.0001656983	-0.0007530498	0.0005987941	0.0038625291	0.0000065468	0.0024507355	0.0009672923	-0.0000296394	-0.0003411142	0.0005260615	0.0038855919	0.0054351916	0.0065812478	0.0069614402	0.0052797510	0.0018425328	0.0023662075	0.0021611601	-0.0010371854	-0.0020370486	0.0003069767	0.0033540926	0.0019167688	0.0045993859	0.0014198510	-0.0013418363	0.0036337834	-0.0002090818	-0.0013575818	0.0006220785	0.0039588753	0.0007551631	0.0071685007	0.0027827255	0.0075295973	0.0076821670	0.0058066212	-0.0021941799	-0.0080391550	-0.0068826061	-0.0000778366	-0.0042291647	-0.0078383852	0.0050238264	0.0023394316	-0.0074571427	-0.0013650043	0.0001657355	0.0048894398	0.0073261848	0.0018293253	0.0018516133	0.0016562938	0.0000045777	-0.0000714973	-0.0030177457	-0.0026824898	-0.0045062397	-0.0023565223	-0.0040842639	-0.0043805088	-0.0035843886	-0.0020661093	-0.0009093178	-0.0024219849	-0.0016991057	0.0028986821	0.0014793392	0.0043802783	0.0019447966	-0.0011062927	-0.0025638151	-0.0010980337	0.0029258577	-0.0050644856	-0.0055945218	0.0018014195	-0.0002753237	0.0003226643	-0.0002086063	0.0006066217	-0.0003698723
0.0046233092	0.0027157860	0.0052396478	-0.0005920563	-0.0040855370	-0.0014806171	-0.0017333486	-0.0021761702	-0.0059553399	-0.0069812862	-0.0019398065	-0.0067746127	-0.0031397436	-0.0042436104	-0.0010310530	-0.0041070175	0.0015073140	-0.0006973147	-0.0051603881	-0.0033226358	-0.0074832039	-0.0051164087	-0.0073055457	-0.0069738943	0.0040036915	0.0010138003	0.0085198786	0.0028676724	0.0038529292	0.0015798432	-0.0057646781	0.0002668506	-0.0025528292	-0.0030979614	-0.0106686689	-0.0074105752	-0.0080719190	-0.0038822326	0.0007777119	0.0039296267	0.0177217200	0.0128363371	0.0065704244	0.0056427480	0.0005425665	0.0059710112	-0.0043017468	-0.0003069844	-0.0114532141	-0.0333930254	-0.0216899496	-0.0198706239	-0.0033610221	0.0301413089	0.0322158113	0.0242296942	0.0203137193	0.0073135439	0.0560803190	0.0653323084	0.0365672521	0.0269775279	0.0520019643	-0.0074934913	-0.0497853495	-0.0345943198	-0.0277733114	-0.0295727924	-0.0503613427	-0.0542485937	-0.0022853964	0.0201303512	0.0248854291	0.0048378417	0.0005031228	-0.0079855826	-0.0046465728	0.0045297160	0.0079304930	-0.0074228132	-0.0348157883	-0.0151409646	0.0023417787	-0.0057197502	-0.0056714644	-0.0075661708	0.0114487801	-0.0013070637	0.0246236585	0.0263028387	-0.0026833129	-0.0134595660	0.0082268454	0.0015058417	-0.0184543021	0.0185658745	0.0236528479	-0.0049384572	-0.0093342112	0.0019153701	0.0050731334	0.0031423636	-0.0028467791	-0.0129060000	-0.0122973826	0.0024953806	0.0003617858	-0.0023238196	0.0197782386	0.0198258609	0.0014840164	-0.0034806018	0.0177706983	0.0208390448	0.0256247576	0.0116100349	-0.0010237894	-0.0031547246	-0.0098157078	-0.0038944313	-0.0025038242	-0.0030512973	-0.0029616267	0.0003089913	0.0026592503	-0.0000759488	-0.0005571115	0.0017620520	0.0011537180	-0.0004999684	-0.0014056283	-0.0007156606	0.0007937395	0.0014071775	0.0010416013	0.0023131811	0.0008771028	0.0008578933	-0.0022874749	0.0008498910	-0.0021870723	-0.0010951767	-0.0030406481	-0.0015942624	0.0031305030	0.0051140683	0.0012291163	0.0036218087	0.0004427711	-0.0005704245	0.0000304522	0.0019665980	0.0042438325	0.0074067460	0.0077964836	0.0034355903	0.0019309872	0.0006155147	-0.0016552929	-0.0010770204	-0.0014557175	0.0003408900	0.0006650237	-0.0007422033	0.0007688272	0.0006636258	-0.0016733669	0.0012028769	0.0037028065	0.0009288437	0.0012966271	-0.0003709317	0.0016109849	-0.0003055555	0.0012438521	0.0012212541	0.0105531439	0.0110208597	0.0073354356	0.0053437739	0.0021760743	-0.0006183776	0.0031579637	-0.0046499586	-0.0154397702	-0.0042683287	0.0107000135	0.0034690972	-0.0044427630	0.0010541016	0.0049198796	0.0055833934	0.0037138825	0.0014223612	0.0023371796	0.0018969865	0.0039480776	0.0007020892	-0.0020105627	-0.0050688344	-0.0004117896	-0.0021836450	-0.0042274334	-0.0052651092	-0.0029235738	-0.0006807367	-0.0016044436	-0.0008467956	0.0030741158	0.0033471715	0.0041582687	0.0024740810	-0.0005505965	-0.0038042814	-0.0022618321	0.0031544534	-0.0032018074	-0.0031419971	0.0038457569	-0.0001823116	-0.0015257898	-0.0008131737	-0.0003633393	-0.0013697012
0.0066849594	0.0002519545	-0.0000146149	-0.0012942927	-0.0056275874	-0.0024348074	0.0000995461	0.0017656663	-0.0025400361	-0.0035122973	0.0025464483	0.0015485043	0.0003472236	0.0020037296	0.0078607630	0.0019248630	0.0054943152	0.0000014286	-0.0043373834	-0.0028078742	-0.0094568525	-0.0064718528	-0.0066284011	-0.0045768879	0.0029686068	0.0028675739	0.0079075973	0.0046176272	0.0014209748	0.0010254001	-0.0048228698	-0.0020434405	-0.0014176510	-0.0017096811	-0.0068197926	-0.0040003457	-0.0064052478	-0.0072227083	-0.0039629997	-0.0005947562	0.0109739648	0.0088162962	-0.0051597673	0.0038030474	0.0019246088	0.0082110167	-0.0043871547	-0.0010124138	0.0008571711	-0.0039250236	-0.0235537030	-0.0305793937	0.0062460983	0.0138567034	-0.0122449743	0.0164269060	0.0332150199	0.0450460948	0.0979178175	0.0834475234	0.0247379150	0.0223813318	0.0560867526	0.0141362175	-0.0339819528	-0.0227330215	-0.0005090017	0.0023976422	-0.0085176621	-0.0229571946	-0.0018579075	0.0112556703	0.0073229820	-0.0112045445	0.0150933107	-0.0105592106	-0.0344040208	-0.0203277301	0.0010516074	-0.0138545018	-0.0234525595	-0.0083444184	0.0121787963	-0.0016434247	-0.0056895604	-0.0128685860	0.0252051819	0.0146693550	0.0285014473	0.0199161358	-0.0065431586	-0.0031254182	0.0132714398	0.0144321509	-0.0027856214	-0.0010938055	-0.0238468237	-0.0583811961	-0.0352619439	-0.0142041929	-0.0201373212	-0.0056002056	-0.0132766888	-0.0153982816	-0.0128212189	-0.0154255312	-0.0267377868	-0.0328759179	-0.0283870958	-0.0020761814	0.0048275469	0.0124607775	0.0177526549	0.0189076830	0.0070316303	0.0015608724	0.0046863672	0.0009058964	-0.0093060527	-0.0099553624	-0.0009065021	-0.0033551455	-0.0079518482	0.0007418944	0.0044323741	0.0008372148	-0.0020120791	-0.0017241751	0.0037643169	0.0003723665	-0.0032582248	0.0021674584	0.0018500604	0.0002821166	0.0001797752	0.0042845365	0.0005337932	0.0016582382	-0.0008374098	0.0025728582	-0.0021930970	-0.0028414996	-0.0052594943	-0.0018853014	0.0060825939	0.0063171638	0.0024320041	0.0049347319	0.0001515473	-0.0009177433	0.0009367152	0.0054308479	0.0057919216	0.0066868775	0.0066658808	0.0044226670	0.0021337885	0.0004554175	-0.0026480588	-0.0013602795	0.0005371243	-0.0009041974	-0.0041526323	-0.0045919307	0.0029170183	0.0015362801	-0.0043984083	-0.0007351303	0.0015579199	-0.0017953858	0.0046937987	0.0027091193	-0.0016174312	-0.0019987936	0.0014457386	0.0028691932	0.0077068205	0.0065414319	0.0056400560	0.0081294533	0.0050092693	0.0021598102	0.0071469545	0.0033336957	-0.0085008573	-0.0102165928	0.0016767900	0.0092570400	0.0045238542	0.0038651756	0.0052797184	0.0097989282	0.0000860597	0.0023359130	0.0035699834	0.0033265019	0.0034368581	0.0030541171	0.0028216152	0.0019404544	-0.0017603016	-0.0034279195	-0.0012051229	-0.0001127238	-0.0005634733	0.0011047998	0.0039814198	0.0043334370	0.0058986722	0.0046622907	0.0040414734	-0.0018758994	-0.0018339474	-0.0050101224	-0.0054670791	-0.0004667242	-0.0030590654	-0.0011516165	0.0031348043	0.0000883169	-0.0028421730	-0.0023104839	-0.0025670279	-0.0051548472
0.0059506767	0.0015877984	0.0017288747	0.0006386527	-0.0039238199	0.0025036996	-0.0010961196	-0.0035820357	-0.0056873746	-0.0024359375	-0.0022272295	0.0047175512	0.0016172589	0.0022524977	0.0116631854	0.0058953743	0.0082929609	0.0022945676	-0.0043672430	-0.0017849574	-0.0090087373	-0.0054831598	-0.0055143670	-0.0087847831	0.0025562155	0.0009563862	-0.0016691600	0.0020612897	-0.0011934991	-0.0047335662	-0.0059549287	-0.0075945281	-0.0022644477	-0.0040445863	-0.0041108420	-0.0037123400	-0.0055642021	-0.0059205652	-0.0119127827	-0.0162801351	-0.0064149513	0.0014473457	-0.0030918601	-0.0027243628	-0.0104446132	-0.0032765877	-0.0018046461	0.0063681686	0.0053180400	0.0063442900	0.0104113966	-0.0186230801	-0.0225203559	-0.0421580300	0.0025002751	0.0410324670	0.0529324524	0.0668383315	0.0767118186	0.0657391995	0.0491689071	0.0222756658	0.0358461626	0.0080335625	-0.0349440575	-0.0286102556	-0.0135342060	-0.0258861147	-0.0095429774	-0.0123194233	0.0166180078	0.0156024648	0.0007467145	-0.0011353319	0.0225593913	-0.0071965666	-0.0198673494	-0.0077665979	0.0104833422	0.0007687277	0.0107087912	0.0031550566	0.0121915210	0.0029815675	0.0046001496	-0.0177874696	0.0073614498	0.0052208989	0.0318450294	0.0244972780	-0.0019163546	0.0048469109	0.0073612025	0.0082373638	0.0039933766	-0.0049956208	0.0079976916	0.0061631156	0.0030388092	0.0028538527	-0.0154013941	0.0028166003	0.0136183612	0.0146781411	-0.0086201206	0.0045723547	-0.0216627810	-0.0164087527	-0.0215554833	0.0069564315	0.0202983897	0.0256240424	0.0145360511	0.0271913335	0.0194793940	0.0337535515	0.0347337276	0.0123472521	-0.0057307929	-0.0004163985	0.0058688573	-0.0033706976	0.0020600467	-0.0033523426	-0.0038864815	0.0072491765	0.0009097466	0.0018179634	-0.0014291648	-0.0030887583	0.0028047569	0.0021666540	0.0007070684	0.0061881668	-0.0013623848	0.0049016476	0.0010254860	0.0014474692	-0.0006865176	0.0025380515	-0.0022596633	-0.0028844003	-0.0027082642	0.0012496001	0.0031987834	0.0002828271	0.0012743864	0.0019921078	-0.0012863220	0.0019255015	0.0035679780	0.0058911033	0.0033892393	0.0027990995	0.0020722593	0.0027736423	-0.0014557793	-0.0031015328	-0.0038998644	-0.0013841839	-0.0012616131	-0.0017616703	-0.0015025088	-0.0004591383	0.0037131100	0.0022092382	0.0068422449	0.0022552246	-0.0027445545	0.0027986816	-0.0027912958	0.0003443242	-0.0025638232	-0.0003059426	-0.0007186068	-0.0066560782	-0.0034775259	0.0015084724	0.0003204431	0.0024122656	0.0013548159	0.0019817238	0.0042940048	0.0065920898	-0.0012654524	-0.0094740018	0.0018744753	0.0074126907	0.0111174425	0.0112741962	0.0069206455	0.0099459803	0.0004459888	0.0030867690	0.0056124381	0.0051330775	0.0041383104	0.0008431004	0.0010515450	-0.0011362560	-0.0013193389	-0.0009215600	-0.0017599125	0.0000196213	-0.0016251222	-0.0000967534	0.0009601497	0.0013015522	0.0029526004	0.0013801503	-0.0012233101	-0.0056827599	-0.0065057660	-0.0088105556	-0.0034403400	-0.0021554616	-0.0052731391	-0.0041202540	-0.0035480056	-0.0035272085	-0.0064677587	-0.0038191210	-0.0031746211	-0.0056739650
0.0052014766	-0.0003959432	0.0024790876	-0.0019629889	-0.0026319304	0.0027795909	-0.0030178309	0.0003954538	-0.0098568490	-0.0027716139	-0.0021421169	0.0003734831	0.0034306573	0.0026611020	0.0066303723	0.0038469178	0.0049698609	-0.0009328909	-0.0034180535	-0.0024056004	-0.0087952390	-0.0059420029	-0.0011286698	-0.0065074991	0.0013530799	0.0023815560	-0.0007665152	0.0011815570	0.0042491797	-0.0015033332	0.0006445825	0.0027601006	0.0037722222	-0.0011221706	0.0004921118	0.0002673354	-0.0013128523	-0.0000034489	-0.0001830176	-0.0114549855	-0.0030646820	-0.0035209330	-0.0106676174	-0.0104698725	-0.0119341603	0.0057938630	-0.0015137785	0.0049180002	-0.0112736207	-0.0143300723	-0.0073916707	-0.0302359872	-0.0151802860	-0.0108389398	0.0229823776	0.0520713665	0.0268193744	0.0401248485	0.0676015764	0.0602468699	0.0592352338	0.0065598702	0.0126436520	-0.0094706351	-0.0286409371	0.0045481035	0.0037903832	-0.0072257537	-0.0041337712	-0.0050465991	0.0135635026	0.0156857874	0.0040740687	0.0136442175	0.0242810547	-0.0064258594	-0.0155301988	-0.0062493850	0.0007642573	-0.0035068234	0.0167207569	0.0113237137	0.0161032137	0.0054632607	0.0116078872	-0.0127862729	0.0032064617	0.0024581207	0.0127024129	-0.0015369356	-0.0227508992	-0.0222498216	-0.0234039668	-0.0125406161	-0.0114164166	-0.0130056320	-0.0113065299	-0.0079945894	-0.0088955108	-0.0006102391	0.0182078127	0.0337733999	0.0334698819	0.0387378410	0.0145930964	0.0056007304	-0.0025156201	0.0038869793	-0.0012255678	-0.0009807185	-0.0096865324	0.0012158145	-0.0133653842	0.0027858112	-0.0044907872	-0.0010191388	-0.0091084875	-0.0122473268	-0.0135882944	-0.0085874554	-0.0078534484	-0.0060796915	0.0069006151	-0.0009293482	-0.0054773325	0.0013936991	-0.0031893896	0.0059265210	0.0068568992	-0.0065460387	0.0038632059	0.0010082745	0.0001352769	0.0058338493	0.0000704344	0.0038622548	0.0031510214	0.0018613676	0.0007441749	0.0037268405	-0.0009651866	0.0017024603	0.0028679497	0.0025695364	-0.0022442902	-0.0065863281	-0.0020470358	0.0009739674	-0.0010652305	0.0037670704	0.0011158846	0.0013288150	-0.0023823725	0.0005223853	0.0025866467	0.0001789572	-0.0039273649	-0.0029249340	-0.0022416792	-0.0024447045	0.0001911273	0.0048170700	0.0077831056	0.0004789639	-0.0037380042	-0.0094079999	0.0054133884	0.0100472802	-0.0034127682	0.0026747445	0.0038300413	0.0048397798	0.0076610507	0.0023774649	-0.0000324215	-0.0056467075	0.0030169105	0.0072418298	0.0008017684	0.0014759711	0.0023979947	0.0000508126	0.0010897992	0.0088637304	0.0106769279	-0.0057302010	-0.0027682360	0.0013738725	0.0124714468	0.0142610865	0.0080696587	0.0105859544	0.0035001410	0.0029083476	0.0023360073	-0.0005055098	-0.0039914567	-0.0036182769	-0.0010169924	0.0025797151	0.0076116351	0.0021915138	0.0015217024	0.0015115689	0.0005313392	0.0016291012	0.0054865214	0.0028537626	0.0038410539	-0.0016473215	-0.0019406740	-0.0039175875	-0.0032817782	-0.0090231551	-0.0001215606	-0.0013692066	-0.0055697793	-0.0017905741	-0.0023820645	-0.0019872093	-0.0027852915	-0.0020970192	-0.0001986696	-0.0033041681
0.0045703244	-0.0001926793	0.0010339831	-0.0032088831	-0.0043600854	-0.0008932617	-0.0022994401	0.0014553693	-0.0051694103	-0.0046373717	-0.0048196828	-0.0040499875	-0.0036117285	-0.0022042403	0.0016487669	-0.0006031152	-0.0005744311	-0.0029341814	-0.0038455406	-0.0028570604	-0.0030785096	-0.0018618274	-0.0013421958	-0.0021288404	-0.0007630294	-0.0025186723	0.0025022964	-0.0042962707	0.0008363927	0.0007967078	-0.0026922761	0.0001192545	0.0031850722	0.0000914831	0.0036515726	0.0018974594	0.0025677243	0.0031907447	0.0048486069	0.0039560422	0.0035965813	-0.0037293485	-0.0044427007	-0.0031255062	0.0045613730	0.0187492669	-0.0013284083	0.0047642291	-0.0138816936	0.0020383738	-0.0019892196	-0.0160793010	0.0036134240	-0.0072582825	0.0096797785	0.0274227411	0.0077020135	0.0361133218	0.0445813797	0.0301755723	0.0237122811	-0.0028610199	-0.0015258631	-0.0033033583	0.0003486797	0.0170030184	0.0189498607	0.0246112272	0.0100472923	0.0135716405	0.0195934139	0.0157139059	0.0121758813	-0.0111630782	-0.0130421370	-0.0145745911	-0.0166607127	0.0090061389	0.0023631209	-0.0060768304	0.0119517166	0.0166024398	0.0255080909	0.0032478841	0.0170195848	0.0016844424	0.0120027103	0.0065766489	-0.0025920058	0.0052101007	-0.0121373106	-0.0131059922	-0.0051100762	-0.0080421846	-0.0019832659	-0.0184896290	-0.0195702948	-0.0185137186	-0.0090198684	-0.0044061891	0.0081708599	0.0256354306	0.0263301507	0.0170158315	0.0040292484	-0.0058273668	-0.0095284525	0.0082681524	0.0165689941	0.0021112375	0.0051415204	0.0144101484	-0.0008724593	0.0068518701	-0.0116840489	-0.0161123350	-0.0085393265	-0.0006126934	0.0042153546	-0.0098023377	-0.0035136095	-0.0087037431	-0.0002176159	0.0013439487	0.0026896428	-0.0009837757	-0.0073834555	0.0016398892	0.0065957881	-0.0018229829	0.0017473986	-0.0011998308	-0.0011031666	0.0014410387	-0.0004565425	0.0038916711	0.0010049611	0.0018478699	0.0023299877	0.0022923090	0.0020314681	0.0035394924	0.0038498358	-0.0018329868	-0.0052428888	-0.0031229244	0.0015311919	0.0010438352	-0.0025148073	-0.0025520083	-0.0040912656	0.0012880497	0.0002909681	0.0006586286	-0.0015058960	-0.0088310819	-0.0103243235	-0.0057743094	-0.0014966317	-0.0022924496	-0.0017256857	0.0013212106	0.0043044705	-0.0016307969	-0.0031824708	-0.0066263853	-0.0054450566	-0.0040064263	-0.0048585003	0.0002757086	0.0029120729	0.0023890391	0.0037608736	0.0011922194	-0.0014301778	-0.0046092039	-0.0009388445	-0.0003302420	-0.0038027330	0.0020607486	-0.0023190491	-0.0081458706	-0.0088813566	0.0002716936	0.0067989896	-0.0044225836	-0.0042459760	-0.0015202330	0.0045816218	0.0036584076	-0.0021880830	0.0024683964	-0.0034735911	-0.0050053140	-0.0068492941	-0.0082296357	-0.0055362936	-0.0026984101	-0.0021331375	0.0020137210	0.0000828794	-0.0002531723	-0.0003004673	0.0007015171	0.0004986146	-0.0002395164	0.0009985541	0.0004776497	0.0006200202	-0.0014676700	-0.0006593381	-0.0026471533	0.0004733833	-0.0029306416	-0.0014697785	-0.0031418954	-0.0032121984	-0.0000211086	-0.0017474339	0.0003605067	-0.0017235705	-0.0020836198	-0.0001198676	-0.0029631730
0.0018584172	0.0005141834	0.0014925029	-0.0038872662	-0.0054184846	-0.0010756247	-0.0028823607	0.0010413534	-0.0043803286	-0.0026223208	-0.0029347502	-0.0036962652	-0.0048856614	-0.0041779513	-0.0036961623	-0.0045022909	-0.0046626935	-0.0050953981	-0.0042923437	-0.0016818125	-0.0030789075	-0.0011042281	-0.0038507574	-0.0026252284	-0.0038059773	-0.0060552098	0.0016177658	-0.0019273866	-0.0022089041	0.0011784025	0.0023459001	0.0019310473	0.0047196387	0.0024668328	0.0029364289	0.0014261422	0.0013452991	0.0031879928	0.0094039533	0.0089212824	0.0091236457	0.0031213900	0.0083261933	0.0034939726	0.0027105254	0.0137815196	0.0050420761	0.0083378805	-0.0020178114	0.0016498773	0.0051951534	-0.0003239587	0.0029850439	0.0000376261	-0.0036682566	0.0139830299	-0.0053470130	0.0313971899	0.0287877340	0.0352575332	0.0310758594	-0.0019693512	-0.0056743072	-0.0237601325	-0.0346931517	-0.0075509255	-0.0109118354	0.0126185948	0.0072634928	0.0001346733	0.0231089033	0.0204018168	0.0485593975	0.0142640760	-0.0192361586	-0.0443512015	-0.0431210436	-0.0127222892	-0.0144830737	-0.0091103632	-0.0007729984	0.0160981491	0.0309399124	0.0150777083	0.0210152809	0.0085615264	0.0148793086	0.0098019280	-0.0081674373	-0.0146861244	-0.0266196225	-0.0220224150	-0.0114547405	-0.0109071927	-0.0028491353	-0.0183345079	-0.0071708518	-0.0092846230	0.0015673912	0.0071158004	0.0146614965	0.0380227715	0.0259101987	0.0092997691	0.0010824942	-0.0097687207	-0.0151003571	-0.0041498011	0.0181831792	0.0010246194	0.0018279257	0.0136790853	-0.0015847401	0.0116050551	-0.0051631937	-0.0078017698	-0.0019446706	-0.0046811900	-0.0066416659	-0.0057081198	-0.0024170741	-0.0030262233	0.0032977934	0.0011561832	0.0054714796	0.0055655092	-0.0024275698	0.0001545791	-0.0002743099	0.0020698539	0.0052275597	-0.0002793781	-0.0002387761	0.0021295266	0.0025637443	0.0060493653	0.0065546585	0.0056176083	0.0035827369	0.0039098808	0.0024024409	0.0034115803	0.0014736415	-0.0014264939	-0.0024114894	0.0033904952	0.0033853813	-0.0022600058	-0.0056117573	-0.0023633461	0.0001942698	0.0037508444	0.0009186472	-0.0004723891	-0.0011992079	-0.0062867366	-0.0058829514	-0.0043657036	-0.0018986128	0.0025082389	0.0023093405	-0.0001730664	0.0042606178	0.0010741765	0.0043438151	0.0064485939	-0.0021149418	-0.0036335778	0.0002699941	0.0022089779	0.0028902665	0.0000902415	-0.0015518607	-0.0044645388	-0.0023841765	0.0012638939	-0.0024247798	-0.0026973176	-0.0021083793	0.0076791565	0.0102160638	0.0055533447	-0.0014717218	-0.0024679932	-0.0037173517	-0.0030183764	0.0030979130	-0.0013087138	-0.0008800412	-0.0032139397	-0.0050824634	0.0006334837	-0.0064701620	-0.0094102435	-0.0088710515	-0.0041575874	0.0007085183	0.0011043244	-0.0011543832	0.0011719610	-0.0024137096	-0.0008594442	-0.0008082011	0.0000605096	-0.0000694275	-0.0001973465	-0.0007128698	-0.0026843797	-0.0007087938	-0.0028243565	-0.0005672076	-0.0017687455	-0.0026239746	-0.0029390724	-0.0052337758	-0.0099810287	-0.0080829207	-0.0024686989	-0.0019884619	0.0031634639	0.0008665455	-0.0012254920	0.0025492602	-0.0022308829
0.0041759512	0.0015227278	0.0007917908	-0.0006027176	-0.0003117766	-0.0011734238	0.0017383397	-0.0002747688	-0.0005115914	0.0010169118	0.0013868291	0.0011719781	0.0005104542	-0.0008518302	0.0005791768	-0.0026444676	-0.0006567873	-0.0001365663	0.0002067505	0.0024156889	0.0011325944	0.0024118985	0.0007506198	-0.0062956028	-0.0035641789	-0.0015736981	-0.0053490750	0.0034721605	0.0004418584	-0.0017916670	0.0038852906	0.0003705265	0.0036302642	0.0003755951	-0.0014630154	-0.0012897794	-0.0001677069	-0.0002565250	0.0108405603	0.0051248302	0.0087177511	0.0030212116	-0.0011932937	0.0012308941	-0.0024749185	0.0073409500	-0.0104187950	-0.0152168460	-0.0264473949	-0.0206208639	-0.0204162262	-0.0123475930	-0.0054110680	-0.0033090077	-0.0385297351	-0.0034274114	0.0063589462	0.0304565076	0.0267340411	0.0279607773	0.0291278549	-0.0111567937	-0.0299097560	-0.0314007849	-0.0361223556	0.0157095250	0.0247565433	0.0315062180	0.0237962846	0.0070039881	0.0352259912	0.0172390230	0.0273599867	0.0173375942	0.0271623302	0.0112599563	-0.0028012716	-0.0065689306	-0.0342895128	-0.0188037120	0.0005091216	0.0050043976	0.0252897851	0.0116024138	0.0161398984	0.0118551534	0.0161595810	0.0053789089	-0.0152474474	-0.0282854997	-0.0364051238	-0.0336396024	-0.0274280086	-0.0249419399	-0.0166610517	-0.0306314752	-0.0050126594	-0.0159330145	0.0006294445	0.0098037720	0.0130292224	0.0305585060	0.0150730433	0.0004672087	-0.0040558097	-0.0231811181	-0.0064836983	-0.0100152679	0.0121656246	-0.0056526717	0.0026860316	-0.0013796559	-0.0280915387	-0.0094215311	-0.0147348586	-0.0135275675	-0.0006567679	-0.0090998095	-0.0072284853	0.0022037434	0.0074814255	0.0002047634	-0.0012393533	-0.0022227017	0.0029031034	0.0003673895	0.0045812763	-0.0026167813	0.0023602254	0.0018071396	0.0014270816	0.0008498897	0.0034527520	-0.0015334041	0.0048267543	0.0011208095	0.0035550389	0.0001785397	-0.0017072817	-0.0013596411	-0.0019488602	-0.0011681002	-0.0035457183	-0.0036478771	-0.0018409709	0.0021440701	-0.0035820361	-0.0037619246	-0.0014937636	0.0007004489	0.0010180052	-0.0004283211	-0.0031813062	-0.0013067982	0.0020767732	-0.0024069999	-0.0052195084	-0.0039347676	-0.0036661807	0.0013404879	0.0023708716	0.0006708602	0.0014212746	-0.0022386736	0.0023073766	0.0037278489	-0.0021179991	-0.0052384650	-0.0066801868	-0.0021351229	0.0076173656	0.0058531989	0.0067159510	-0.0026493969	-0.0110938111	-0.0007002191	0.0026381423	-0.0074714031	0.0012316164	0.0020396267	0.0014477203	0.0078960406	0.0060029202	-0.0002417840	-0.0050030490	-0.0028552613	0.0026946736	0.0000211700	-0.0014891101	-0.0041301199	-0.0016802987	-0.0030368869	-0.0075283968	-0.0053517516	0.0009158647	0.0016537738	0.0005946625	-0.0008446244	-0.0018977688	0.0020708428	-0.0025931119	-0.0016538135	-0.0002637061	-0.0003765458	0.0004660395	0.0001317377	0.0006768511	-0.0025777160	0.0008028198	-0.0011200650	-0.0019683940	-0.0013360297	-0.0005736526	-0.0016502991	-0.0048757396	-0.0087328060	-0.0071271602	-0.0029592984	0.0016594331	0.0061522080	0.0039180806	0.0008095922	0.0045872787	-0.0017700344
0.0048482907	0.0041476907	-0.0001580854	-0.0003882530	0.0009100293	-0.0018459642	0.0018309861	0.0006788652	-0.0019217508	-0.0001798873	-0.0011417934	-0.0010721720	-0.0011699649	-0.0027014734	-0.0030141184	-0.0051938174	-0.0012254517	-0.0003165187	-0.0002076000	0.0015753633	-0.0004385943	0.0003046022	0.0003796145	-0.0019235518	-0.0069750138	0.0023812631	-0.0021376135	-0.0002210898	0.0058338735	0.0000349336	0.0042999126	0.0029400319	0.0022247704	-0.0012265020	-0.0043813125	-0.0043985168	-0.0018902633	-0.0020879151	0.0077723162	0.0042629880	-0.0004413085	-0.0013839074	-0.0008025131	0.0004389217	-0.0056417794	-0.0058307941	-0.0041919821	0.0066021569	0.0049917917	0.0101773441	0.0156423766	0.0008037645	0.0013896914	0.0126754129	-0.0441849232	-0.0080812862	-0.0016261633	0.0002597868	0.0088577159	0.0053495262	-0.0047286111	-0.0181167480	-0.0083436007	-0.0068365051	-0.0198653750	0.0194986314	0.0139473043	0.0050926567	0.0081846612	-0.0075573749	0.0201448835	0.0179213416	-0.0045656855	-0.0235142894	0.0155830709	0.0095335906	0.0110216467	0.0168959200	-0.0131407445	-0.0023136104	0.0204261839	0.0108262096	0.0229645241	0.0222433005	0.0224257093	0.0146783236	0.0060363528	0.0049243388	-0.0094873402	-0.0177170802	-0.0203190614	-0.0228168126	-0.0265279133	-0.0247764830	-0.0177492667	-0.0291873235	-0.0025112964	-0.0320341960	-0.0029185463	0.0073559452	0.0047281077	0.0195650179	0.0105581265	-0.0060195108	0.0000683821	-0.0252954271	-0.0059309276	-0.0034160798	0.0022457456	-0.0198364276	0.0033938198	0.0099429460	-0.0135602504	0.0018139759	-0.0002496529	0.0011586270	0.0178827159	0.0034105561	-0.0004103361	-0.0037983782	0.0004047825	-0.0016407706	-0.0028313014	0.0000383620	0.0047202487	-0.0009130107	0.0057818992	-0.0014913467	-0.0001475003	0.0024821970	-0.0026042119	-0.0022630121	0.0026141703	-0.0048524369	0.0040392210	0.0014436536	-0.0012723438	-0.0024086419	-0.0030949120	-0.0027888075	-0.0029310288	-0.0006620185	0.0004052083	-0.0014403935	-0.0004314856	-0.0003683623	-0.0034285416	0.0012620111	0.0037568978	0.0001899653	0.0010473985	0.0032535328	0.0046464265	0.0048114448	0.0049108383	-0.0012500801	-0.0026795450	-0.0003938632	0.0007450482	0.0025709490	0.0045853658	0.0013814571	0.0027743415	0.0010780663	0.0070350147	0.0052080764	-0.0026014389	0.0004473033	-0.0006024623	0.0010741797	0.0013899762	-0.0001031569	0.0076357983	0.0115923462	0.0001230040	-0.0054298313	-0.0009460379	-0.0045952438	0.0098984260	0.0115279714	0.0007800027	0.0003065633	0.0017608046	0.0026110627	0.0015883170	0.0036417609	-0.0000412213	-0.0058951285	-0.0035032665	-0.0039129369	-0.0067490255	-0.0053215059	-0.0050292797	-0.0008926581	0.0003863574	-0.0007465910	-0.0003466479	-0.0000630455	-0.0022654375	0.0018972567	-0.0013026077	-0.0026423417	-0.0017894041	-0.0013272394	-0.0007007851	-0.0005138622	0.0005228959	-0.0007594049	0.0011547953	0.0015724731	0.0027331877	-0.0001716030	0.0021143516	0.0007539238	-0.0029060354	-0.0053768288	-0.0038160700	-0.0005255388	0.0045328569	0.0097597335	0.0061167888	0.0013524648	0.0036274507	-0.0023781704
0.0024106666	0.0015823557	0.0039541023	-0.0010541936	0.0002580213	0.0010271235	0.0007020429	0.0024760480	0.0007723806	0.0003514008	0.0010208316	0.0005472174	0.0005942900	0.0004495214	0.0003827187	0.0009187959	0.0021029375	0.0029982938	0.0039381436	0.0049401093	0.0025235789	0.0017223352	0.0000322583	0.0004511722	-0.0025747782	-0.0011231622	0.0016084570	-0.0001733684	0.0027092085	0.0011120938	0.0006763593	0.0001993997	-0.0021621583	-0.0037010727	-0.0028668754	-0.0041025276	-0.0015403726	0.0000013327	0.0020461665	-0.0015179983	-0.0059546810	-0.0082523786	-0.0060355635	-0.0097418223	-0.0063745705	-0.0005369834	-0.0142861912	0.0028832136	0.0057194922	-0.0020563074	0.0009031906	-0.0208210256	-0.0327667780	0.0013695089	-0.0260343887	-0.0240215473	-0.0236791372	0.0024897661	-0.0025628516	-0.0051696794	0.0154642873	0.0158661865	0.0137540773	0.0192871056	0.0097497888	0.0270242374	0.0050318893	-0.0118240453	-0.0015763969	-0.0190577209	-0.0069212150	-0.0081348978	-0.0230199490	-0.0144232325	0.0053149723	-0.0184828211	-0.0256748162	-0.0079816831	0.0055495119	0.0089932913	0.0122831222	0.0102402763	0.0128522618	0.0258700885	0.0197666995	0.0099469218	0.0022334617	0.0025975516	-0.0055950540	-0.0169211738	-0.0097628627	-0.0179763455	-0.0232757665	-0.0235416647	-0.0260469504	-0.0307120513	-0.0101340162	-0.0234557483	-0.0038580000	0.0066760257	-0.0079543497	0.0052112150	0.0045043668	-0.0082730036	-0.0011696769	-0.0069877394	0.0001520952	-0.0019483152	0.0012502111	-0.0177529249	-0.0049041109	0.0072449259	-0.0158383492	-0.0071113929	-0.0046822140	-0.0041050012	0.0130223790	0.0022343192	-0.0102821877	-0.0080764247	-0.0050635636	0.0007635525	0.0095540956	-0.0024956893	0.0005971289	0.0023645847	0.0013934184	0.0069782254	0.0029458688	0.0000160284	0.0035490466	-0.0038065952	0.0010976164	0.0003511736	-0.0004908768	-0.0024407578	-0.0027438609	-0.0050020562	-0.0050921543	-0.0029797042	-0.0016871740	0.0001146492	0.0005447495	0.0015520183	-0.0023758444	-0.0014541389	-0.0002484508	-0.0019958380	-0.0006355780	0.0000534345	0.0002138589	0.0030800144	0.0046785688	0.0033995821	0.0045013404	-0.0002809032	-0.0012129261	-0.0015725931	-0.0035970029	-0.0027429310	-0.0008423149	0.0026595853	0.0049736435	0.0024062598	0.0023979456	0.0012336324	-0.0051221130	-0.0021475521	0.0063730227	0.0082017966	-0.0028822706	-0.0082594994	-0.0002856739	0.0070095649	0.0061955922	-0.0046778773	-0.0068434603	0.0026944263	0.0105136782	0.0098309936	0.0057291235	0.0048733307	0.0015966902	0.0029412301	-0.0033353735	0.0012495943	0.0019784255	-0.0056912233	-0.0003986245	-0.0012584766	-0.0052806679	-0.0004089895	-0.0005773500	-0.0029536937	-0.0035298031	-0.0017637395	0.0011379640	0.0022303532	-0.0012543914	0.0006800804	-0.0015629783	-0.0016611536	-0.0010456598	-0.0003745339	0.0007008943	0.0005731371	0.0026314179	0.0015787601	0.0054626144	0.0040843366	0.0048578032	0.0030144991	0.0001923494	-0.0013897403	-0.0005192544	-0.0039524920	-0.0015593204	0.0042776419	0.0047980598	0.0078291986	0.0062158024	0.0000163787	0.0000180986	-0.0035567237
0.0049342187	0.0006006122	0.0035023466	-0.0007122890	-0.0035526040	-0.0003137002	0.0003994979	-0.0000355468	-0.0009150424	0.0001952189	0.0012277279	0.0009056187	0.0003828222	0.0005355416	0.0002666657	0.0000820777	0.0017311116	0.0029822097	0.0032909648	0.0036641867	0.0011412307	0.0009615872	0.0001078042	0.0007096564	-0.0027101976	-0.0035622490	0.0011914688	-0.0002532399	-0.0008094425	0.0005221510	-0.0071444605	-0.0103432750	-0.0062845731	-0.0097461054	-0.0062315213	-0.0054013124	-0.0029789130	-0.0013182956	-0.0041048620	-0.0005609025	-0.0104268119	-0.0103405062	-0.0086208843	-0.0129052699	0.0018232097	0.0125078801	-0.0184736773	-0.0029807400	-0.0066178096	-0.0064080846	-0.0000541834	-0.0161848068	-0.0155524602	0.0169299990	-0.0054755127	-0.0189968143	0.0129009886	0.0484520942	0.0208734814	0.0319111645	0.0635448545	0.0268095825	-0.0060386281	0.0246710535	0.0284008831	0.0472109616	0.0236173607	-0.0010481048	0.0108662359	-0.0087513961	-0.0022746576	0.0009832806	-0.0061886339	0.0288841538	0.0221922360	0.0202785544	-0.0175586976	-0.0093698241	-0.0057828249	0.0144855566	0.0076585123	-0.0069796415	0.0175660830	0.0208612196	0.0115685230	-0.0030882964	-0.0098793749	-0.0070353644	-0.0057715098	-0.0191847794	-0.0187146813	-0.0315402895	-0.0371531211	-0.0391847529	-0.0248610917	-0.0256382860	-0.0241794121	-0.0189128518	-0.0182171986	-0.0009268015	-0.0128780110	-0.0043101725	-0.0004812464	-0.0162953567	-0.0170713235	-0.0251504201	-0.0115040243	-0.0089112017	-0.0095134061	-0.0040005292	0.0149391945	0.0077193738	0.0004759827	0.0051185726	-0.0011298426	-0.0031924485	0.0068553598	-0.0063612238	-0.0206038486	-0.0035986558	-0.0036775782	-0.0041300864	0.0091369292	0.0075441711	0.0051478846	0.0051701125	0.0011591217	0.0057655298	0.0070342701	-0.0017725645	0.0035672684	-0.0010605754	-0.0017630981	0.0001077304	0.0015225557	-0.0065010218	-0.0026979353	-0.0027603817	-0.0039212052	0.0009175785	0.0006307503	0.0004435818	-0.0024789232	0.0019979747	-0.0038325009	-0.0030767801	-0.0003956497	-0.0036044964	-0.0066679739	-0.0038614918	-0.0009760047	0.0005872609	0.0043100654	0.0050710859	0.0038654704	0.0006698155	-0.0004491511	-0.0019422465	-0.0012208357	0.0005013948	-0.0058492324	-0.0059329583	0.0002667800	0.0015077672	0.0036249126	-0.0009703852	-0.0074152085	-0.0049923444	0.0096378522	0.0127766971	0.0019785697	-0.0118761966	-0.0084460042	-0.0086032785	-0.0049082828	-0.0071339197	-0.0034305360	0.0065272199	0.0029167389	-0.0001702914	0.0012233529	0.0041354406	-0.0003204256	-0.0012030648	-0.0004918328	0.0038979328	-0.0001286848	-0.0020677547	0.0012902110	0.0006077818	-0.0009463641	0.0031246245	-0.0051983986	-0.0031382153	0.0046686628	-0.0017014212	0.0017022365	0.0014418522	0.0021601077	0.0002167279	-0.0011840177	-0.0025387257	-0.0029062303	-0.0073324936	-0.0015878110	-0.0012994990	0.0016041177	0.0007729590	0.0057484726	0.0038018997	0.0050317403	0.0025544025	0.0023047936	0.0005652629	0.0070099742	0.0015859792	0.0049121813	0.0048282561	0.0022445472	0.0035242103	0.0038936140	-0.0032060111	-0.0042072930	-0.0057459585
0.0025248351	0.0024058092	0.0001515310	0.0026756122	-0.0026476055	0.0003595713	0.0037255723	0.0014360854	-0.0005996015	0.0019888619	0.0021593040	0.0026852458	0.0014467534	0.0006775694	0.0021323145	0.0007770011	0.0020886385	0.0037013525	0.0031086628	0.0031558890	0.0008111356	0.0009389285	0.0004003426	-0.0011846116	-0.0025700387	-0.0008985273	-0.0008935880	0.0015706726	-0.0010121441	-0.0014133460	-0.0050528012	-0.0109169530	-0.0046737650	-0.0078118783	-0.0080367895	-0.0044155880	-0.0038082721	-0.0031076733	-0.0034424213	-0.0040234425	-0.0112002948	-0.0035008905	-0.0065172492	-0.0033720748	-0.0031364898	-0.0007444272	-0.0070206732	0.0071845669	-0.0052009020	-0.0006494583	-0.0016083973	-0.0203810185	-0.0296607986	-0.0037463587	-0.0247942228	-0.0228670612	0.0210684650	0.0385420844	-0.0032084696	-0.0000314275	0.0279300660	-0.0088124992	-0.0112232249	0.0475839265	0.0347953252	0.0318213888	-0.0016538916	-0.0265365187	-0.0200069975	-0.0315082110	-0.0013105148	-0.0120245963	-0.0080401190	0.0210312232	0.0108275199	0.0147840120	-0.0287163127	-0.0059038987	-0.0125700282	-0.0281566940	0.0100663360	-0.0214703940	0.0262581073	0.0254690312	-0.0183047988	-0.0100910235	-0.0155534372	-0.0176010840	-0.0110227764	-0.0322222300	-0.0253554489	-0.0272709448	-0.0375778675	-0.0473560691	-0.0601456799	-0.0487540290	-0.0267323907	-0.0139275808	-0.0119626438	-0.0052999444	-0.0085553741	-0.0146719562	-0.0232871920	-0.0260979012	-0.0107978638	-0.0088196052	-0.0107558966	0.0091466997	0.0084476052	-0.0025977879	0.0160100032	-0.0025502671	-0.0080862325	0.0043259244	0.0121055720	-0.0023379924	-0.0011579017	0.0046085622	-0.0052056788	0.0008668827	0.0046112798	-0.0071054623	-0.0087591466	0.0065720198	0.0050134100	0.0049346378	0.0050010565	0.0005764794	0.0039104433	-0.0000091415	-0.0066168718	0.0013301562	-0.0005859101	-0.0018878069	-0.0031969077	-0.0084366975	-0.0041123028	-0.0043915454	-0.0013805104	0.0008650771	0.0004388820	0.0034391163	-0.0017695134	0.0007642055	-0.0033621942	-0.0018348855	-0.0016323647	-0.0008685729	-0.0032549172	-0.0010565327	0.0018591520	0.0035066602	0.0056381626	0.0028705096	0.0009750186	-0.0015764104	-0.0031139662	-0.0028168005	-0.0002703189	0.0044669532	0.0009491902	-0.0051485742	-0.0032778138	-0.0041602221	-0.0000346024	0.0028409699	-0.0002403609	-0.0011521117	0.0043043084	0.0061472878	0.0045825019	-0.0056263115	-0.0064743860	-0.0077835587	-0.0078254882	-0.0054346654	0.0039579589	0.0027758861	-0.0107251965	-0.0114707090	-0.0077744471	-0.0034321072	-0.0047918633	-0.0099001601	-0.0017030593	0.0046376926	-0.0015571655	0.0032018831	-0.0028462429	-0.0011932314	-0.0043083201	-0.0003600604	-0.0057722889	0.0000715398	0.0000655283	-0.0036387437	0.0004180656	-0.0022731354	0.0023346124	0.0024106856	0.0006385420	-0.0010893320	0.0001561930	-0.0035924756	0.0016306544	0.0010682998	0.0040999330	0.0013434648	0.0037912652	0.0014612286	0.0013506527	-0.0026415866	-0.0011297594	-0.0018226326	0.0014594402	0.0010499769	0.0009073461	0.0000404350	-0.0032049804	-0.0016634718	0.0006076723	-0.0043424079	-0.0041034548	-0.0029427935
0.0006605231	0.0044090059	0.0032185635	0.0013255025	0.0011709961	0.0017899289	0.0022654324	0.0042735389	0.0005262494	0.0025782669	0.0019769773	0.0022277667	0.0014147802	0.0004384045	0.0010367460	0.0007120133	0.0029611047	0.0028768142	0.0028573556	0.0032289848	0.0005364943	0.0010004612	0.0032430203	0.0040375805	-0.0017296041	0.0012467204	0.0014252624	-0.0011281247	-0.0012251214	-0.0031075487	-0.0036531703	-0.0025114480	0.0088559631	0.0088538211	0.0067783240	0.0073031657	0.0051349732	0.0030991437	0.0004704439	0.0039424701	-0.0063793478	0.0015352664	0.0013789024	-0.0028542774	0.0061318735	0.0002729974	-0.0111125298	0.0110825747	-0.0145994974	-0.0013170848	-0.0008827557	-0.0144388024	-0.0252520386	0.0135481469	0.0092328954	0.0230706930	0.0683473796	0.0680968240	0.0199613944	0.0147403413	0.0366352014	-0.0123087056	-0.0192031115	0.0395070203	-0.0151719581	-0.0054077609	-0.0039188443	-0.0143985543	-0.0290945005	-0.0479687527	-0.0269315634	0.0034479820	0.0037223934	0.0218365137	0.0171100106	0.0231115613	-0.0224079955	0.0230351705	-0.0097304191	-0.0256326422	0.0344168022	-0.0302680507	0.0304475334	0.0231416821	-0.0350509286	0.0082332296	-0.0008024547	-0.0070377165	0.0165326092	0.0138439834	0.0058011017	-0.0023283220	-0.0083375694	-0.0076632057	-0.0277879406	-0.0143483039	0.0163104236	0.0216866136	0.0147541072	0.0103318160	-0.0009734925	-0.0031852545	0.0063153277	-0.0114244083	0.0099457148	0.0226891339	0.0099910721	0.0089513678	0.0051916884	-0.0226875972	0.0072437660	0.0082305390	0.0093324203	0.0012657209	0.0174380466	0.0022865273	-0.0016424368	0.0103223221	-0.0021922155	0.0043432899	0.0059832931	0.0009564410	0.0013526538	0.0012668597	0.0018521268	0.0062541966	0.0078768749	0.0164444596	0.0054206103	0.0045259865	0.0001521354	-0.0031582406	-0.0003358025	0.0006743716	-0.0006439622	0.0001710146	0.0035700640	-0.0006812925	0.0045860903	0.0046319808	0.0030139966	0.0041057449	0.0015556335	0.0055125682	-0.0023412243	-0.0020671398	0.0011089905	0.0004300920	0.0001597926	0.0018045155	0.0039514434	0.0053954027	0.0026799347	-0.0009028438	-0.0038638457	-0.0051027043	-0.0033770460	-0.0024138468	-0.0027966273	0.0009492588	0.0010611651	-0.0005515857	-0.0006741334	-0.0045408565	-0.0054408512	0.0021427374	0.0025311294	-0.0037242416	-0.0054935385	-0.0027824999	0.0067785373	0.0076382053	0.0024603794	0.0025815670	0.0101484125	0.0076892087	0.0172272380	0.0066684224	-0.0056303930	-0.0077944477	-0.0117536969	-0.0095081292	-0.0072258124	-0.0054097865	-0.0028412803	-0.0008499979	0.0001495512	0.0070884135	0.0019599698	0.0001822681	0.0015449011	0.0080313394	-0.0003442723	0.0028187810	0.0011669442	-0.0010733104	0.0036799333	0.0005072686	0.0068589551	0.0045313449	0.0009218540	-0.0024257747	-0.0028593298	-0.0069486904	-0.0014168160	0.0000230383	0.0047143949	0.0017480075	0.0012974751	0.0005228690	0.0033185675	0.0007143097	0.0010007286	0.0021052547	0.0070578414	0.0034093969	0.0029460196	-0.0012513532	-0.0017916048	-0.0008814484	0.0009966486	-0.0073046926	-0.0062143663	-0.0032786313
