-0.0004534400	-0.0004560208	-0.0007511364	-0.0001362776	0.0001536303	0.0006166723	-0.0004437624	-0.0006564364	0.0004622487	0.0005820511	-0.0009665879	-0.0007165171	-0.0009165349	0.0003484648	0.0015488802	0.0013512676	-0.0004230846	-0.0014321520	-0.0018517141	-0.0000629841	0.0026956650	0.0026165792	0.0011373018	-0.0001715650	-0.0005820842	0.0001609524	-0.0005648879	0.0003471902	0.0013633862	0.0046471055	0.0020908897	-0.0003653709	0.0004224697	0.0009411595	-0.0003817311	-0.0000607900	0.0007561978	0.0013582405	0.0009331270	0.0003842105	-0.0003484263	0.0005493675	0.0000464847	-0.0002861464	-0.0013039517	-0.0007030282	-0.0019602792	0.0001566605	0.0028133593	0.0050813002	-0.0053348648	-0.0101353051	-0.0049187746	0.0047993911	0.0079575898	0.0044272719	0.0029651162	0.0028672216	0.0025585606	0.0023060082	0.0020895661	0.0017013992	-0.0005995823	0.0008656466	0.0020516058	0.0030274084	0.0036797505	0.0028878876	0.0010894580	0.0004075255	0.0008051422	-0.0000488237	0.0015981311	0.0009306814	0.0021796532	0.0025490387	0.0035223141	0.0027342669	0.0031586755	0.0031124540	0.0026589730	0.0013098306	0.0026515545	0.0020674870	0.0038354457	0.0034027505	0.0022501939	0.0015234804	0.0025695204	0.0018451428	0.0012417234	0.0027504766	0.0040748576	0.0055965548	0.0024026432	0.0014285822	-0.0020371506	-0.0001391296	0.0026849234	0.0054683373	0.0064095128	0.0063853795	0.0028718458	-0.0002214204	-0.0042991769	-0.0011058046	-0.0013666219	-0.0006834459	-0.0008244450	0.0008296095	0.0015393572	0.0017540369	0.0009987359	0.0010819779	0.0012545787	0.0011130141	0.0004044122	0.0009193331	0.0020641221	-0.0001425062	0.0012013315	0.0033523447	0.0034546244	0.0025788401	0.0026238633	0.0028124340	0.0033511699	0.0022875322	0.0012241390	0.0001552388	0.0006285291	0.0003690863	0.0008015563	0.0008965901	0.0033517960	0.0013129491	0.0029697027	0.0036022069	0.0011073725	0.0019237675	0.0042341012	0.0039896024	0.0026942533	0.0033007921	0.0016607175	-0.0001602646	0.0009155751	0.0009544974	0.0003309581	-0.0005777365	0.0018519548	0.0008788811	0.0025829396	0.0023710029	0.0030030729	0.0020789674	0.0021141490	0.0018455174	0.0037865911	0.0029287019	0.0037668978	0.0020344853	0.0018242595	0.0023039421	0.0028385685	0.0026250009	0.0017059299	0.0026151103	0.0026342357	0.0017536019	0.0020781809	0.0021314060	0.0022440804	0.0027600522	0.0016354752	0.0000075469	-0.0007795566	0.0005989203	0.0027169329	0.0026127887	0.0001820431	-0.0012314351	0.0000714004	0.0000696579	0.0011588188	0.0018862325	0.0031617836	0.0035936576	0.0020158435	0.0003648209	0.0002509371	0.0024129446	0.0019092384	0.0021229796	0.0006284312	-0.0004052048	-0.0008738419	0.0015952500	0.0023123645	0.0017515337	0.0008672400	-0.0000686124	-0.0005403340	-0.0002510598	0.0005062798	0.0013421089	0.0011317815	0.0000417957	-0.0000798684	-0.0002964482	0.0000800711	-0.0000898237	-0.0004454598	-0.0006259325	-0.0006552188	0.0001255497	0.0009145911	0.0009501127	0.0001850639	0.0011909690	0.0017746321	-0.0001802713	0.0001990297	0.0011429165
-0.0010841482	-0.0004852896	-0.0000283269	-0.0003655660	-0.0014958431	-0.0007325690	0.0007373019	0.0011920858	0.0011881515	0.0002582294	-0.0005352396	-0.0001143995	0.0000904550	0.0012066844	0.0026888172	0.0012745903	0.0004526953	-0.0004547327	-0.0013288596	-0.0001884678	0.0026244668	0.0013292360	0.0008886053	0.0016009433	0.0002453770	-0.0004571270	-0.0013821305	-0.0003823250	0.0018905920	0.0044246931	-0.0004265425	-0.0037281511	-0.0008517389	0.0018454642	0.0001399858	-0.0007437222	-0.0008398485	-0.0005699671	0.0001051405	0.0019069982	0.0011630793	0.0003687585	-0.0010929860	-0.0009305326	-0.0009323671	0.0006058877	-0.0009162375	-0.0003546074	0.0028979592	0.0065001897	-0.0045152837	-0.0102000954	-0.0030418450	0.0074460334	0.0073540024	0.0034219939	0.0011616171	-0.0003626671	-0.0007576040	-0.0013487999	-0.0008845972	0.0002859362	0.0008037934	0.0029652757	0.0041619479	0.0049833562	0.0048955106	0.0029588367	0.0003123367	-0.0023763347	-0.0020464091	-0.0024583358	0.0010312465	0.0012188430	0.0027182398	0.0033487175	0.0036916726	0.0013116713	0.0023448127	0.0018790163	0.0009099742	0.0008086280	0.0014887319	0.0018259595	0.0042921002	0.0042689955	0.0055511650	0.0036347047	0.0024664265	0.0021155255	0.0017766238	0.0045519527	0.0055628452	0.0039659133	-0.0008519443	-0.0014679536	-0.0065099727	-0.0064146649	0.0001510237	0.0067422716	0.0095771337	0.0087593487	0.0056972010	-0.0001467342	-0.0042085848	-0.0013730988	-0.0016842121	-0.0012356568	-0.0017442494	-0.0007093105	0.0011608806	0.0020635854	0.0024632476	0.0025107185	0.0028440426	0.0028979557	0.0019205615	0.0010229056	-0.0001363768	-0.0022138720	0.0001063643	0.0019254753	0.0028657550	0.0026346454	0.0010780552	0.0001069800	-0.0002049679	-0.0004429321	0.0001220264	0.0013232653	0.0021357546	0.0014423863	0.0000754148	-0.0010268941	-0.0010452241	-0.0021538581	0.0021461530	0.0036064386	0.0007894477	-0.0014206788	-0.0007149722	0.0008751478	0.0044516227	0.0054232376	0.0005377131	-0.0003869675	0.0016180552	0.0010221619	0.0001411017	-0.0012898119	0.0004904175	0.0001550536	0.0005861094	0.0000418402	0.0022653940	0.0023303812	0.0014859412	0.0003716935	0.0008936260	-0.0001997766	0.0010232168	0.0005489297	0.0011561456	0.0016157744	0.0016034484	0.0010817823	0.0008419266	0.0019432760	0.0031804976	0.0036045790	0.0045849001	0.0046169264	0.0021314051	0.0001015980	-0.0013904880	-0.0024763870	-0.0002988948	0.0007901842	0.0039585410	0.0046647498	0.0010132248	-0.0020896175	-0.0021091579	-0.0023354637	0.0003767860	0.0026147305	0.0039434563	0.0022155093	-0.0013716123	-0.0012497472	0.0005125315	0.0009997934	-0.0001004962	0.0021303194	0.0012453545	-0.0004590329	0.0001642973	0.0035370649	0.0038105624	0.0020213148	0.0004708365	-0.0010917878	-0.0014115868	-0.0006236946	0.0004046320	0.0004706846	-0.0005229800	-0.0013253393	-0.0007179664	-0.0000573260	-0.0001388612	-0.0011010794	-0.0013473992	-0.0012830809	-0.0016589927	-0.0006899645	0.0008217837	0.0010036967	0.0004887699	0.0015926346	0.0012139699	-0.0013351159	-0.0001163684	0.0004725625
0.0009270887	0.0002256511	0.0005288562	0.0014411326	-0.0017337956	-0.0014990495	0.0069963746	0.0113626830	0.0068782610	0.0039530699	0.0020111452	0.0002465073	0.0005380693	0.0010851152	0.0015021055	0.0002506451	0.0009186079	0.0007273329	0.0014013012	-0.0004811137	-0.0010008803	0.0001738635	0.0047984151	0.0018066221	0.0051920111	0.0018108441	-0.0024567721	0.0008419505	0.0000526339	0.0008404811	-0.0036131260	-0.0033807841	-0.0016075948	0.0039141024	0.0023168565	-0.0013220453	-0.0039038328	-0.0030148586	0.0020657901	0.0042716810	0.0043783616	0.0015466862	-0.0010020330	0.0009401204	0.0020391427	0.0023425687	-0.0028577321	-0.0031785099	-0.0007533835	0.0046941820	-0.0051983609	-0.0124587147	-0.0007929369	0.0091854092	0.0068710637	0.0048147002	0.0001061256	-0.0012005294	-0.0021474506	-0.0032022696	-0.0016592812	-0.0008972006	0.0018411702	0.0039676777	0.0046127243	0.0031316648	0.0018853280	0.0034662604	0.0039828550	0.0073398431	-0.0074795680	-0.0155214174	0.0009466502	0.0019487212	0.0083057834	0.0053549716	0.0016995426	-0.0030585506	-0.0037922191	-0.0034035803	-0.0030498377	0.0001771888	0.0045861471	0.0034970469	0.0064241481	0.0075046667	0.0058963308	-0.0087761246	-0.0047368305	-0.0001618951	0.0135415467	0.0206133444	0.0163209792	0.0127373524	-0.0066966848	-0.0131012164	-0.0258254074	-0.0141201653	-0.0047986391	0.0011949302	0.0070473524	0.0036719576	0.0044059865	-0.0028168033	-0.0062396834	-0.0013938132	-0.0015813245	-0.0030654378	-0.0042897607	-0.0031370590	-0.0010715182	0.0001337324	0.0047385450	0.0038521956	0.0022342277	0.0042007528	0.0026288086	0.0021886104	0.0037828737	0.0048378492	0.0033396608	0.0048521617	0.0046155192	0.0038296403	0.0010006749	-0.0010910586	-0.0016784477	-0.0017833646	0.0046228012	0.0041004554	0.0041721500	-0.0013605959	0.0025095178	-0.0023308590	-0.0029687078	0.0029289797	0.0053316602	0.0063262507	0.0014060172	0.0001935048	-0.0026154995	0.0001531520	0.0057206396	0.0055160001	0.0042329328	0.0016429131	0.0060288990	0.0078153480	0.0033301085	0.0013304873	0.0036358328	0.0024465809	-0.0028646288	-0.0014070853	0.0029041520	0.0033681046	0.0021394328	0.0000469792	0.0019767473	0.0017029237	0.0019484186	0.0015016936	-0.0000766537	-0.0014024400	-0.0024093736	-0.0009669043	0.0016300988	-0.0002031670	0.0096499268	0.0073647476	0.0053708111	0.0057448763	0.0004748484	-0.0027232263	-0.0035813162	-0.0018815956	-0.0013085066	0.0020743134	0.0050206818	0.0038132337	0.0032819128	-0.0014217988	-0.0021261226	0.0004707888	0.0040593920	0.0054863775	0.0035362989	0.0026639260	-0.0024372688	0.0010312161	0.0016355875	0.0027662651	-0.0010697822	0.0034021218	0.0002962062	-0.0031119492	0.0025194997	0.0056330063	0.0037497124	0.0028338809	0.0003991532	-0.0006420331	-0.0011224785	-0.0002170960	-0.0013757560	-0.0005182134	-0.0023205890	-0.0018407945	-0.0000118542	0.0009627035	-0.0004706267	-0.0017682628	-0.0018068999	-0.0012387098	-0.0003380375	0.0001363888	0.0018310070	0.0015988038	0.0003955683	0.0004004652	-0.0014153975	-0.0026427596	-0.0005158140	0.0003710667
0.0009041710	-0.0032193088	0.0024317985	0.0013512210	-0.0004949085	0.0030899702	0.0050351708	0.0091534220	0.0041293721	0.0011060131	-0.0008277803	-0.0017438955	-0.0005745721	0.0002755889	0.0001218464	-0.0001319240	0.0009891721	-0.0014643902	-0.0014454634	-0.0003787142	0.0041044015	0.0047605182	0.0043249950	-0.0017604108	0.0023095040	-0.0012111983	0.0012505397	-0.0008414838	-0.0035289361	0.0027332292	-0.0081404895	-0.0045021316	-0.0018510318	0.0019575609	-0.0014445826	-0.0026573366	-0.0001192828	0.0000421118	0.0009912637	-0.0009626262	-0.0006601111	0.0000390317	-0.0010916564	-0.0012817666	-0.0031366835	-0.0019908047	-0.0054242066	-0.0010751858	0.0024725103	0.0052108653	-0.0039131795	-0.0111050187	0.0005380227	0.0105578052	0.0078408439	0.0038088234	-0.0025624195	-0.0030832135	-0.0013067242	0.0003422871	0.0007119218	0.0000114874	0.0019898382	0.0059510623	0.0088489018	0.0051003476	-0.0047920640	-0.0107515017	-0.0151425358	-0.0017452490	0.0038586976	-0.0091603920	-0.0047133374	-0.0005986179	0.0029373101	-0.0007650884	-0.0013342170	-0.0000020461	0.0022308871	0.0005078112	0.0008496889	0.0037070152	0.0055330493	0.0015873582	0.0042512007	0.0067163478	0.0070855455	-0.0065314136	-0.0031734144	0.0020451078	0.0181791764	0.0183887035	0.0128193432	0.0071099149	-0.0127059324	-0.0219146498	-0.0284581371	-0.0080627948	0.0006227124	-0.0007558130	0.0003164660	0.0003144939	0.0062933681	0.0031184680	-0.0017226976	-0.0019217290	-0.0013789228	-0.0024653857	-0.0028286732	-0.0021036863	-0.0006591529	-0.0024304646	0.0004131104	-0.0007075092	0.0018136665	0.0006887684	0.0002435209	0.0027509036	0.0020954083	0.0048508616	0.0039840997	0.0042036660	0.0020401769	0.0002810000	-0.0010104519	-0.0006486549	0.0005293338	-0.0009347029	0.0021325026	0.0002465218	0.0060095536	-0.0001281327	0.0019123607	-0.0013873416	0.0038015619	0.0035569982	-0.0011440327	0.0046692081	-0.0029012649	-0.0015624404	-0.0046903966	-0.0018961916	0.0035113972	0.0037670271	0.0028700901	-0.0010940179	0.0077535054	0.0063949251	0.0013713435	0.0004956480	-0.0025532010	-0.0001426726	-0.0013211607	0.0003914374	0.0013374472	0.0000117404	0.0007246514	0.0001720060	0.0022502569	0.0028914174	0.0030045784	0.0006417841	-0.0025660032	-0.0038506002	-0.0024416060	0.0007502515	0.0027136030	0.0007816432	0.0091874823	0.0055592041	0.0107626244	0.0060941577	-0.0002455207	0.0022998787	-0.0026942824	-0.0000997025	-0.0001104306	0.0027662090	0.0046248287	0.0018886969	0.0019775676	-0.0029519345	0.0005544812	0.0022223101	0.0050407546	0.0065393224	-0.0004051039	-0.0015269988	-0.0050809984	-0.0002890542	-0.0007877236	-0.0039748969	-0.0028210441	0.0046890490	-0.0007734792	-0.0065295640	-0.0019155008	0.0016238560	0.0039861356	0.0025257708	0.0009267759	0.0004597743	-0.0006712644	-0.0010368888	-0.0032481207	-0.0012556378	-0.0030843364	-0.0025573091	-0.0011006292	-0.0005357234	-0.0006315078	-0.0004932764	-0.0006163289	-0.0008793685	0.0004831536	0.0002874037	0.0004443965	0.0013113871	-0.0002250337	-0.0008888454	-0.0031725690	-0.0030500113	0.0000787593	0.0003423068
0.0032313389	-0.0027659263	0.0048672585	0.0032092719	0.0012805290	0.0046591642	0.0061884797	0.0068231905	0.0006655056	-0.0040255710	-0.0051697600	-0.0045930305	-0.0017996507	0.0002824072	0.0026066015	0.0011693494	0.0020383890	0.0018580598	0.0026235897	0.0030692494	0.0037119479	0.0031537390	0.0045003514	0.0004613097	0.0032794042	-0.0052882293	0.0019435333	0.0006296326	-0.0022813645	0.0031977748	-0.0070543550	-0.0052590095	-0.0027788552	0.0004141543	-0.0031963566	-0.0032427600	-0.0003117390	0.0003095815	0.0018677735	-0.0003572686	-0.0018320816	-0.0035667443	-0.0023975414	-0.0025386610	-0.0029067704	-0.0003875887	-0.0080912281	-0.0023782761	0.0027541302	0.0036049369	-0.0061217705	-0.0077531869	0.0027327235	0.0089548416	0.0052847667	0.0013954476	-0.0031336441	-0.0038955493	-0.0045876731	-0.0043794056	-0.0039853454	-0.0037175829	-0.0006114956	-0.0028838238	0.0023347584	0.0051219882	0.0037406241	0.0032079380	-0.0127466964	-0.0142379962	-0.0119119920	-0.0101615200	-0.0031589994	-0.0049248436	0.0020634530	0.0001591280	-0.0015254144	-0.0002248851	-0.0003269543	-0.0017298714	0.0004899373	0.0023777415	-0.0015818719	-0.0019609346	0.0016466611	0.0052797226	0.0074582789	-0.0059106131	0.0010928332	0.0054677729	0.0245813373	0.0217035897	0.0097851036	0.0021556576	-0.0208979398	-0.0295183118	-0.0259782895	-0.0056329565	-0.0001109538	-0.0024914942	0.0011438680	-0.0012730956	0.0008074846	-0.0021955254	-0.0036326901	-0.0005364227	-0.0002540823	-0.0011507262	-0.0015062005	0.0006580604	0.0002829367	-0.0031741802	-0.0039865077	-0.0083656218	-0.0015234556	-0.0015267271	-0.0011412948	0.0032986938	0.0007432792	0.0029352417	0.0008423227	-0.0001184692	-0.0009759362	-0.0003622382	0.0004570168	0.0006656087	0.0011570529	-0.0005516169	0.0024357764	-0.0022209289	0.0044944161	0.0014933400	0.0073145730	-0.0008573363	0.0047104196	0.0023705559	-0.0012165895	0.0040936079	-0.0040156511	-0.0033053102	-0.0024146119	0.0002522956	0.0056660874	0.0059436364	0.0042546927	-0.0008957586	0.0094715143	0.0057544056	-0.0011464409	-0.0019245690	-0.0043064817	-0.0021215715	-0.0034249253	-0.0026825422	0.0014567096	0.0011819537	0.0013616409	0.0003210543	0.0013927624	0.0011681023	0.0011297623	0.0002775025	-0.0021042428	-0.0017452375	-0.0004535598	0.0011942887	0.0024364076	0.0002240278	0.0080573969	0.0013540613	0.0114563387	0.0077622398	0.0038539418	0.0089416150	0.0025910370	0.0015330033	-0.0011249359	0.0007365393	0.0044744867	0.0028145458	0.0029579878	-0.0025699786	0.0027888950	0.0047484543	0.0056040888	0.0062052887	0.0003325144	0.0002830941	0.0000141682	0.0008062212	-0.0065541770	-0.0052020596	0.0013907350	0.0037891383	-0.0055321706	-0.0079697277	0.0000681543	0.0009756389	0.0038648457	0.0032124943	0.0027182007	0.0027333503	0.0022338096	0.0027536598	0.0002082432	-0.0007083178	-0.0025664363	-0.0016861578	-0.0000148662	0.0009591764	-0.0001176689	-0.0001637927	0.0004963031	0.0006063159	0.0015517336	-0.0000483125	-0.0008588249	-0.0006833947	-0.0012671618	-0.0008798088	-0.0026730560	-0.0015397978	0.0008825785	0.0009424328
0.0022641420	-0.0015279505	0.0026904792	0.0033614454	0.0021348116	0.0028650220	0.0043835281	0.0040808492	-0.0045538037	-0.0072055641	-0.0063684322	-0.0046538725	-0.0015793241	0.0015089782	0.0045216428	0.0022584023	0.0026742385	0.0028092982	0.0046245707	0.0032596611	-0.0002796310	-0.0013945312	0.0037203338	-0.0000499137	0.0013484822	-0.0039857812	0.0011380425	0.0012168598	-0.0004591774	0.0020043664	-0.0066181994	-0.0030866484	-0.0033776604	0.0001751697	-0.0022872710	-0.0021564371	-0.0015014815	-0.0011895342	0.0023684006	0.0015764306	-0.0010513228	-0.0050134971	-0.0043896353	-0.0017519186	0.0004363123	0.0025779586	-0.0046450123	-0.0025175321	0.0007637232	0.0035553859	-0.0047312803	-0.0047969734	0.0040687374	0.0058501875	0.0039460808	0.0063542444	0.0050851326	0.0034977854	0.0012260042	0.0002779147	0.0007745391	0.0039919103	0.0073395232	0.0006937349	-0.0011725832	-0.0003850593	0.0020658625	0.0145035163	0.0079418374	-0.0003084796	-0.0231376998	-0.0206604972	0.0026080711	-0.0014712932	0.0071447175	0.0085526686	0.0077084871	0.0082204156	0.0042179390	0.0039319592	0.0067675896	0.0027953940	-0.0049933116	-0.0067822277	-0.0070758173	-0.0063910731	-0.0002584727	-0.0119090974	-0.0061711688	0.0024249817	0.0146061722	0.0101420907	-0.0007452220	-0.0065334039	-0.0247998536	-0.0242004339	-0.0174876135	0.0012041825	0.0020764733	0.0001228832	0.0047745858	-0.0003155031	-0.0044677206	-0.0059914864	-0.0066089975	-0.0022808195	-0.0008911981	-0.0008464862	0.0008367716	0.0007701500	0.0003588042	-0.0037401142	-0.0056426474	-0.0084699225	-0.0031642297	-0.0006167133	0.0012847919	0.0041348841	0.0007368722	0.0025908437	-0.0038806528	-0.0038251709	-0.0027662215	-0.0014726856	-0.0005298618	-0.0003701913	-0.0003891374	-0.0022935907	0.0019729894	-0.0009518606	0.0019392257	-0.0026033090	0.0050910101	-0.0018301832	-0.0012329508	-0.0002670820	-0.0015290172	0.0003421893	-0.0080047380	-0.0044937339	-0.0040808427	-0.0009530425	0.0046723522	0.0044945995	0.0016312285	-0.0012414462	0.0052689025	0.0022079563	-0.0039314218	-0.0048039854	-0.0045668059	-0.0014174812	-0.0071541416	-0.0052175527	0.0015442413	0.0027583567	0.0015761346	-0.0003112179	-0.0005603555	-0.0012914665	-0.0023824489	-0.0013924415	-0.0011574212	0.0003267939	0.0008796661	0.0011763854	0.0018425654	-0.0029677430	0.0043765949	0.0009527302	0.0082038390	0.0058426554	0.0041472111	0.0071469615	0.0033229603	0.0047130599	-0.0017766834	0.0012768898	0.0053745257	0.0023888573	0.0022614487	-0.0014400578	0.0032972666	0.0032128331	0.0014067551	0.0000791256	-0.0020196047	0.0021500338	0.0029535859	0.0001589747	-0.0053945086	0.0002786704	0.0030583206	-0.0013924039	-0.0086918343	-0.0055657113	0.0019762991	0.0017048421	0.0018583994	0.0004801057	0.0004104083	0.0005472149	0.0020520925	0.0045076101	0.0017343162	0.0004666202	-0.0021016968	-0.0018507973	-0.0003951237	0.0016423622	-0.0009358934	-0.0014354055	-0.0001507552	0.0002530635	0.0006694206	-0.0012514120	-0.0027854834	-0.0027439629	-0.0018230524	-0.0010215871	-0.0017436948	0.0003555280	0.0013621105	0.0011758723
-0.0004764421	-0.0007742200	0.0019689682	0.0027630962	0.0029289210	0.0038055130	0.0018639881	-0.0017871435	-0.0045175408	-0.0070795640	-0.0053115799	-0.0004410978	0.0041045877	0.0046857595	0.0058384952	0.0056921095	0.0029305299	0.0013989506	0.0013029950	0.0016395331	0.0038163012	0.0030618617	0.0001951714	-0.0000951999	-0.0026275979	-0.0032960265	0.0009195821	-0.0004653447	-0.0006802935	0.0001923551	-0.0059760306	-0.0029662747	-0.0029860935	-0.0007869548	-0.0021407674	-0.0009924886	0.0018670609	0.0019803438	0.0016206731	0.0006412534	-0.0016971620	-0.0053323973	-0.0028047464	0.0009672574	-0.0021177945	-0.0002167302	0.0131165236	0.0082507124	0.0066385861	-0.0032155637	-0.0096136592	-0.0111755384	0.0103397723	0.0004172495	0.0073666852	0.0134061733	0.0041631092	0.0013693144	-0.0137960203	-0.0171503648	-0.0209426023	-0.0027573928	0.0098741706	-0.0008919925	0.0026752027	-0.0188354570	-0.0216547679	-0.0111316014	-0.0045243832	0.0030827816	-0.0058611613	-0.0128123742	-0.0140047371	-0.0125020910	-0.0005297473	-0.0056586764	-0.0086040422	-0.0076680058	0.0106769251	0.0242562182	0.0354866236	0.0148772933	0.0060592378	-0.0116580864	-0.0179767981	-0.0070026843	0.0035605989	-0.0030811022	-0.0041721351	0.0061284071	0.0111740939	0.0181738790	0.0151729677	0.0019254806	-0.0300423522	-0.0136498380	-0.0029862416	0.0217091925	0.0170110036	0.0050683683	0.0036024875	-0.0060607502	0.0201417524	0.0224929862	0.0145905335	0.0150551014	0.0121898372	0.0108530931	0.0050211251	0.0032392284	-0.0007634035	-0.0018104478	-0.0121019529	-0.0087306462	-0.0012958029	0.0019544428	0.0060052080	0.0046220818	-0.0007388019	0.0023273223	-0.0035216811	-0.0039956151	-0.0039764652	-0.0025471970	-0.0014422283	-0.0010313141	-0.0023060672	-0.0046825395	0.0005201285	-0.0015976591	0.0000296434	-0.0029830383	0.0009721461	-0.0025864025	-0.0053105685	0.0040566404	-0.0020900657	0.0060238093	-0.0024916807	0.0080162175	0.0008514292	0.0032621082	0.0096495608	0.0087425979	0.0057063289	-0.0012193643	0.0004770633	-0.0013569468	-0.0058548441	-0.0052608727	-0.0064321631	-0.0016576193	-0.0026741023	-0.0004246463	0.0002354548	0.0007128749	-0.0001759061	-0.0017127678	-0.0027262566	-0.0008826945	-0.0008708457	0.0003946442	0.0020694323	0.0050575044	0.0048225438	0.0049610743	0.0017165424	-0.0017124177	0.0013635224	0.0024171825	0.0084363259	0.0058426289	0.0026259220	0.0034619088	0.0000447345	0.0019478884	0.0005872608	0.0039238594	0.0062197824	0.0044617280	-0.0007281280	-0.0015676906	0.0023721922	-0.0004386079	-0.0015488939	-0.0030122166	-0.0037911960	0.0025971187	0.0020118009	-0.0004073986	-0.0021754797	0.0028425932	-0.0011929006	-0.0044538938	-0.0068786265	-0.0008331966	0.0028473304	0.0039980458	0.0035673073	0.0025334237	0.0003674363	-0.0008105304	-0.0000791674	0.0004141624	0.0036106762	0.0016886871	-0.0005646180	0.0007822721	-0.0028200580	-0.0019805231	-0.0016871947	-0.0001503321	0.0029377190	0.0004061661	-0.0027100551	0.0007910733	-0.0015114076	-0.0008590892	0.0000679099	0.0035506296	0.0003582177	0.0023516219	0.0012906957	0.0018471002
0.0004992012	0.0007325624	0.0021835412	0.0032213370	0.0047913110	0.0017012825	0.0016990249	-0.0032305953	-0.0036483221	-0.0054787616	-0.0002875095	0.0026603809	0.0052256715	0.0068761986	0.0041348208	0.0043715606	0.0005290736	0.0002983979	-0.0000573102	0.0006372945	0.0026114371	0.0025761805	-0.0025413006	-0.0017799373	0.0004293876	-0.0011105936	-0.0013447326	-0.0005878213	0.0001372899	-0.0048921104	-0.0029424741	-0.0030943975	-0.0019686315	-0.0002460659	-0.0000703873	0.0003592169	0.0029335595	0.0022893031	0.0012382152	0.0005398701	-0.0008166990	-0.0042746942	0.0003721569	0.0052587455	0.0017903786	0.0040223333	0.0128133129	0.0066871680	0.0037357330	-0.0093400069	-0.0121748969	-0.0150462883	0.0063963784	-0.0013676330	0.0025644554	-0.0027307996	-0.0130055659	-0.0066086296	-0.0292684212	-0.0342639387	-0.0350278951	-0.0024229381	0.0159740448	0.0008734264	0.0020331121	-0.0198701266	-0.0207347460	-0.0207915083	-0.0143462969	0.0066077569	0.0038501618	-0.0030299739	-0.0100040929	-0.0026816081	0.0015428429	-0.0042250687	-0.0074021034	-0.0082476111	0.0007559059	0.0093708336	0.0079340544	-0.0093478020	-0.0095290737	-0.0276849158	-0.0157351904	0.0071350313	-0.0034721512	-0.0064181774	0.0114434427	0.0059008263	-0.0088958833	-0.0104762558	-0.0016362595	-0.0126059018	-0.0252383761	-0.0068653142	0.0054039364	0.0116707338	0.0016944602	-0.0061152037	-0.0027271283	-0.0075174677	0.0160218906	0.0229447894	0.0212711319	-0.0007420279	0.0007619018	-0.0073199784	-0.0127936844	-0.0032540667	-0.0208072457	-0.0143914688	-0.0194791704	-0.0121119414	-0.0044752643	0.0018024698	0.0074951020	0.0030214421	-0.0006874653	-0.0003301057	-0.0051431470	-0.0053801900	-0.0048862034	-0.0039867084	-0.0028461674	-0.0023941228	-0.0045719380	-0.0068098884	0.0003592589	-0.0020153513	0.0011094641	-0.0044350070	0.0031697871	-0.0051422943	-0.0070641618	-0.0031940737	-0.0082134642	0.0044544395	-0.0007221477	0.0076673673	0.0050526080	0.0013010050	0.0024830687	0.0030413303	0.0048535764	-0.0033903003	-0.0026105577	-0.0044325278	-0.0078271376	-0.0047604623	-0.0035957850	-0.0007644411	-0.0011638748	-0.0001290485	0.0003643658	-0.0009251632	-0.0019229208	-0.0034134495	-0.0097002368	-0.0082399808	-0.0087444745	-0.0050092824	-0.0025289748	0.0022588768	0.0025445402	0.0024278201	-0.0007452657	-0.0027150358	0.0025585564	0.0025645713	0.0028919594	0.0027877076	0.0004259189	-0.0028135546	-0.0000137510	-0.0004755176	0.0010044742	0.0047832960	0.0053739878	0.0020659906	-0.0013718058	-0.0029547587	-0.0054285778	-0.0062183901	-0.0049028103	-0.0042863516	-0.0002719707	0.0023022667	0.0013141284	-0.0004173709	-0.0038367847	-0.0015656089	-0.0042582974	-0.0008810099	0.0020324222	0.0042659510	0.0035633375	0.0024152098	-0.0009271031	-0.0013871585	-0.0015036860	-0.0009917266	-0.0010593816	-0.0014986943	0.0015946871	-0.0007787715	0.0005513112	0.0016210934	-0.0025579333	0.0000908686	-0.0032734470	-0.0003032546	0.0042335498	0.0000608504	-0.0000163816	-0.0013623721	-0.0054837540	0.0009074984	-0.0024309270	0.0025674561	0.0007665354	0.0018107675	0.0009731503	0.0024701827
0.0002277835	0.0004242540	-0.0014639080	0.0009848294	0.0027442947	-0.0022511347	-0.0007794047	-0.0025008211	-0.0014950170	-0.0031991247	0.0034454956	0.0032109979	0.0046457932	0.0071887225	0.0030041768	0.0016030823	0.0000033680	0.0001775451	-0.0027698004	-0.0023476980	-0.0022225447	-0.0024338807	-0.0007366794	-0.0032276895	0.0033438210	0.0031341792	-0.0003416067	-0.0014936514	-0.0010442582	-0.0062615448	-0.0022571934	-0.0011186576	-0.0042595081	-0.0010420486	-0.0012783203	-0.0019748867	-0.0022339283	-0.0025921292	-0.0027251753	-0.0010443967	-0.0001779557	-0.0037550621	0.0009638479	0.0037622496	-0.0028388558	0.0027830633	0.0138353650	0.0016449266	-0.0080093108	-0.0280095004	-0.0343182310	-0.0202635862	0.0142786792	0.0054301373	0.0082834987	0.0035377108	0.0056954916	0.0192343760	-0.0234295316	-0.0347771756	-0.0272871051	0.0020379554	0.0040546302	-0.0044162436	0.0043136631	-0.0149107948	-0.0158539768	-0.0140333613	-0.0056059216	0.0200832170	0.0252952855	0.0176484678	0.0015358839	0.0033800737	0.0038749769	0.0027503793	0.0081782434	0.0088505270	0.0368509591	0.0437005274	0.0363147147	0.0077632274	0.0150194885	0.0067463969	0.0279814433	0.0532499701	0.0156307723	-0.0158099439	-0.0006911024	-0.0118972482	-0.0230227988	-0.0070208171	0.0066103339	-0.0061224536	-0.0048320461	0.0143126398	0.0156988315	0.0038549283	-0.0029380256	-0.0153033668	-0.0015264249	0.0021132699	0.0224841088	0.0141310021	-0.0031423429	-0.0318092778	-0.0237710644	-0.0327726081	-0.0298999771	-0.0152448127	-0.0289691854	-0.0228755772	-0.0210885387	-0.0164176710	-0.0090117762	-0.0005004934	0.0079449825	0.0026729428	0.0019761750	0.0030271730	-0.0027727797	-0.0029933201	-0.0027416325	-0.0023684772	-0.0011628215	-0.0016664681	-0.0024040109	-0.0059677847	0.0032366423	-0.0012231246	0.0016484535	-0.0059817764	0.0062702508	-0.0038260976	-0.0047485679	-0.0027184596	-0.0121946735	-0.0037786225	-0.0077637923	0.0009317016	-0.0026257790	-0.0047510564	-0.0026859336	-0.0015270076	0.0067777210	-0.0033221864	-0.0023130286	-0.0047332784	-0.0057498515	-0.0013079989	0.0014036184	0.0032000607	-0.0008111631	-0.0007687868	-0.0010423776	-0.0008071342	-0.0009091969	-0.0029365304	-0.0059635532	-0.0063738460	-0.0075545176	-0.0058615571	-0.0030773233	0.0008819378	0.0025371716	0.0042549381	0.0051107444	-0.0011300673	0.0038431026	0.0022374168	-0.0012688830	-0.0014494909	-0.0000602027	-0.0036869391	0.0008660398	-0.0009047043	-0.0034327966	0.0029904223	0.0042600366	-0.0014864074	-0.0023773385	-0.0036315778	-0.0086847795	-0.0081537878	-0.0034320676	-0.0043514064	-0.0005178326	-0.0025340780	-0.0055091642	-0.0031840170	-0.0028089385	0.0013880865	0.0008086580	0.0039449278	0.0033095612	0.0029805617	0.0021474455	-0.0012325525	-0.0053200182	-0.0026749847	0.0003090872	-0.0017518201	-0.0019372997	-0.0013817224	0.0016788325	-0.0034687910	0.0008597114	0.0040549766	0.0020367941	0.0029389029	-0.0036331012	-0.0012608331	0.0075017945	0.0017809969	0.0039930427	-0.0007199704	-0.0039294288	0.0025540134	-0.0024925333	0.0023862505	0.0016069025	-0.0000071495	0.0002137809	0.0015174387
-0.0001684029	-0.0020132842	-0.0005813978	-0.0020211108	0.0001848614	-0.0022235604	-0.0031873193	-0.0021713879	0.0013024177	0.0005502404	0.0046494398	0.0050626262	0.0051506627	0.0039800312	0.0004783438	0.0011780227	-0.0005273457	0.0001326519	-0.0007352025	-0.0002984173	0.0001095963	0.0003367104	-0.0010791642	0.0014959982	0.0028811891	0.0037886947	0.0070091113	0.0028517405	0.0041905274	0.0009942714	0.0007690459	0.0000156851	-0.0042027705	-0.0027428516	-0.0027558913	-0.0029596302	-0.0025769304	-0.0036834904	-0.0026804910	-0.0015390319	0.0006632514	-0.0006852575	0.0041454299	0.0049527544	-0.0024689641	0.0008184413	0.0123243444	0.0022287788	-0.0122993626	-0.0364643410	-0.0359251499	-0.0196788684	0.0255065896	0.0136081222	0.0089691412	0.0061828448	0.0102384686	0.0215827357	-0.0309141967	-0.0406485423	-0.0276751239	-0.0037587779	-0.0148742404	-0.0170142800	0.0093508335	0.0001559956	0.0057484433	0.0063047269	-0.0003706604	0.0100684930	0.0259336978	0.0147599084	-0.0068769036	-0.0099818315	-0.0200579148	-0.0150996596	0.0013159129	0.0042588105	0.0037461296	0.0127893481	0.0171043463	0.0046007182	0.0123290904	0.0006093010	-0.0001568999	0.0401109867	0.0087381992	-0.0228132568	-0.0032739383	0.0018766411	0.0034088104	0.0221368149	0.0312639251	0.0227842052	0.0099650864	0.0076656081	0.0065478608	0.0007323865	-0.0154897282	-0.0258931071	-0.0007994128	0.0118056498	0.0206247214	-0.0060567716	-0.0251846388	-0.0319503807	-0.0249597840	-0.0289151650	-0.0169933774	-0.0036402252	-0.0136378137	-0.0060824947	-0.0144787300	-0.0138728879	-0.0058458834	-0.0026422916	0.0065804017	0.0026237878	0.0017993632	0.0047142762	0.0007956799	-0.0003208099	0.0003716201	0.0011810714	0.0014439463	0.0008701046	0.0000744315	-0.0010328472	0.0037536430	-0.0011687841	0.0016872161	-0.0024553128	0.0046542548	-0.0026521804	0.0018362224	0.0025898141	-0.0055687409	-0.0041498523	-0.0162434578	-0.0122501859	-0.0138133420	-0.0085605886	-0.0051794047	-0.0027447133	0.0035331768	-0.0036218688	-0.0010541097	-0.0035331151	-0.0022830907	0.0008505241	0.0009796598	0.0043988158	0.0005904560	0.0011714626	0.0000916297	-0.0000318103	0.0002699775	-0.0005479412	0.0004487227	-0.0005388209	-0.0021876737	-0.0034413175	-0.0060305824	-0.0065494259	-0.0060308855	-0.0018380188	0.0012372709	0.0036082498	-0.0005915387	-0.0001481162	0.0025192620	-0.0005823002	0.0019165842	0.0012090014	0.0000334147	0.0006562318	-0.0024661578	-0.0008095122	-0.0016742538	-0.0018782236	-0.0033923453	-0.0038372101	-0.0032760145	-0.0036758899	0.0005651820	-0.0002279525	-0.0009050363	-0.0032877948	-0.0042522401	-0.0012526349	0.0018322953	0.0040131547	0.0012303435	0.0000816720	-0.0035145348	-0.0030858386	-0.0010872207	-0.0019415895	-0.0004633743	0.0007254800	0.0029275916	0.0005813491	-0.0006022261	-0.0010112568	0.0019534356	-0.0020228059	-0.0016043338	0.0011821792	0.0052666734	0.0023901816	-0.0037996557	-0.0031211497	0.0042105033	0.0020562946	0.0038400546	0.0019633328	0.0001998326	0.0035225549	-0.0002197949	0.0042501586	0.0007477434	0.0001732702	0.0000948893	0.0002340372
0.0005860125	-0.0035038260	-0.0017294268	-0.0017255067	-0.0028435010	-0.0035255384	-0.0033250232	-0.0022861320	-0.0002746648	0.0015829842	0.0045789666	0.0037155284	0.0030394925	0.0020068553	0.0021253312	0.0014828022	0.0019546198	0.0029955176	0.0024240615	0.0021450303	0.0019306331	0.0024098291	-0.0003702409	0.0024780163	0.0054824385	0.0033406324	0.0077120676	0.0048615164	0.0034727757	0.0033679858	0.0094538489	0.0049775550	-0.0007524241	-0.0016317586	-0.0047895643	-0.0050387657	-0.0029392929	-0.0043272171	-0.0048180846	-0.0032046980	0.0000268886	-0.0004445045	0.0026311567	0.0046435702	0.0016374945	0.0053261835	0.0070373747	-0.0058661015	-0.0187556352	-0.0426307768	-0.0340843052	-0.0099830562	0.0256481953	0.0126734665	0.0126456562	0.0078571811	0.0055254358	0.0156359859	-0.0408295393	-0.0489814728	-0.0210044496	0.0047645592	-0.0110147242	-0.0070684580	0.0065577896	-0.0070352661	0.0184937231	0.0309547894	0.0103715872	0.0016529141	0.0283723548	0.0117967967	0.0116526131	0.0042220056	0.0022871871	0.0083124470	0.0220829993	0.0066526206	-0.0050314451	0.0100287870	0.0273368657	0.0309649184	0.0275825430	0.0016598469	-0.0149467653	0.0136149544	-0.0085615208	-0.0109647661	0.0177982710	-0.0044721863	-0.0039316048	0.0213363748	0.0121046528	0.0034479571	0.0024880590	0.0000775735	-0.0048933337	0.0116939144	0.0111415247	-0.0071956292	0.0218267255	0.0210818648	-0.0029798043	-0.0181107745	-0.0451532863	-0.0325528607	-0.0252710730	-0.0294786692	-0.0098480638	0.0096385125	-0.0018272535	0.0040486520	-0.0027480503	-0.0073836544	-0.0078111133	-0.0052748905	-0.0036975474	-0.0021806548	-0.0018343988	0.0013770615	-0.0009985953	-0.0015353533	-0.0008551282	-0.0013913210	-0.0008100568	-0.0017750879	-0.0004804083	0.0005222776	0.0028622202	0.0008806823	0.0004950280	0.0001360841	0.0003260840	-0.0025134054	0.0048579415	0.0043986416	-0.0024053624	0.0016733359	-0.0080072163	-0.0068250960	-0.0075289989	-0.0089448076	-0.0106478594	-0.0075124316	0.0007099638	-0.0008956270	0.0034141629	0.0006659587	0.0008141674	0.0041214521	0.0059133996	0.0066378722	0.0043726526	0.0038011190	0.0016019252	0.0017133720	0.0011816737	0.0013717413	0.0038606247	0.0035102838	0.0038818780	0.0046506869	0.0018576032	-0.0057349848	-0.0035353501	-0.0055991295	-0.0064584040	0.0015066578	-0.0004599085	-0.0014804004	0.0024049697	0.0038431983	-0.0002285933	0.0023537769	0.0033990755	0.0006654300	-0.0037661609	-0.0023630778	-0.0023817751	-0.0010356996	-0.0005738756	-0.0022097656	0.0003081007	-0.0037609925	0.0004409340	0.0013126887	0.0011965823	0.0043743458	0.0056899362	0.0055318587	0.0030456739	0.0000435764	-0.0055503314	-0.0056094462	-0.0078420835	-0.0041346839	0.0005892783	0.0032318926	0.0063667935	0.0046455371	0.0059676967	0.0029043108	0.0019079850	0.0031516475	0.0013546408	0.0012222240	-0.0005292511	-0.0023682113	0.0046655755	0.0040505989	-0.0046268292	-0.0029155845	-0.0012188635	-0.0005572444	0.0031009510	0.0022344464	0.0008467663	0.0043597636	0.0006922876	0.0030799992	0.0005920792	-0.0008589223	-0.0007361141	-0.0003986590
0.0008264456	-0.0005975245	-0.0040822360	0.0003297037	-0.0034259392	-0.0042646430	-0.0029501684	-0.0021543396	0.0010745024	0.0022652722	0.0034298517	0.0027064222	0.0026909655	-0.0011899836	0.0005535315	-0.0025565359	-0.0006633445	0.0003281297	-0.0006084711	-0.0004072897	-0.0009047897	-0.0000493836	0.0012493564	-0.0007089997	0.0044329548	0.0091101257	0.0042789332	0.0073419060	0.0043018316	0.0034480435	0.0110160960	0.0065754801	-0.0011800088	-0.0042156130	-0.0073583364	-0.0080733076	-0.0065048151	-0.0060578370	-0.0039778277	-0.0023401796	0.0009636481	0.0015169268	0.0041469731	0.0070041069	0.0047586090	0.0101183634	0.0110902674	-0.0067788893	-0.0214045532	-0.0370937064	-0.0213587601	0.0023302650	0.0209481586	0.0084178699	0.0113851270	0.0238313824	0.0288888086	0.0394894369	-0.0113171861	-0.0220487136	0.0137341497	0.0272886083	-0.0177464355	-0.0101254145	0.0057800873	-0.0369993523	-0.0145303942	0.0215351693	0.0191035513	-0.0012905407	0.0174627695	-0.0048439484	-0.0091071352	-0.0193918627	-0.0081140492	0.0106022945	0.0173644163	0.0065673650	0.0046167667	0.0316311307	0.0508118644	0.0396975316	0.0195280947	0.0041275201	-0.0119576743	0.0169812422	0.0076717911	0.0015552482	0.0305647422	-0.0127353240	-0.0020105618	0.0313707478	-0.0042523216	-0.0134379175	0.0128598735	0.0035942749	-0.0062122904	0.0220612139	0.0290355608	0.0233010519	0.0388938338	0.0056814323	-0.0298982058	-0.0342382267	-0.0476924479	-0.0207245201	-0.0126196137	-0.0161298756	0.0005397498	0.0167347677	0.0246118102	0.0166870002	0.0159876291	0.0025394799	-0.0028319610	-0.0033890186	-0.0064908313	0.0014320705	0.0006659101	0.0065410733	0.0037830719	0.0007836709	0.0013656425	0.0013586561	0.0015521790	-0.0002280218	0.0016407931	-0.0000311175	0.0044794083	0.0027145720	-0.0006894555	-0.0013543180	0.0033757384	0.0014494166	0.0012649129	0.0060890405	-0.0006222801	0.0005652884	0.0045450879	0.0009835138	-0.0018684065	-0.0074979481	-0.0079871472	-0.0087927775	0.0003362675	0.0008433894	-0.0026059896	0.0002099781	0.0002791659	0.0008548697	0.0036589098	0.0020248182	-0.0003166417	-0.0008550884	-0.0021370482	-0.0026275916	-0.0025985939	-0.0011888818	0.0014707755	-0.0001658644	0.0038834128	0.0061848992	0.0050452296	-0.0006420318	0.0024686086	-0.0032633599	-0.0005438050	-0.0004694475	-0.0037530367	0.0061952900	-0.0011153732	0.0070512276	0.0007399243	0.0012690029	0.0030763063	0.0006894962	-0.0048056780	-0.0028683008	-0.0002598424	-0.0008242892	0.0008015959	0.0028850483	-0.0015303718	-0.0026943474	0.0007447181	0.0010795949	0.0056364005	0.0043875342	0.0018861650	0.0008925716	-0.0056331479	-0.0046033240	-0.0050816569	-0.0010384712	-0.0000933332	-0.0001912896	0.0020860988	0.0034654585	0.0017222827	0.0024924600	0.0036040866	0.0011754169	0.0003387371	0.0004003900	0.0014152679	-0.0003267624	-0.0014775740	-0.0051022721	0.0020640641	0.0055667269	0.0001030268	-0.0050617643	-0.0007893940	-0.0017943442	0.0007328738	0.0018673153	0.0023001826	0.0015513706	0.0023546633	0.0003660529	0.0011327735	-0.0010911182	-0.0011302492	-0.0006471864
-0.0012929465	-0.0002811046	-0.0022731749	-0.0016436138	-0.0018943158	-0.0028711506	-0.0018941751	-0.0025510825	0.0003852876	0.0025324589	0.0022863350	0.0014016825	0.0012812226	-0.0034872312	-0.0001963674	-0.0024264059	-0.0023925800	0.0003883147	-0.0000755049	0.0002264211	0.0002681543	0.0009402276	-0.0008317521	0.0026455827	0.0010456855	0.0052926126	0.0028657189	0.0011979862	0.0036330889	0.0013572181	0.0059138238	0.0042670616	-0.0044067074	-0.0071524661	-0.0104178991	-0.0104905851	-0.0087063517	-0.0069045117	-0.0062121488	-0.0047693765	-0.0005977641	-0.0014093849	-0.0017706496	0.0041023488	0.0029964934	0.0108850962	0.0102766128	-0.0097156381	-0.0203911886	-0.0229508057	-0.0007641863	0.0065191775	0.0111545790	0.0070518525	0.0169010703	0.0197290778	0.0160630830	0.0193345938	-0.0276608299	-0.0295739509	0.0110481000	0.0375938043	-0.0250482243	-0.0194670260	0.0011980222	-0.0433954820	-0.0208745655	0.0355694480	0.0238871183	-0.0110449418	0.0307795648	0.0046876855	-0.0160324741	-0.0227740388	0.0006393843	0.0101388330	-0.0050370814	-0.0065910015	-0.0028293547	0.0141043961	0.0207829811	0.0109558674	-0.0073176492	-0.0011561411	0.0059028417	0.0357798301	0.0026597944	-0.0268976036	0.0070850030	-0.0203904640	0.0107235704	0.0460909009	0.0167065933	0.0141322734	0.0327043608	0.0221445560	0.0080832038	0.0282669663	0.0187117569	0.0016038907	0.0058784857	-0.0133655388	-0.0200912412	-0.0218370110	-0.0393107645	-0.0127769159	-0.0138780670	-0.0076976502	0.0160715617	0.0259667058	0.0332340077	0.0291420743	0.0186764188	0.0064883316	0.0005888673	-0.0081974175	-0.0109215146	-0.0034245241	-0.0071169483	-0.0001607223	-0.0030209126	-0.0003767889	-0.0007388561	-0.0006132560	-0.0009891415	-0.0011484311	-0.0007215890	-0.0023844219	-0.0011084264	0.0014180157	-0.0023439561	-0.0028537405	-0.0000368013	0.0016791740	-0.0012940303	0.0010308188	-0.0012530597	-0.0025304575	-0.0010539880	-0.0012722448	-0.0061555831	-0.0040980824	-0.0047878562	-0.0071253073	-0.0017125637	0.0010251795	0.0002361385	0.0004860427	0.0039706961	0.0027330609	0.0065790680	0.0058835326	0.0014321231	0.0014277409	0.0012220149	0.0010719256	0.0016217149	0.0002038109	0.0012925921	0.0003806269	0.0049868724	0.0020158349	-0.0003931955	-0.0028168107	0.0022171156	-0.0038580564	-0.0025885177	0.0010075560	-0.0057899049	0.0076139825	0.0004764627	0.0012350397	0.0008550359	-0.0015531422	-0.0035707492	-0.0006574249	-0.0046044248	-0.0007068895	0.0006215621	0.0019060094	-0.0015389764	0.0006415786	-0.0010162273	-0.0036850921	0.0044166665	0.0020104467	0.0045350138	-0.0000153645	-0.0041311332	-0.0019066301	-0.0059901322	-0.0013361841	0.0024615838	0.0079307659	0.0052123033	0.0023941791	-0.0020274429	-0.0007696469	-0.0003562911	0.0006815203	0.0045384699	0.0029857878	0.0031540538	0.0005963240	0.0029960587	0.0028590860	0.0011475417	-0.0018536320	0.0015738807	0.0038107072	0.0045808954	-0.0066285608	-0.0037596556	-0.0009681851	-0.0007142994	-0.0002257140	0.0017969348	-0.0020661051	-0.0015764777	-0.0012910386	-0.0015147083	-0.0017486962	-0.0016465706	-0.0007386007
0.0001779210	-0.0010647587	-0.0001336091	0.0010343430	-0.0001398740	-0.0007316939	-0.0010008629	-0.0006706661	0.0000521513	0.0000492620	0.0020224352	-0.0007757570	0.0004536929	-0.0000594094	0.0004708303	-0.0002856638	-0.0023712690	-0.0021420552	-0.0014873848	-0.0007582490	0.0002331150	0.0006242640	0.0005676990	-0.0007191270	0.0022296214	0.0007040212	0.0011031268	-0.0003495010	0.0009998732	0.0018938550	0.0059849159	0.0023294964	-0.0041251509	-0.0063140276	-0.0082730222	-0.0076240478	-0.0049047116	-0.0032738321	-0.0034009435	-0.0031276392	0.0018941719	-0.0001128689	-0.0010944876	0.0018962158	0.0036870590	0.0177414119	0.0137456656	-0.0070301336	-0.0118808299	-0.0153423678	-0.0033745635	-0.0067712101	-0.0061851069	0.0059961211	0.0152236205	-0.0019660895	-0.0023854258	0.0089179482	-0.0338841788	-0.0362506658	0.0086115263	0.0442417860	-0.0212954562	-0.0146388914	-0.0065031326	-0.0278231762	0.0128511759	0.0495797805	0.0228919387	-0.0097565390	0.0282188170	0.0132007869	-0.0084765246	-0.0200829804	0.0047274870	0.0118665779	-0.0139740594	0.0016659659	-0.0083063208	0.0065601990	0.0073956395	-0.0091717467	-0.0137897823	-0.0031666192	0.0153301079	0.0317863226	-0.0266364254	-0.0400208309	0.0063798707	-0.0061885975	0.0113824550	0.0322319493	0.0063710259	0.0040809033	0.0313179120	0.0323866606	0.0215595160	0.0275275819	0.0141666466	-0.0156895202	-0.0143036256	-0.0191987995	-0.0149215199	0.0031910073	-0.0149824005	-0.0011866749	-0.0059913183	-0.0038049289	0.0211028755	0.0254456252	0.0235683937	0.0222946573	0.0193516593	0.0109243933	0.0030935423	-0.0055488627	-0.0089461524	-0.0035826266	-0.0059663793	-0.0018841444	-0.0018722753	-0.0003061164	-0.0001022395	-0.0000289592	0.0003913867	0.0003157984	0.0000044722	-0.0014155358	-0.0012841292	-0.0017046235	-0.0011671740	-0.0009144468	-0.0008043617	-0.0001994230	0.0024790389	0.0013837030	-0.0001429499	0.0001001854	-0.0048969625	-0.0013968199	-0.0010795271	-0.0007353507	-0.0016822115	-0.0035385345	0.0004915321	-0.0002578949	0.0013319053	-0.0011067390	0.0012304226	0.0011549583	0.0016341199	0.0016805001	-0.0002982125	-0.0001589883	0.0005584316	0.0013821851	0.0013514492	0.0005032057	-0.0006187228	-0.0015897939	0.0034892296	0.0004836021	-0.0024919938	-0.0039416603	0.0028708177	-0.0014728811	-0.0003404212	0.0008930779	-0.0028533738	0.0013473672	-0.0032065022	-0.0009597745	-0.0029781451	-0.0011684953	-0.0011402322	0.0008948180	-0.0010570469	-0.0001724352	0.0026257555	0.0028864969	0.0008883064	0.0008520238	0.0033320521	0.0003304888	0.0038910019	-0.0005777027	-0.0010026877	-0.0068052099	-0.0069244043	-0.0022963770	-0.0022811522	0.0030338953	0.0067890193	0.0077450587	0.0040625571	0.0016200485	-0.0030062406	-0.0051865252	-0.0032308437	-0.0028212063	0.0023485711	0.0017660493	0.0004350067	0.0013651345	0.0005509698	-0.0001901400	0.0032169423	-0.0024184058	-0.0022483806	0.0036314034	0.0030042855	-0.0025198786	-0.0038690630	-0.0021114985	0.0015470203	-0.0032425087	-0.0015905402	-0.0031544729	-0.0052038124	-0.0008544895	0.0002857051	-0.0013187847	-0.0008708963	-0.0004512553
-0.0004829760	-0.0022849017	-0.0020825909	0.0010159950	-0.0006937858	0.0002264293	0.0002843152	-0.0007610669	0.0041143056	-0.0006560382	-0.0007425774	0.0001957991	-0.0004520651	-0.0012095753	0.0008030678	0.0002917657	-0.0034894864	-0.0023543686	-0.0020533456	0.0003732006	0.0001359202	0.0018114124	0.0010953206	-0.0041152718	0.0009127485	0.0005293717	0.0001618175	0.0049940567	0.0026586219	0.0026246079	0.0042390260	0.0035896765	-0.0043434650	-0.0020283763	-0.0034028778	-0.0021082875	-0.0019111827	-0.0028038872	-0.0056234612	-0.0058962777	-0.0033098729	-0.0059343819	-0.0046445918	-0.0010939768	-0.0028762468	0.0107438816	0.0003363107	-0.0182439350	-0.0156064164	-0.0367035307	-0.0424711928	-0.0376305655	-0.0220323075	-0.0100304838	-0.0209298562	-0.0242427569	0.0111867571	0.0064939163	-0.0231336839	-0.0010292195	0.0433667414	0.0654160902	0.0424354002	0.0434888303	0.0073621185	0.0121531431	0.0256229527	0.0324010849	0.0148566104	-0.0224682055	0.0441708975	0.0284822006	0.0116560142	-0.0081559364	0.0273769423	0.0184293967	-0.0089162346	-0.0027664797	-0.0174152143	0.0038686600	0.0099523710	0.0063393358	0.0092467275	-0.0122875534	0.0015926841	0.0356224403	0.0039611314	-0.0066035632	0.0231426023	0.0167413075	0.0138266990	0.0240313970	0.0249237847	0.0196815301	0.0500815734	0.0269486755	0.0231565330	0.0161794089	-0.0012031049	-0.0199693665	-0.0063858293	-0.0175066739	-0.0293494221	0.0049102772	0.0074947746	0.0209891610	0.0197219811	0.0128570916	0.0223966185	0.0336915366	0.0195767507	0.0187208131	0.0122779785	0.0170900468	0.0074382452	0.0013166049	-0.0038638357	-0.0028872942	-0.0135053601	-0.0057493034	-0.0103807412	-0.0002560799	-0.0009769766	-0.0001683876	0.0007305413	0.0010255820	-0.0010984568	-0.0001266885	-0.0007930443	-0.0016044521	-0.0005873416	0.0019938599	0.0007887965	0.0003753792	0.0057779993	0.0041847918	-0.0034074364	0.0016658930	-0.0016618689	-0.0007989133	-0.0027930536	-0.0009628863	0.0002795718	0.0022010594	0.0048935707	0.0018158101	0.0040162997	0.0037534444	0.0016354222	0.0022711072	0.0035706945	0.0010986696	0.0011594992	-0.0009066620	-0.0019115038	0.0006929920	0.0016845518	0.0021924584	0.0007478959	0.0002320447	0.0017527412	-0.0015563627	-0.0037728322	-0.0026238924	-0.0017293927	0.0005819970	0.0057844189	-0.0001777192	-0.0021744445	-0.0000732762	-0.0009357720	0.0040448532	0.0046932795	0.0080092326	0.0100800367	0.0085833995	0.0003735379	-0.0035200482	-0.0030428730	-0.0007241856	-0.0005798846	-0.0002543515	0.0038602464	0.0052997391	-0.0034909570	-0.0083858827	-0.0068123857	-0.0078366399	-0.0086761247	-0.0034017547	0.0010621948	0.0063634184	0.0101590706	0.0093216319	0.0071073868	0.0035560457	-0.0002354989	-0.0081498064	-0.0057385578	-0.0039675473	-0.0013793528	0.0011545919	-0.0001727086	0.0003579014	0.0010511910	-0.0005436043	0.0031288073	0.0002777156	-0.0013865978	0.0027642855	0.0046657608	0.0008800562	-0.0004299027	-0.0020204782	-0.0022178690	-0.0073441090	-0.0071350690	-0.0046822350	-0.0012386583	0.0015593556	0.0002723571	-0.0015546104	-0.0020337126	-0.0017853117
0.0001801201	-0.0029474560	0.0008055047	0.0008899283	-0.0019480187	0.0035074377	0.0016700088	-0.0008513413	0.0046947780	-0.0013870344	-0.0001379405	0.0002621871	-0.0034800326	0.0012021200	-0.0041791955	-0.0013233623	-0.0050976677	-0.0039191796	-0.0027936648	-0.0000293127	0.0000230465	0.0007012228	0.0032313983	-0.0011507864	0.0012694690	-0.0021996028	0.0028198045	0.0028263016	-0.0008219783	0.0046057045	0.0001025854	0.0029370030	-0.0017149968	0.0007727187	0.0015814740	0.0023512389	0.0014907079	-0.0007705652	-0.0001665455	-0.0010204526	0.0018545501	-0.0014290358	-0.0099685108	-0.0025874320	-0.0034290045	0.0049580606	-0.0023947807	-0.0229613055	-0.0124588609	-0.0376720093	-0.0366914347	-0.0220668260	-0.0110732373	-0.0028408302	-0.0362983756	-0.0239559934	0.0243971515	0.0040939609	0.0039962991	0.0153272180	0.0574908741	0.0588691756	0.0206663646	0.0134556927	-0.0226691645	0.0099392645	-0.0103324242	-0.0124048796	0.0085213538	-0.0347546861	0.0321155041	0.0170122795	-0.0115849618	0.0016790805	0.0267064031	0.0102345916	-0.0006994992	-0.0143464971	-0.0293927453	-0.0055936356	0.0009001154	0.0051214253	0.0156208873	-0.0200345311	-0.0030675861	0.0252375193	-0.0156719182	-0.0411067791	-0.0220755748	-0.0045051598	-0.0059992997	0.0137566170	0.0177085921	0.0215716437	0.0286380909	0.0032895121	0.0192515180	0.0033444860	-0.0057331519	-0.0189792924	-0.0182501636	-0.0259205978	-0.0283053964	-0.0080307014	0.0054639010	0.0021233039	-0.0130560528	-0.0093561355	0.0060863234	0.0280095804	0.0194528364	0.0154637173	0.0109237256	0.0084278332	0.0051807594	0.0014442902	-0.0030408164	-0.0024165572	-0.0042773355	-0.0055213892	-0.0110380491	0.0009769908	0.0003627629	0.0001106041	0.0003607319	0.0006871843	-0.0001113821	-0.0019055945	0.0002973294	0.0022311574	0.0020528911	0.0032998151	0.0017600367	0.0047938619	0.0023115929	0.0099995742	-0.0002776735	0.0007373147	0.0005799107	0.0015908675	0.0007117247	-0.0004873812	0.0017851919	0.0003972325	0.0045751729	0.0030630298	0.0008843819	0.0047558951	0.0019703198	0.0026191771	0.0029529813	0.0010043940	0.0009582022	-0.0028975571	-0.0029538926	-0.0017250162	-0.0008590397	0.0019345867	0.0043286472	0.0068971682	0.0064619472	0.0015713377	-0.0005562489	-0.0007615112	0.0002351641	0.0024371552	0.0046608080	0.0014459881	-0.0006592361	-0.0041425200	0.0009235251	0.0001654946	0.0036763183	0.0057830662	-0.0000982501	0.0052069132	0.0036249883	0.0066920328	0.0057731657	0.0051755062	0.0016447967	0.0002143174	-0.0021801814	-0.0017484549	-0.0067211892	-0.0076113306	-0.0022698008	0.0010333655	-0.0002855838	0.0005817936	0.0012552711	0.0056978692	0.0125973932	0.0123773180	0.0079092318	0.0024104703	-0.0007138243	-0.0073847841	-0.0067681009	-0.0039576935	-0.0022869180	0.0006617337	0.0008450433	-0.0014287203	0.0018180602	0.0021120075	-0.0018804695	0.0030146579	-0.0026972536	-0.0018482690	0.0065203011	0.0034190458	0.0005290277	0.0001390118	-0.0065583885	-0.0028380654	-0.0047978656	-0.0024838320	-0.0018906572	-0.0007467925	-0.0001896590	-0.0021175561	-0.0015164064	-0.0012958363
-0.0018517043	-0.0069066579	-0.0006756219	-0.0005311248	-0.0027772961	0.0039066868	-0.0012314650	0.0000270761	0.0053746528	-0.0034173972	0.0021254630	-0.0016692433	-0.0019934669	0.0024630364	-0.0020434121	0.0003290297	-0.0006040337	-0.0000880680	0.0008349810	0.0035061254	0.0035594874	0.0051210211	0.0039930241	0.0013210708	0.0036756492	-0.0031192196	0.0030633225	0.0007131264	-0.0018608770	0.0008554440	-0.0012795841	0.0003506233	0.0010282486	0.0051831556	0.0060052327	0.0068273656	0.0059215399	0.0039429273	0.0023301558	0.0027584960	0.0094029093	0.0072156279	0.0047485381	0.0060036592	0.0158416387	0.0209405199	0.0004114732	-0.0109056113	-0.0105346460	-0.0431298241	-0.0446846895	-0.0394794904	-0.0289660506	-0.0016774181	-0.0449330360	-0.0277690664	0.0472813770	0.0440665185	0.0449156202	0.0418172590	0.0542253852	0.0434624068	0.0382962674	0.0073525780	-0.0683844239	-0.0067027630	-0.0570688024	-0.0322918259	0.0361882709	-0.0357718430	0.0176031888	-0.0173133239	-0.0234048720	0.0283495709	0.0281234812	-0.0180090144	-0.0282869264	-0.0301260557	-0.0188550986	-0.0029338689	-0.0127646159	-0.0018909834	0.0164959189	0.0031185509	0.0158241149	0.0231424831	-0.0078288568	-0.0091146631	0.0046526790	-0.0087694023	-0.0212018955	-0.0138292415	-0.0050011040	-0.0031410195	-0.0037860530	-0.0083303843	0.0183109529	-0.0253251642	-0.0128213894	-0.0183049571	-0.0221701395	-0.0173601490	-0.0164300315	-0.0019044178	-0.0067515317	-0.0137838786	0.0026874649	0.0049458635	0.0096546970	0.0313365385	0.0229376312	0.0083138961	-0.0015327893	0.0115541657	0.0094176317	0.0108288545	0.0128698833	0.0084391087	0.0023570000	0.0027133073	-0.0056847809	0.0014697294	0.0021169179	0.0021947466	0.0029270630	0.0036069946	0.0015595264	0.0033058447	0.0012491476	0.0039182189	0.0011673600	0.0041466150	-0.0031077890	0.0023755229	0.0010662896	0.0048983437	0.0008650372	0.0025513684	-0.0019803573	0.0023473592	0.0006911008	0.0028628404	-0.0013439370	0.0002099936	0.0002897113	-0.0023361482	-0.0039453907	-0.0008321544	-0.0000524671	0.0002649933	-0.0001416456	-0.0001678689	0.0009873151	-0.0024909843	-0.0013592370	-0.0002956637	-0.0018136126	0.0003378139	-0.0003734476	0.0018481408	0.0068939491	0.0068044290	0.0033687321	-0.0023407305	-0.0002051530	0.0032779842	0.0051150527	0.0028685969	0.0062640435	0.0026190525	0.0146894883	0.0102205966	0.0060086646	0.0067672636	0.0034356383	0.0075360634	0.0060941717	0.0068089478	0.0083647799	0.0096186614	0.0061374130	0.0036586020	-0.0033904710	-0.0003007228	0.0021232564	-0.0026817024	-0.0039585205	0.0001206968	0.0017407004	0.0030092571	0.0056560314	0.0076885661	0.0095220329	0.0073752538	0.0039928639	0.0018229121	0.0002096953	0.0013300022	0.0016492963	0.0002521891	-0.0034945919	-0.0021709856	-0.0023423857	-0.0002003940	-0.0027492214	0.0003519285	-0.0013216882	-0.0003730056	-0.0009689825	-0.0041389405	0.0003125790	0.0068405671	0.0002239462	0.0023118565	0.0012624189	-0.0000459666	-0.0010685353	0.0018414957	0.0023300070	0.0023803720	0.0012617293	0.0007884664	0.0014669334	0.0011560511
-0.0023898298	-0.0059782793	-0.0015017226	-0.0015644844	-0.0023793022	0.0028971818	-0.0003292754	-0.0003510672	0.0057897102	-0.0026810407	0.0004040872	-0.0016903477	-0.0008736898	0.0009563559	-0.0013520123	0.0010379179	-0.0006483628	0.0006077087	0.0002034895	0.0015002603	0.0006764942	0.0021605422	0.0038302781	0.0013573754	0.0010230418	-0.0012789355	0.0017328265	0.0007517908	-0.0012888766	-0.0008697509	-0.0030439065	0.0002723091	-0.0005489959	0.0028445357	0.0032171463	0.0035985401	0.0032980947	0.0009115380	-0.0001022990	0.0019140745	0.0080243163	0.0098964013	0.0050869565	0.0086077675	0.0158060733	0.0199127793	-0.0019122250	0.0048005879	0.0134840589	-0.0150728691	-0.0227568559	-0.0149117112	-0.0193521697	0.0003500832	-0.0133694513	0.0119206179	0.0629274175	0.0313638225	0.0428199470	0.0512067005	0.0311887711	0.0036768951	0.0307524092	0.0117650479	-0.0654975027	0.0021117032	-0.0587998182	-0.0363677591	0.0506337211	-0.0248132031	-0.0138122402	-0.0130550405	0.0183403119	0.0450318381	0.0177011136	-0.0336952619	-0.0326117091	-0.0139766075	-0.0167183001	-0.0197305866	-0.0175492968	-0.0032594088	0.0106562423	0.0178247988	-0.0027563509	-0.0042698309	0.0022877017	0.0019119486	0.0062421234	-0.0051074098	-0.0126269022	-0.0220166836	0.0075777350	0.0172187388	0.0105869928	-0.0007779689	0.0169103630	-0.0127109149	-0.0044877371	-0.0156461056	-0.0190122835	0.0057968348	0.0050512124	-0.0056822700	-0.0168179255	-0.0430475175	-0.0043453327	0.0163769238	-0.0063722171	0.0165434722	0.0147172930	0.0028415197	0.0004828090	0.0048435451	0.0102849146	0.0167905707	0.0205417071	0.0113748992	0.0069981995	0.0074765561	-0.0031341887	0.0024170410	0.0024959538	0.0019662969	0.0028018064	0.0035523775	0.0023746914	0.0029595797	0.0019294615	0.0021317874	0.0034128111	0.0031384849	-0.0001980330	-0.0000631998	-0.0006481168	-0.0000404908	-0.0013255492	0.0003951062	-0.0003136665	0.0014707465	0.0006053620	0.0010384368	-0.0006403986	0.0001032593	-0.0029252963	-0.0033458122	-0.0065552304	-0.0064829700	-0.0064199502	-0.0036951816	-0.0021584609	-0.0023989934	-0.0001737736	-0.0026017879	-0.0022464097	-0.0016846629	-0.0011783987	-0.0008572598	-0.0025435078	-0.0010893319	0.0010222537	0.0032633347	0.0020819637	0.0032473314	0.0025851198	0.0017389769	0.0061603198	-0.0009068155	0.0045854785	0.0040192427	0.0088133942	0.0042843036	0.0009925544	0.0014373420	-0.0002414861	-0.0005728453	-0.0044694589	-0.0035914353	-0.0014126119	0.0010548021	0.0027442086	0.0055792774	-0.0030530335	-0.0006636443	0.0036261755	0.0005228919	-0.0020098221	0.0005977559	0.0035649864	0.0048734657	0.0041281544	0.0050980886	0.0083377361	0.0044925851	-0.0006873229	-0.0015402449	-0.0014354883	-0.0012966641	-0.0005838522	-0.0012914877	-0.0058271405	-0.0030173974	-0.0037948049	-0.0036987350	-0.0018900022	-0.0020302068	-0.0015648180	-0.0012396841	-0.0008777202	-0.0013463889	-0.0013010926	-0.0027277197	-0.0003864189	0.0015681116	0.0034557558	-0.0017731150	-0.0052654194	-0.0001809906	0.0070378724	0.0068128915	0.0032050731	0.0022087968	0.0018067445	0.0013467022
-0.0053897575	-0.0066707660	-0.0019147496	-0.0030998983	-0.0042576492	0.0027137708	-0.0016465161	-0.0027163860	0.0017937350	-0.0013430489	-0.0014630285	-0.0036109006	-0.0004660568	0.0022786083	0.0025688135	0.0026946208	0.0027249625	0.0014089704	0.0003934081	0.0005914320	-0.0028177139	-0.0017818090	0.0070550903	0.0013126871	0.0071759308	0.0051970570	0.0024253812	0.0032624551	0.0015509313	0.0016142013	0.0026336988	0.0091092130	0.0040157209	0.0072068954	0.0063057067	0.0072971387	0.0058387425	0.0039464142	0.0032392116	0.0004314295	0.0079499129	0.0063662678	-0.0066161258	0.0013998286	0.0128882863	0.0163654704	0.0042286329	0.0146595873	0.0228071455	0.0043681990	-0.0009377059	0.0115284473	-0.0282802694	-0.0251375847	-0.0115908664	-0.0032956004	0.0314158648	-0.0178527534	-0.0095775845	0.0348400362	0.0119895376	-0.0128284674	0.0108264498	-0.0284803100	-0.0888492540	0.0191419404	-0.0281221345	-0.0411060750	0.0505220406	0.0199980270	0.0300019868	0.0120382421	0.0193618238	0.0236965511	-0.0100113582	-0.0308450665	-0.0169827491	-0.0156667549	-0.0186640006	-0.0159033071	-0.0253544245	-0.0083765145	-0.0070614507	0.0009612187	-0.0256316178	-0.0276534688	-0.0255982615	-0.0268539134	-0.0126420725	-0.0072613265	-0.0218225829	-0.0356049351	0.0024561584	0.0116665028	0.0080082193	0.0144798197	0.0428127125	0.0224312656	0.0208352618	0.0124023631	-0.0032260702	-0.0057032015	-0.0123224044	-0.0082436521	0.0073092636	-0.0119118690	0.0074776225	0.0228124261	0.0010350889	-0.0078046573	-0.0048501613	-0.0003280654	-0.0002167341	-0.0029467787	0.0090943826	0.0114917392	0.0117811225	0.0140669281	0.0185556971	0.0112916864	-0.0006550917	0.0041640471	0.0032622949	0.0012660268	0.0042220000	0.0037160143	0.0015352593	0.0018068306	0.0021483568	0.0018539957	0.0029592067	0.0034453194	0.0003077554	-0.0000959550	-0.0017763758	-0.0011272647	-0.0014106361	-0.0005584473	-0.0009383741	0.0020171818	0.0005275483	-0.0002665470	-0.0021791237	-0.0015248858	-0.0015161479	0.0004723436	-0.0023415047	-0.0041103321	-0.0068619591	-0.0057634078	-0.0004053577	0.0009749465	0.0020021659	0.0013886214	0.0000741158	-0.0015692550	-0.0007479566	-0.0004851974	-0.0033629173	-0.0015710124	-0.0004647371	0.0008244501	0.0006519970	0.0023157799	0.0037255653	-0.0003335833	0.0069733532	0.0029304863	-0.0004496431	0.0042023435	0.0087185837	0.0012478990	0.0027590322	0.0016404829	0.0023283248	0.0056053549	0.0074927961	0.0100679733	0.0098564122	0.0113395723	0.0123821041	0.0133984061	0.0054294006	-0.0027829872	0.0008642438	0.0005990647	-0.0001551209	0.0013222093	-0.0023134546	0.0011266168	0.0012622471	0.0012453469	0.0086805644	0.0081077768	0.0050940211	0.0021422568	-0.0002566531	-0.0016001486	-0.0027879043	-0.0014254374	-0.0057568783	-0.0037054019	-0.0064488617	-0.0061750947	-0.0024915838	-0.0010669169	0.0034790311	0.0024844925	0.0031694639	0.0015905122	-0.0003672339	-0.0009684117	0.0012823846	0.0018339105	0.0046742093	0.0012935528	-0.0022701407	0.0017480274	0.0107062561	0.0090041095	0.0036959634	0.0016337319	0.0020218666	0.0009532287
-0.0031414134	-0.0072079534	-0.0021590856	-0.0017920792	-0.0025857105	0.0024511204	-0.0011950168	-0.0054878532	0.0052216006	0.0000273062	-0.0011596298	-0.0010414423	0.0024490426	0.0003495287	0.0033525070	-0.0012099009	0.0002763629	0.0006022234	-0.0020705732	-0.0013812921	-0.0042654760	-0.0029857494	0.0002066529	-0.0033905851	0.0013716016	-0.0036710915	-0.0014219515	-0.0044683595	-0.0060149254	-0.0004250676	-0.0021608318	0.0028258751	0.0007200347	0.0042472221	0.0022705058	0.0041001099	0.0030081500	0.0028119534	0.0048065069	-0.0001441785	0.0067526973	0.0045896354	-0.0064163068	-0.0057746423	0.0063195005	0.0149965342	0.0019859965	0.0176559594	0.0282511078	0.0052918065	0.0076933606	0.0194249041	-0.0274322908	-0.0287045203	-0.0193965416	-0.0212019850	0.0394702181	0.0041939183	0.0225262251	0.0467229597	-0.0360116065	-0.0707046315	-0.0055900635	-0.0423479937	-0.0890247524	0.0130995670	-0.0048341197	-0.0072651263	0.0519929528	0.0440346673	0.0682808235	0.0106050083	0.0113639049	0.0195249021	0.0030309549	0.0077305208	0.0262376238	-0.0012565323	-0.0362647139	-0.0271666069	-0.0239558015	-0.0216499753	-0.0198534187	-0.0120670144	-0.0279018003	-0.0253528133	-0.0258615874	-0.0392977148	-0.0414600223	-0.0156525895	0.0045014932	-0.0169621129	-0.0010391639	-0.0081119537	-0.0206720680	-0.0312508866	-0.0229377672	-0.0484059826	-0.0217771772	0.0008984037	-0.0033022859	-0.0092173424	0.0164900348	0.0175756570	0.0200811010	0.0030426290	-0.0075287675	-0.0104444735	-0.0094712880	-0.0220156163	0.0035494077	0.0193927195	0.0163059160	-0.0106022675	-0.0088074673	0.0025142746	0.0088848136	0.0192572903	0.0236942545	0.0124985613	0.0027325235	0.0033528684	0.0060855211	0.0035599219	0.0028722333	0.0040899729	0.0029626121	0.0030701349	0.0028791397	0.0020687680	0.0026286324	0.0025661017	-0.0003540326	-0.0006302989	-0.0029710003	-0.0019431638	-0.0022156357	-0.0008846200	-0.0013214027	0.0010735949	-0.0005742601	0.0003391896	-0.0001971614	-0.0013073683	-0.0017282385	0.0007413643	-0.0033920412	-0.0041464306	-0.0034231308	-0.0027001668	-0.0012734490	0.0000231692	-0.0000185061	-0.0034002429	-0.0061227605	-0.0063303337	-0.0043339613	-0.0031899144	-0.0041819555	-0.0025368338	-0.0008819732	0.0010566865	0.0029173861	-0.0016411556	0.0020728116	0.0033360482	0.0025141120	0.0022616570	-0.0002847729	0.0033751440	0.0093709929	0.0038774675	0.0024949024	-0.0006039471	0.0049524452	0.0007123136	-0.0009328788	-0.0012354269	-0.0020856464	-0.0071775387	-0.0065210247	0.0032367504	0.0091247372	-0.0014879795	0.0014059804	0.0044057681	-0.0069296206	-0.0037292335	0.0006006639	-0.0003569696	0.0001560151	-0.0008446380	0.0067763934	0.0086119315	0.0067381128	0.0032733567	0.0019352447	0.0013346407	-0.0000857869	-0.0009839366	-0.0120940544	-0.0093631791	-0.0074840365	-0.0047744904	-0.0019383810	-0.0011345656	0.0013376478	0.0007956338	0.0004104332	-0.0012377165	-0.0021031250	-0.0035660160	-0.0028029555	-0.0009695077	0.0028900062	0.0054212469	0.0006728966	0.0017352931	0.0082564587	0.0042654276	0.0008080669	-0.0004083994	0.0007179250	0.0005113223
-0.0031494079	-0.0049345936	-0.0013787182	-0.0006962350	-0.0013687718	0.0030071365	0.0070357383	-0.0004554921	0.0129443975	0.0112947375	0.0085780825	0.0087200357	0.0119297151	0.0071134591	0.0128821945	0.0077042142	0.0056450535	0.0008361214	-0.0036877727	-0.0029643762	-0.0057617398	-0.0032585876	0.0036928446	-0.0038007025	0.0057678330	-0.0039308649	0.0020334024	-0.0014420173	-0.0002940028	0.0051083625	0.0065058125	0.0098081231	0.0071688849	0.0054113464	0.0017973683	0.0031721964	0.0026103186	0.0051833941	0.0051438720	0.0021012316	0.0104139540	0.0021821135	-0.0065996344	-0.0088556372	-0.0064504622	0.0036695395	-0.0109266490	0.0097327391	0.0124127707	-0.0129014971	0.0195454396	0.0352870822	0.0007308935	0.0098065697	0.0301195495	0.0440361723	0.0959905460	0.0369653068	0.0471479632	0.0463772491	-0.0392924361	-0.0570970736	0.0175689422	-0.0247218702	-0.0695191696	0.0143740820	0.0278097223	0.0399507470	0.0385137685	0.0122576095	0.0545168854	0.0213212483	0.0361206606	0.0166273620	-0.0144060235	-0.0131777497	0.0221775714	0.0099954950	-0.0305843204	-0.0471320003	-0.0618577749	-0.0364904031	-0.0315055363	-0.0173540842	-0.0293014329	-0.0309365969	-0.0365727283	-0.0365460962	-0.0329579525	-0.0082874177	0.0050431243	-0.0091458028	0.0038777781	-0.0178549644	-0.0135880588	-0.0037993293	0.0279811043	-0.0004573332	-0.0051295059	-0.0043572206	-0.0092758136	-0.0147576854	0.0216100756	0.0041687256	0.0007361232	-0.0007891598	-0.0120500932	-0.0190068241	0.0133440290	-0.0047410028	-0.0087162908	-0.0037935840	-0.0087608090	-0.0234862715	-0.0167778041	-0.0083215768	-0.0004039292	0.0131440740	0.0128131844	0.0067384755	0.0027762593	-0.0016891917	0.0010164430	0.0034335982	0.0025891024	0.0021121828	0.0004716620	0.0015260053	0.0003778153	0.0015417209	0.0016498570	0.0017553819	-0.0009280015	-0.0008642619	-0.0028955413	-0.0017742729	-0.0015923262	-0.0002447928	-0.0012551636	0.0007290652	-0.0001709495	0.0006931428	-0.0013961227	-0.0029785563	-0.0031223758	0.0005168633	-0.0051830411	-0.0015045172	0.0004882955	-0.0002440069	0.0025850849	-0.0009416895	-0.0039698742	-0.0072961790	-0.0084205680	-0.0074400632	-0.0047836243	-0.0031045806	-0.0015572801	0.0004170399	0.0002683981	-0.0015152952	-0.0022526300	0.0002579293	0.0010000152	0.0043922970	-0.0001643061	-0.0037318200	-0.0001849530	-0.0014897012	-0.0021249212	-0.0009284746	0.0016625595	0.0010029814	0.0044481745	-0.0000590985	0.0019874505	0.0072317282	0.0063649574	-0.0012986029	-0.0091108698	-0.0087106656	-0.0023505650	-0.0051186541	-0.0058695823	0.0083820354	0.0052443561	-0.0070888698	-0.0054541272	-0.0024356388	-0.0029073614	-0.0023645444	0.0028039862	0.0032444852	0.0023522787	0.0023784032	0.0047711190	0.0033578076	0.0021807882	0.0005869085	-0.0073566930	-0.0067212535	-0.0063671609	-0.0040998124	-0.0022567408	-0.0006885363	0.0022019385	0.0009847037	0.0000273927	-0.0048827161	-0.0027213474	-0.0037454872	-0.0039038833	-0.0013472020	0.0035685885	0.0061380877	-0.0028325475	-0.0044767489	0.0057447790	0.0030163559	-0.0009858184	-0.0019051939	-0.0004108721	0.0001140195
-0.0040907250	-0.0046045622	0.0015879541	-0.0005400657	-0.0013095897	0.0046395697	0.0032736019	0.0042424044	0.0136631764	0.0107388431	0.0133955088	0.0073886765	0.0103198476	0.0086645354	0.0064783893	0.0031601049	0.0032584057	-0.0007555532	-0.0043739323	-0.0030098585	-0.0046833386	-0.0016867452	0.0000427106	-0.0039470326	0.0004372096	-0.0073587825	0.0001261609	-0.0037901173	0.0009142705	0.0044785328	0.0020261165	0.0087033771	0.0023518400	0.0017004760	-0.0025447365	-0.0025118184	-0.0034171818	0.0007360227	0.0056231814	0.0045963177	0.0108173592	0.0024908194	-0.0084255161	-0.0132025136	-0.0087110754	-0.0028918034	-0.0162527375	-0.0013176785	-0.0071523059	-0.0285940450	-0.0032870669	0.0092523536	0.0122081293	0.0485156178	0.0545697846	0.0311369225	0.0390228778	0.0058860313	0.0266831554	0.0163464490	-0.0390792340	-0.0268858243	0.0319998264	-0.0119352005	-0.0685176626	-0.0046037845	0.0371727273	0.0541558266	0.0324758291	-0.0131327910	0.0192724429	0.0216146335	0.0196327418	0.0058263149	-0.0105205234	-0.0257009137	-0.0155370450	0.0044167503	-0.0037352117	-0.0209167898	-0.0716573671	-0.0328849778	-0.0215982776	-0.0085994313	-0.0156069370	-0.0099866632	-0.0150171798	-0.0155620202	-0.0101344623	-0.0010877913	-0.0184026901	-0.0264237374	-0.0043986249	-0.0126422346	-0.0194431115	0.0223232489	0.0461528637	0.0129656428	0.0096917311	0.0177132525	0.0113424119	0.0001345283	0.0022115861	-0.0101527069	0.0113269053	0.0279316977	0.0210616793	0.0007118941	0.0181364566	0.0075408700	-0.0183961876	-0.0175008383	-0.0030168458	-0.0080833370	-0.0063910373	-0.0151351718	-0.0140851941	0.0042594601	0.0052287853	0.0090808440	0.0060580997	-0.0014614128	-0.0028801206	0.0001012459	0.0032001261	0.0013130531	0.0003091459	0.0019331159	0.0014601091	0.0014319499	0.0017029132	0.0019350557	-0.0004565290	0.0002959985	-0.0010316700	0.0000843352	0.0012499928	0.0011059190	-0.0006377940	0.0015429459	0.0004760952	-0.0003492289	-0.0040173274	-0.0026381167	0.0010421427	0.0043587782	-0.0002658409	0.0032044617	0.0022061220	0.0012456827	0.0015027667	-0.0033739256	-0.0075815720	-0.0074687479	-0.0060239038	-0.0061696265	-0.0025175088	-0.0003269368	-0.0004291239	0.0010379455	0.0015868620	0.0002517226	-0.0006281689	-0.0010791187	0.0022318005	0.0025308868	-0.0023969461	0.0003357284	0.0003052599	-0.0035283337	-0.0047874367	-0.0062885382	-0.0036457828	-0.0048997635	-0.0052735978	-0.0037105104	0.0018846653	0.0064278385	0.0047490448	0.0029468213	-0.0010676279	-0.0049746754	-0.0011357444	-0.0086042574	-0.0164644718	-0.0028208001	0.0129317939	0.0040798555	-0.0107930237	-0.0059445156	-0.0046453499	-0.0050526899	0.0011230416	-0.0002825258	-0.0005334594	-0.0002347516	0.0028640383	0.0015872347	0.0011409270	-0.0003183904	-0.0040734969	-0.0013135998	-0.0024069943	-0.0030362986	-0.0010844559	0.0009127512	0.0020704442	-0.0005994530	-0.0027248901	-0.0063042394	-0.0037051199	-0.0024507488	-0.0018662666	-0.0017807608	0.0011651389	0.0037087090	-0.0035942921	-0.0057157883	0.0052583758	0.0021466645	-0.0020745303	-0.0005176655	0.0012256702	0.0012601399
0.0031833937	-0.0021684163	-0.0001824251	0.0018667936	-0.0004462207	0.0051489556	0.0058244644	0.0089552682	0.0177689195	0.0125164222	0.0135748116	0.0089704171	0.0076505649	0.0083362730	0.0056140414	-0.0010077081	-0.0006574947	-0.0041763806	-0.0042712060	-0.0018933730	-0.0040615974	0.0002578879	0.0014014505	-0.0016797469	-0.0002844280	-0.0039643561	0.0011100732	0.0007740038	0.0018229942	0.0059229275	0.0050477367	0.0080072675	0.0032804455	0.0022886691	-0.0014364977	-0.0013290769	-0.0034618000	-0.0027934117	0.0011756390	0.0040035918	0.0070813722	0.0000681365	-0.0091673499	0.0010604998	-0.0004219712	0.0015092503	-0.0125682214	-0.0070749144	0.0026665195	0.0101656634	-0.0046322402	0.0036153775	0.0293124709	0.0418526307	0.0092746513	0.0211223569	0.0472628698	0.0409214720	0.0742845163	0.0241182446	-0.0527584217	-0.0276309773	0.0457762964	0.0273700152	-0.0312093794	0.0077308603	0.0605173856	0.0710914284	0.0675273687	0.0086109024	-0.0025835875	-0.0038704099	-0.0132501796	-0.0057759969	0.0185352806	-0.0099706594	-0.0276148040	-0.0155321397	-0.0088185566	-0.0149567537	-0.0609917715	-0.0247581545	-0.0168543328	-0.0097735589	-0.0332810879	-0.0430982076	-0.0396630876	-0.0233844165	-0.0193409882	-0.0132776834	-0.0352156647	-0.0254199058	-0.0113315759	-0.0066238819	0.0031524668	0.0097370818	-0.0128471758	-0.0439813398	-0.0103027904	0.0100479927	-0.0022068657	-0.0006513521	-0.0065492913	-0.0235875007	0.0097191855	0.0101475902	0.0124367289	0.0001940166	0.0007746617	0.0013200912	-0.0136933289	-0.0155711425	-0.0092239697	-0.0111289928	-0.0245130844	-0.0272362642	-0.0099160001	0.0041849301	-0.0024363636	-0.0024065552	-0.0013130971	-0.0003843921	-0.0070016887	-0.0009107175	0.0032142929	0.0032900318	0.0014668761	0.0017649102	0.0053701461	0.0034296522	0.0001398409	0.0043001953	0.0006993829	0.0008826210	0.0007113162	0.0054568546	0.0033059295	0.0031190966	0.0019902121	0.0028789779	-0.0008798171	-0.0032287184	-0.0067312084	-0.0025613646	0.0055032563	0.0059920591	0.0009075541	0.0027670464	-0.0011684326	-0.0018527756	-0.0048495391	-0.0060016466	-0.0092940386	-0.0065167607	-0.0019860496	0.0011110443	0.0031790666	0.0039329319	0.0030994006	0.0035235505	0.0038663088	-0.0011978500	-0.0039166100	-0.0032765551	0.0040019033	0.0031613566	-0.0050047422	-0.0006609570	0.0006805698	-0.0030172593	0.0001746992	-0.0017532590	-0.0091876592	-0.0109175751	-0.0082324706	-0.0058546839	-0.0056436835	-0.0042985566	-0.0010591131	0.0035137078	0.0000509223	-0.0018587157	0.0030923220	-0.0031265863	-0.0141538344	-0.0141886203	-0.0010532738	0.0082181664	-0.0034419126	-0.0045195632	-0.0019488016	-0.0000479216	0.0006051293	0.0012792698	0.0034499643	0.0037290533	0.0051037064	0.0045115249	0.0055507347	0.0044096797	-0.0050659119	-0.0024425369	0.0003510482	0.0012394944	0.0000701607	0.0011199751	0.0018970256	-0.0012371554	-0.0023049524	-0.0045539644	-0.0011361174	-0.0016796569	0.0022783841	0.0011587077	-0.0006652164	0.0017995929	-0.0036247571	-0.0023231835	0.0060511474	0.0052636368	0.0003087422	0.0016462234	0.0034873097	0.0017555440
0.0012251323	-0.0018954099	-0.0001076364	0.0012507227	-0.0020671324	0.0067295544	0.0035941373	0.0039574965	0.0132715069	0.0127696171	0.0073025087	0.0097219385	0.0058238856	0.0058412533	0.0076306714	0.0016955452	0.0044294600	0.0016661159	0.0009372781	0.0033703905	-0.0000994098	0.0032872730	0.0036747793	-0.0039585838	0.0024665957	-0.0007490313	-0.0014885130	0.0051272372	0.0044029104	0.0037971123	0.0065327417	0.0036678219	0.0023656730	-0.0001488341	-0.0001515005	-0.0014886978	-0.0025795253	-0.0016596820	-0.0055324347	-0.0088707311	-0.0056863492	-0.0034855637	-0.0005295250	0.0045794132	-0.0060348576	-0.0081684142	-0.0106387474	-0.0031859013	0.0062874313	0.0220113751	0.0430804752	0.0229077451	0.0038404842	-0.0069433595	0.0259613693	0.0535743535	0.0700793117	0.0658078119	0.0609894805	0.0253575500	-0.0081205219	-0.0078775026	0.0371908359	0.0222546961	-0.0338759460	-0.0085193142	0.0255956948	0.0140089132	0.0419123732	0.0007535089	-0.0021376670	-0.0168148652	-0.0307341311	0.0015622666	0.0298617799	-0.0019186428	-0.0079258392	-0.0055682692	0.0012889933	0.0055692154	-0.0082211383	0.0009171341	-0.0013090032	0.0061774570	-0.0048993411	-0.0269359276	-0.0290911384	0.0045200428	0.0210746191	0.0166031979	-0.0033856761	0.0068149450	-0.0000418333	-0.0091209356	0.0133472160	0.0207008515	0.0292306468	0.0292405523	0.0358305834	0.0314977728	0.0001741304	-0.0066191764	0.0081107700	-0.0059941290	0.0088927820	0.0174835958	0.0101080295	0.0092657059	-0.0071752034	-0.0049900580	-0.0222018789	-0.0245704800	-0.0281208996	-0.0071729189	-0.0094815660	0.0058730654	0.0199273378	0.0069191745	-0.0065836338	-0.0019846866	0.0004574332	0.0002726052	0.0040658778	-0.0037897888	-0.0065738885	0.0074814279	0.0041857478	0.0042061186	-0.0008703380	-0.0017117048	0.0039255568	0.0022768404	-0.0028693178	0.0041916873	-0.0025268071	0.0044804192	0.0039299722	0.0030486775	0.0024832473	0.0021385869	-0.0020766188	-0.0034224591	-0.0023679398	0.0018207890	0.0045429519	0.0004993128	-0.0001475544	-0.0005952587	-0.0032701399	0.0009419036	-0.0019964024	-0.0031630362	-0.0063138688	-0.0028166957	0.0022416962	0.0069914986	0.0055354168	0.0058786655	0.0046312427	0.0043320418	0.0027155350	-0.0002354831	0.0015524275	0.0025148857	0.0051065315	0.0037408671	0.0063060070	0.0023911588	-0.0045134583	-0.0012244114	-0.0099690752	-0.0073088966	-0.0106861927	-0.0081472304	-0.0092181750	-0.0150353434	-0.0161978323	-0.0071744462	-0.0068540946	-0.0033273133	-0.0048330184	-0.0002019840	0.0019764577	0.0030266799	-0.0041825017	-0.0141432276	-0.0046587773	0.0039999671	0.0032499181	0.0014238684	-0.0014381685	0.0003446734	0.0015673523	0.0051806257	0.0073360740	0.0089471489	0.0073890416	0.0037406781	0.0051847966	0.0029232120	-0.0027492845	-0.0005372521	-0.0006269921	0.0010629334	-0.0010118065	0.0004133737	-0.0012942042	-0.0028287035	-0.0027054446	-0.0035303324	-0.0008358776	-0.0011735916	0.0021241766	0.0003865795	0.0051035187	0.0042259567	-0.0008392864	-0.0009394310	0.0041069146	0.0061636781	0.0012852257	0.0025627923	0.0046350965	0.0022518127
0.0040615620	-0.0002846019	0.0040775202	0.0014325152	0.0019127593	0.0096836891	0.0023045104	0.0095610730	0.0083116982	0.0075622099	0.0036621101	0.0023803641	0.0056186295	0.0049531753	0.0018098704	0.0000248140	0.0038049161	0.0040441481	0.0025367369	0.0030656781	-0.0009337780	0.0004178142	-0.0007207829	-0.0081158997	-0.0018472329	-0.0011325572	-0.0004154553	0.0015554889	0.0065774652	0.0019136318	0.0032300372	0.0028180142	-0.0019641817	-0.0030732048	-0.0019148402	-0.0028047101	-0.0027897318	0.0002254327	-0.0014949905	-0.0100224614	-0.0062184976	-0.0081207138	-0.0115810260	-0.0075445022	-0.0126985647	-0.0068532531	-0.0193237029	-0.0191681758	-0.0260963421	-0.0006884648	0.0225194544	0.0053422297	0.0089319032	0.0094191078	0.0392706767	0.0493562631	0.0082042050	0.0173794460	0.0333641581	0.0150571009	0.0177307650	-0.0034060804	0.0304449815	0.0135529935	-0.0206799358	0.0018066620	0.0122083202	-0.0028664619	0.0056924080	-0.0208733976	-0.0329769067	-0.0359363593	-0.0369881503	-0.0041931155	0.0270470213	0.0007859024	0.0082683433	0.0132370368	-0.0071859490	-0.0089184549	-0.0119792940	0.0037021746	-0.0161531325	-0.0161196031	-0.0192363504	-0.0368384793	-0.0352784730	-0.0082966080	-0.0032259142	0.0102698449	-0.0021318817	0.0027416777	-0.0176516529	-0.0129768169	0.0015264757	0.0078072217	0.0067082751	0.0120431716	0.0195072498	0.0154974684	0.0148910452	0.0094382288	0.0057195434	0.0012632036	0.0161932614	0.0177294090	0.0305236951	0.0270695053	0.0112425499	-0.0235466491	-0.0488003939	-0.0465428643	-0.0436737128	-0.0053071454	-0.0043855938	-0.0040715802	-0.0011905560	-0.0045733713	-0.0019850889	-0.0009618636	-0.0054828920	-0.0049405326	0.0075806798	-0.0008943545	-0.0073038880	0.0003089029	-0.0034320466	0.0074303271	0.0040910253	-0.0101623116	0.0005327280	-0.0023682737	-0.0056597758	0.0022099861	-0.0043330812	0.0007867262	0.0030735764	0.0024288399	0.0021655622	0.0020998917	-0.0012692859	0.0009674570	0.0031247458	0.0030932440	-0.0016012422	-0.0069050132	-0.0031704835	-0.0006627461	-0.0017526055	0.0039114123	-0.0041163750	-0.0063151852	-0.0087694451	-0.0015502346	0.0048599062	0.0052380795	0.0024749541	0.0035544592	0.0006125856	-0.0028543333	-0.0021971485	0.0041892147	0.0091101518	0.0015825381	-0.0071516465	-0.0127667766	0.0023185182	0.0089724250	-0.0050178198	-0.0002713175	-0.0034848792	-0.0001114013	0.0020026271	-0.0037066096	-0.0063504661	-0.0097141424	-0.0035675061	0.0027193502	-0.0036649846	-0.0057603847	-0.0073762704	-0.0054536066	-0.0035399022	0.0056154756	0.0086752232	-0.0111082988	-0.0092740813	-0.0004952650	0.0077971802	0.0087470636	-0.0000156804	0.0022863150	0.0057511628	0.0069203624	0.0042630564	-0.0002303987	-0.0042728446	-0.0071795513	-0.0027064160	-0.0005924369	0.0008500799	0.0033532411	0.0018216897	0.0013441104	-0.0002830569	0.0004706451	0.0017958418	-0.0013863160	0.0004939013	-0.0024654448	0.0000596992	0.0008395287	0.0038401380	-0.0023740330	0.0030237006	0.0005303051	-0.0024206862	-0.0001006783	0.0014611343	0.0029911145	0.0002377668	0.0000815161	0.0031624651	-0.0003340025
0.0042915847	-0.0015443617	0.0012952519	-0.0009241154	0.0008757659	0.0052404976	0.0009016065	0.0069523999	0.0048099360	0.0019354672	-0.0025940663	-0.0052876873	-0.0039524054	-0.0020701103	-0.0011247527	-0.0003896614	0.0013636320	0.0050542331	0.0053487215	0.0038781450	0.0005696658	-0.0002477927	-0.0028182361	-0.0046225311	-0.0005700620	-0.0039484380	0.0031611158	-0.0024160198	0.0015463211	0.0018847939	-0.0028808075	0.0002961138	-0.0027996765	-0.0032492168	-0.0014915040	-0.0028173230	-0.0014470143	-0.0003623546	-0.0005464563	-0.0003768623	-0.0045497059	-0.0092052519	-0.0090277912	-0.0067655575	-0.0053308355	0.0057443124	-0.0201147497	-0.0161375161	-0.0235311091	0.0134264082	0.0172594991	0.0076476904	0.0270679854	0.0134954695	0.0320612267	0.0378974117	0.0069221994	0.0081775375	0.0054932907	-0.0020995308	0.0084037185	-0.0059430264	-0.0008297135	0.0074465480	-0.0091257961	0.0071074259	0.0216796659	0.0252749063	0.0213146247	0.0178546254	0.0042871153	0.0022358918	-0.0160346013	-0.0439084247	-0.0338233486	-0.0194052737	0.0043574446	0.0291633010	0.0007070645	-0.0122899255	-0.0102063352	0.0075937314	-0.0017371236	-0.0135309407	-0.0061339140	-0.0010535687	0.0016364213	0.0111893229	0.0053511215	0.0230315216	0.0211954918	0.0285070743	0.0155753503	0.0006713676	0.0198747218	0.0166050680	-0.0010511307	0.0051472071	0.0101499511	-0.0113154314	-0.0205642357	-0.0148528852	-0.0122594694	-0.0261268653	-0.0075201276	-0.0013803637	-0.0002301603	0.0171349794	0.0217428487	-0.0171607137	-0.0277597830	-0.0188020393	-0.0132995583	0.0177175663	0.0026253590	-0.0108362790	-0.0025290181	0.0116651030	0.0159787629	-0.0027195392	-0.0077776425	-0.0129020456	-0.0012932462	0.0023372716	0.0032323482	-0.0014980286	-0.0088646729	0.0011605471	0.0028966491	-0.0084875962	-0.0056784116	-0.0083697159	-0.0073077856	-0.0037999391	-0.0072212378	-0.0009789433	0.0005352987	0.0016228436	0.0012960871	0.0008002976	0.0009500576	0.0030794516	0.0044262381	-0.0010184376	-0.0050272611	-0.0044078003	0.0004179876	0.0003106651	-0.0014037846	-0.0013998434	-0.0043607787	0.0000925810	-0.0025663706	0.0009662823	0.0034342657	-0.0018642158	-0.0032610078	0.0000251306	0.0018511624	-0.0012025323	-0.0025771558	0.0018661871	0.0063075465	-0.0016417456	-0.0074704401	-0.0115593206	-0.0062292237	-0.0036540839	-0.0019261641	0.0009827956	0.0022353409	0.0042830617	0.0057982542	0.0002499798	-0.0021225810	-0.0035844196	-0.0004896552	0.0004035803	-0.0033030543	0.0018026256	-0.0053459164	-0.0118513927	-0.0107092764	0.0007612294	0.0101078870	-0.0066466983	-0.0096452078	-0.0053848978	0.0028026924	0.0035212371	0.0009744646	0.0063699903	0.0040114871	-0.0000313842	-0.0047712624	-0.0078507019	-0.0071057603	-0.0061638486	-0.0039702761	-0.0017421860	-0.0007456997	0.0005816246	0.0004280120	0.0012913040	-0.0004603124	-0.0012559674	-0.0011588944	-0.0024265102	0.0000316728	-0.0000808504	0.0028415327	0.0017178000	0.0037261592	-0.0021304626	-0.0002562414	-0.0001721075	-0.0008849372	0.0038796104	0.0019950208	0.0033114124	0.0003232692	-0.0004905029	0.0022941078	-0.0012123317
0.0007456454	-0.0003851048	0.0018748578	-0.0007913116	0.0000679437	0.0048593637	0.0027894164	0.0082656937	0.0065343836	0.0035007063	-0.0005811156	-0.0049420106	-0.0063908594	-0.0063635497	-0.0032597876	-0.0010703325	0.0013084551	0.0035418763	0.0030939414	0.0017497560	-0.0018936647	-0.0031258278	-0.0050792876	-0.0025714680	-0.0002524034	-0.0038658283	0.0025483933	-0.0010646848	-0.0031941254	0.0000114200	-0.0037863436	-0.0037128562	-0.0063740667	-0.0038031931	-0.0026282801	-0.0022345295	-0.0015847855	-0.0010166509	-0.0061263298	-0.0058394126	-0.0100528849	-0.0085868733	-0.0085681882	-0.0076971450	-0.0099261748	0.0030237553	-0.0123532414	-0.0122094471	-0.0150420330	0.0128941108	0.0128589552	0.0099644559	0.0203363542	0.0189301595	0.0272659957	0.0362411663	-0.0037342259	-0.0089523476	-0.0344594195	-0.0232888497	-0.0053648264	-0.0144118099	0.0221510511	0.0210706405	-0.0069750492	0.0034314925	-0.0044178278	0.0050992779	0.0067968979	-0.0018196465	0.0049574906	0.0171596482	0.0315992832	-0.0173391309	-0.0497993901	-0.0596966296	-0.0349872075	0.0027414651	-0.0041439831	-0.0004746551	-0.0122047123	0.0124900099	0.0095655778	0.0013456692	-0.0003402457	0.0062875766	0.0042146691	0.0192932226	0.0173084643	0.0195826627	0.0126349125	0.0237720516	0.0186264049	0.0006011426	0.0121205710	0.0110556949	0.0086986991	0.0151590193	0.0090956660	-0.0071625188	-0.0155597180	0.0017385846	0.0010346691	-0.0140451100	0.0097743534	0.0108309500	0.0006425438	0.0056264880	0.0294679832	-0.0069757560	-0.0128053958	-0.0028565018	0.0002987590	0.0364120193	0.0158298966	-0.0022342140	-0.0020302904	0.0003536136	0.0024275689	-0.0002061429	-0.0088830693	-0.0066516893	-0.0009969780	-0.0017898515	0.0045348718	0.0053073475	-0.0022218060	-0.0002065654	-0.0022589189	-0.0023030851	-0.0010440587	-0.0056630140	-0.0052029113	-0.0034405519	-0.0107431524	-0.0072718766	-0.0021575377	-0.0003774783	-0.0006463890	0.0016124992	0.0017166646	0.0034848440	0.0021542767	-0.0018450600	-0.0012381419	0.0042428961	0.0049813772	-0.0006832561	-0.0030970487	-0.0001578506	0.0066271946	0.0094410256	0.0031198289	0.0023274662	0.0035751427	-0.0007581570	-0.0014294933	-0.0023362464	-0.0017807947	-0.0010414496	-0.0022956710	-0.0010552427	0.0024680682	-0.0010789523	-0.0001321456	0.0032379441	0.0028471292	0.0012445295	0.0057339687	0.0047660721	0.0045932056	0.0008368925	-0.0019163073	-0.0082523786	0.0065225083	0.0155606167	0.0117205186	0.0044012112	0.0007961920	0.0087664416	0.0067295544	0.0037070799	-0.0022330489	-0.0020487495	-0.0003930010	-0.0034040916	-0.0017384118	-0.0053963941	-0.0034011500	-0.0029124778	0.0003024733	0.0049507446	0.0001564220	-0.0062097237	-0.0082301898	-0.0045395195	-0.0005215633	-0.0010764614	-0.0042386702	-0.0032168140	-0.0046542273	-0.0016457358	-0.0024926139	-0.0015919652	-0.0042009829	-0.0047639394	-0.0017554744	-0.0014847800	0.0020940474	0.0019434927	0.0029376978	0.0002447464	-0.0033197473	-0.0063457973	0.0002038213	0.0005425480	0.0016668433	0.0065628667	0.0031941759	0.0033499910	-0.0024500308	-0.0034158684	0.0023658567	-0.0027414993
0.0027442174	-0.0003224523	0.0004939291	0.0009066522	0.0031624089	0.0026281374	0.0040262826	0.0020469206	0.0035147411	0.0002146107	-0.0025536022	-0.0043969816	-0.0052635209	-0.0065739434	-0.0022777957	-0.0024886318	-0.0009306142	0.0022237902	0.0010904198	-0.0005967857	-0.0029068834	-0.0036153356	-0.0029003886	-0.0075375950	0.0007947723	0.0012799234	-0.0052160886	0.0029338428	-0.0018841974	-0.0042148307	-0.0043600784	-0.0074652527	-0.0054450436	-0.0029390187	-0.0015854544	-0.0004773254	0.0004540223	-0.0014107600	-0.0034845797	-0.0064423541	-0.0034358932	0.0002157311	-0.0115517993	-0.0037302412	-0.0053696386	0.0071612699	-0.0105378823	-0.0150932306	-0.0201116726	0.0021552744	-0.0031617787	0.0074093244	0.0247943513	0.0294175632	0.0079737650	0.0370199494	0.0277224146	0.0119897109	-0.0132191647	-0.0152942883	0.0065361117	-0.0169364270	0.0061106682	0.0099387718	-0.0111295320	0.0201663915	0.0207099728	0.0113092680	0.0107016936	-0.0091696978	0.0080695925	0.0072771944	0.0126161594	-0.0149252247	-0.0006876960	-0.0029013695	0.0059200060	0.0076516867	-0.0211149566	-0.0046009240	-0.0121400701	-0.0059337914	-0.0042809136	-0.0139989862	-0.0155890733	-0.0024084290	0.0027303600	0.0129173175	0.0219860282	0.0113925282	0.0104980171	0.0247051697	0.0194480084	0.0065824883	0.0168710295	0.0163153112	0.0243477486	0.0183383971	0.0175577365	0.0046784738	-0.0050737788	0.0080645178	0.0054528289	-0.0074712415	0.0189338606	0.0056055388	0.0076636598	-0.0057875137	0.0213217065	-0.0047411458	-0.0013943125	-0.0043029296	-0.0182486251	0.0148662264	0.0030687510	-0.0123885982	-0.0076473476	-0.0086463355	-0.0019753519	0.0080813095	0.0041683107	-0.0023775538	-0.0053768242	-0.0064309007	-0.0000374978	0.0017517807	0.0080286367	0.0002139072	0.0028384726	-0.0014212405	-0.0012148565	-0.0007784534	0.0019899432	-0.0033665725	-0.0041351495	-0.0082959868	-0.0011459754	-0.0002232941	0.0005913146	0.0018530161	0.0016563415	0.0018548100	-0.0010520816	-0.0032513277	-0.0004185869	0.0019434437	-0.0030143226	-0.0029909264	0.0004666180	0.0025282800	0.0081455857	0.0043264711	-0.0024507334	-0.0007908327	0.0043481556	0.0010202747	-0.0018981021	-0.0031139667	-0.0044400324	-0.0015483762	-0.0012375055	0.0007833258	-0.0010969831	-0.0052580340	-0.0025379877	0.0001056574	0.0031243695	0.0006247247	-0.0013111107	-0.0002942121	0.0074239234	0.0056604161	0.0055236798	-0.0053360634	-0.0016962795	0.0125579592	0.0110991597	-0.0082646655	-0.0064272699	-0.0071768449	-0.0086659500	0.0016761348	0.0033961383	-0.0035094786	-0.0050791302	-0.0047131348	-0.0014148266	-0.0027504342	-0.0035724209	-0.0026623339	0.0035569374	0.0012167857	-0.0020031866	-0.0013725215	0.0015004599	0.0018599918	-0.0007609727	-0.0036577699	-0.0047323536	-0.0018357099	-0.0037769503	-0.0000279868	0.0006676349	0.0009667170	-0.0016280463	-0.0025595010	0.0022708555	0.0007177870	0.0056486549	0.0034968867	-0.0004026761	-0.0012096642	-0.0030316634	-0.0074248943	-0.0021781914	-0.0011887583	-0.0004609732	0.0011433524	-0.0003297101	-0.0000753752	-0.0057781576	-0.0057943477	0.0015177443	-0.0037732988
0.0020144745	0.0006870946	-0.0007203313	0.0000405663	0.0017153090	-0.0007805168	0.0013500969	0.0010462773	-0.0015565224	-0.0035389033	-0.0074494323	-0.0073386990	-0.0064089620	-0.0071871346	-0.0041564712	-0.0046744850	-0.0010862695	-0.0010859631	-0.0017988493	-0.0026737256	-0.0038041638	-0.0042562475	-0.0042853262	-0.0049190428	-0.0049808030	0.0014943919	-0.0042497008	-0.0043190550	-0.0012791090	-0.0057959892	-0.0052510840	-0.0053114248	-0.0039561596	0.0018860579	0.0018343880	0.0021657618	0.0026745866	-0.0004173353	-0.0041957442	-0.0042468030	-0.0053635333	0.0062343748	0.0011069942	0.0074780872	0.0002841719	0.0031389231	-0.0032106075	0.0060003968	0.0115636550	0.0339063779	0.0390261896	0.0283961594	0.0432419442	0.0528707840	-0.0368049145	0.0016602119	-0.0126107000	-0.0356189087	-0.0544618182	-0.0515722074	-0.0343850404	-0.0342327170	0.0048613437	0.0017492352	-0.0313798264	0.0069707860	-0.0051479819	-0.0272585284	-0.0078553427	-0.0271195602	0.0038755503	0.0188998189	-0.0103401374	-0.0464506894	-0.0020602657	0.0042935479	0.0210007150	0.0301574748	0.0054798862	0.0103815272	0.0024187602	-0.0120938849	-0.0128941564	-0.0127388006	-0.0262821130	-0.0179789010	-0.0250613429	-0.0059344429	0.0163242929	0.0136572402	0.0242334791	0.0338619761	0.0209761653	0.0170464125	0.0205448531	0.0154800285	0.0175485536	0.0027958406	0.0167977903	0.0080493428	-0.0063560051	0.0088555897	0.0047526928	-0.0196002778	0.0077133067	-0.0074366503	-0.0021743479	-0.0067698383	0.0080107870	-0.0092734518	0.0132773565	0.0183364693	-0.0006527880	0.0229715854	0.0152881611	0.0012620653	0.0143908449	0.0048798490	0.0036311657	0.0018340258	-0.0035421918	-0.0069450233	-0.0107360622	-0.0105794333	-0.0061651086	-0.0055415113	0.0059974482	-0.0018053289	-0.0017510476	0.0004785189	-0.0018080228	-0.0000350273	0.0045625148	-0.0027134549	-0.0003235074	-0.0022227573	0.0004140756	0.0023416646	0.0034956562	0.0035316048	0.0013473353	0.0013875274	0.0013869295	-0.0033851743	-0.0028035063	-0.0019816291	-0.0030166605	0.0026679209	0.0058642821	0.0023542885	0.0060269642	0.0055336934	-0.0000311142	-0.0017827271	0.0002233854	-0.0041065174	-0.0049803089	-0.0036550190	-0.0039595333	-0.0018677106	0.0005020613	0.0023444742	-0.0000136106	-0.0029648570	0.0009458554	-0.0004656978	-0.0020882180	0.0019227500	0.0009890262	-0.0002585624	0.0003057770	-0.0017915027	0.0082761468	0.0117761446	0.0113000292	0.0043201982	0.0001126125	-0.0132169416	-0.0023976790	-0.0010900737	-0.0105905132	-0.0042112065	0.0018560669	0.0029847508	0.0040649739	0.0026860265	-0.0013043765	-0.0068119387	-0.0037369072	-0.0002516701	-0.0002649861	-0.0001668759	0.0015721614	0.0036352512	0.0018865138	-0.0004649290	-0.0025878036	-0.0030536556	-0.0065461276	-0.0028642891	-0.0033910696	-0.0012277561	-0.0028161712	-0.0023716171	-0.0050566876	-0.0052045491	-0.0019360594	-0.0041907211	-0.0033550770	-0.0029311674	-0.0048127295	-0.0078537334	-0.0065923422	-0.0073972335	-0.0029833943	-0.0020733937	-0.0044710455	-0.0031283812	-0.0033787212	-0.0014016883	-0.0064965240	-0.0063535329	0.0012941958	-0.0028126268
-0.0003639945	-0.0019839529	0.0017942836	-0.0030563856	-0.0022176798	-0.0008962234	-0.0014409947	0.0015449601	-0.0001601874	-0.0010983911	-0.0029978082	-0.0039097634	-0.0038686069	-0.0041599986	-0.0036461279	-0.0027426458	-0.0033628009	-0.0025448527	-0.0037230316	-0.0031834485	-0.0031542324	-0.0023175715	-0.0024683601	-0.0007040098	-0.0006940461	-0.0012393660	0.0013756064	-0.0009565645	0.0009657147	0.0004189327	-0.0009306817	0.0016757650	0.0029290684	0.0045205206	0.0054989476	0.0027152153	0.0029985642	0.0016169180	-0.0018891338	-0.0005434878	0.0002526522	0.0065165688	0.0063977977	0.0047471593	0.0054206401	0.0084520923	-0.0115112346	0.0027844859	0.0087046195	0.0133664776	0.0219364595	-0.0011523869	0.0068788230	0.0410044603	-0.0203208476	-0.0167767722	-0.0247811954	-0.0104420260	-0.0394014679	-0.0290263109	0.0154800043	0.0239265598	0.0297194775	0.0200201236	-0.0164035801	-0.0047414424	-0.0203940570	-0.0415889211	-0.0087485109	-0.0295836646	-0.0203114953	-0.0032946307	-0.0208403673	-0.0324881226	-0.0091550536	-0.0285621099	-0.0275119748	-0.0006329119	0.0210565999	0.0215794072	-0.0020840315	-0.0112794619	-0.0129990671	-0.0005993000	-0.0195157751	-0.0222109500	-0.0289525241	-0.0068535227	0.0269072317	0.0031573412	0.0216498859	0.0257214494	0.0324752405	0.0292661488	0.0262397937	0.0179156791	0.0141205303	0.0107288398	0.0241096448	0.0200407580	-0.0049678939	0.0110335853	0.0142239118	-0.0082575809	0.0019676734	-0.0000281609	-0.0041316729	-0.0088217873	0.0031218599	-0.0070140669	0.0082094278	0.0206754077	-0.0066239769	0.0038476316	0.0008821764	-0.0080306185	0.0051932549	0.0011691549	-0.0087683648	-0.0081521971	-0.0142779183	-0.0024936616	0.0049371505	-0.0094526056	-0.0092786998	-0.0047572786	-0.0018354171	0.0057012597	0.0015658645	-0.0018675061	0.0029582491	-0.0022771931	0.0022507017	0.0015132274	-0.0012925172	0.0003830783	0.0037427039	0.0048237760	0.0043692715	0.0032276178	0.0011305695	0.0004284485	-0.0000261572	-0.0015293832	-0.0051537845	-0.0026800139	-0.0001139781	-0.0009542814	-0.0000772702	0.0008222851	0.0013170049	0.0023166914	-0.0038772398	-0.0080364998	-0.0049675126	-0.0045786672	-0.0025327615	-0.0011304513	-0.0018149775	-0.0022728087	-0.0009082963	0.0043150731	0.0045773429	0.0010768608	-0.0025711523	-0.0040113372	-0.0073648598	-0.0042122654	0.0049037822	0.0055273990	-0.0079679415	-0.0110832555	-0.0030540696	0.0078292033	0.0145530645	-0.0022111409	-0.0140145030	-0.0109315338	-0.0048152413	-0.0022636177	-0.0020334886	0.0042825467	0.0046123709	0.0052417144	-0.0002120001	0.0019967146	0.0012429887	-0.0071443012	-0.0017922167	0.0006701267	-0.0014166562	0.0033704005	0.0058392310	0.0027447382	0.0002088769	0.0006763500	-0.0001737560	-0.0000044103	-0.0024834496	-0.0020714714	-0.0017765367	0.0010444236	-0.0004940101	-0.0002345935	-0.0017933182	-0.0020037822	0.0008965403	-0.0023071999	-0.0012496075	-0.0031696428	-0.0039380393	-0.0039148945	-0.0039441884	-0.0040025050	0.0008399601	-0.0022997991	-0.0045846538	-0.0031755220	-0.0058867456	-0.0011314559	-0.0020555458	-0.0024378269	0.0024895028	0.0000871490
0.0023880510	-0.0010818808	0.0008334535	-0.0035730684	-0.0062697716	-0.0024834906	-0.0002326711	0.0000462147	-0.0006843838	-0.0015848890	-0.0030127608	-0.0038642464	-0.0037567252	-0.0024713562	-0.0023728234	-0.0022477158	-0.0029491193	-0.0028803919	-0.0031563335	-0.0025864129	-0.0023161548	-0.0014692228	-0.0001445315	0.0007018080	0.0018725111	-0.0017915020	-0.0018052133	-0.0032428685	-0.0020983899	0.0005688469	0.0047449381	0.0014916635	0.0020714239	-0.0006582728	0.0001493412	-0.0032424042	-0.0035668209	-0.0043588257	-0.0052495631	0.0038760104	0.0006600278	0.0054693441	0.0018612269	0.0003356403	0.0101670204	0.0162861533	-0.0175565071	-0.0169873312	-0.0191720165	-0.0085010976	0.0093144886	-0.0054991385	0.0043607093	0.0450151823	-0.0026452329	-0.0095130485	0.0074819420	0.0289673582	-0.0244015325	-0.0053640502	0.0686420798	0.0309811030	-0.0308121257	-0.0056552594	-0.0318105370	0.0011944631	0.0051859291	-0.0073700380	0.0282695852	0.0008321619	-0.0275190920	0.0096534947	-0.0238529518	-0.0130668739	-0.0078180349	-0.0249617342	-0.0328762792	-0.0074859317	0.0226749480	0.0402177982	0.0171018671	-0.0243945494	0.0122645032	0.0147938281	0.0013425208	-0.0131719075	-0.0262133796	0.0036369001	0.0337607786	0.0052369884	0.0317349136	0.0389541686	0.0441199429	0.0329401344	0.0527988970	0.0417909771	0.0115887504	0.0075230822	0.0045647463	0.0052738367	-0.0088132601	0.0061375108	0.0355542675	0.0186143648	0.0030305889	-0.0037300242	-0.0068224105	0.0027180868	0.0072430270	0.0142657934	0.0306399744	0.0163602028	0.0035945706	0.0092447875	0.0109633738	-0.0066645220	-0.0022267555	-0.0037981225	-0.0107132513	0.0001891269	-0.0148338806	-0.0083153471	0.0020209330	-0.0018044921	-0.0053406465	-0.0027919305	-0.0044274181	-0.0005068685	0.0032194806	-0.0043499628	0.0022220591	0.0007021003	-0.0002218324	0.0003604695	0.0055198669	0.0007294102	0.0057480168	0.0051644142	0.0017605965	0.0018041169	-0.0008218578	-0.0016263312	-0.0004425637	0.0019010424	-0.0012447934	0.0005692765	0.0034968783	0.0003318716	-0.0031678244	-0.0009120665	-0.0016834586	-0.0031574073	-0.0052440013	-0.0059999726	-0.0020640648	-0.0006319554	0.0004580603	-0.0006363519	-0.0003984637	-0.0020992050	-0.0070323469	-0.0055819540	0.0009662099	0.0037515636	0.0028648484	-0.0031574466	-0.0057791071	-0.0039550550	0.0091246450	0.0125806779	0.0018169770	-0.0119392294	-0.0108316308	-0.0084295291	-0.0028716084	-0.0108168963	-0.0153441895	-0.0062688040	-0.0045731235	-0.0018273252	0.0047339508	0.0102972314	0.0068346816	0.0025958179	0.0048823068	0.0065227468	-0.0009519501	-0.0037718969	0.0005361393	0.0020282401	0.0027606045	0.0067604743	0.0002827275	0.0011861096	0.0062450906	0.0008135224	0.0014084803	-0.0003735887	-0.0002192463	-0.0034823744	-0.0013735747	0.0001370458	-0.0006408467	-0.0031112218	-0.0026495683	-0.0009842409	-0.0009005510	-0.0054614712	-0.0030350420	-0.0024425290	-0.0015043961	-0.0005341700	-0.0003995431	-0.0017344512	0.0009323704	-0.0054304264	-0.0049888249	-0.0054258178	-0.0032895990	0.0036439819	0.0051465882	0.0002722437	0.0005379911	-0.0004339826
0.0011055393	0.0027369021	-0.0009958687	0.0006986075	-0.0048370962	-0.0014270541	0.0016492436	0.0003933792	-0.0002053922	-0.0014022880	-0.0032464636	-0.0020765828	-0.0020544482	-0.0014546377	0.0001320738	-0.0005516389	-0.0015736066	-0.0018814583	-0.0019837276	-0.0005979044	-0.0008109682	0.0005246563	0.0019627025	0.0013295641	0.0040119849	0.0022880873	-0.0034949239	0.0003893602	0.0012223304	0.0021846797	0.0095171398	0.0043346928	0.0058692470	0.0000320420	-0.0054329815	-0.0043437383	-0.0044818618	-0.0025810949	0.0018310358	0.0065678027	-0.0008981179	0.0043400726	-0.0047977036	0.0001282950	0.0002539526	0.0008688346	-0.0078098364	-0.0089989742	-0.0202501081	-0.0062598847	0.0200560503	-0.0040165484	-0.0084275790	0.0206095483	-0.0183556862	-0.0133999567	0.0198144652	0.0275215097	-0.0374614820	-0.0200591031	0.0504874140	0.0098823840	-0.0371399969	0.0205948278	-0.0139048994	0.0034998835	0.0097300829	0.0022533839	0.0284680109	-0.0049478482	-0.0114502404	0.0086937547	-0.0076723574	0.0061976276	0.0104184486	0.0015148572	-0.0222973879	0.0000500011	0.0087800100	-0.0167668276	0.0152729861	-0.0354988873	0.0321591720	0.0336939581	-0.0120531023	-0.0149999633	-0.0265757926	-0.0054034032	0.0247423425	-0.0026552752	0.0234292988	0.0413029529	0.0391358584	0.0228379127	0.0066078259	0.0090517569	-0.0009189881	0.0028323289	-0.0029469854	-0.0084286332	-0.0112248091	-0.0035557467	-0.0007536163	-0.0067463946	0.0015725552	0.0031523744	-0.0110075176	0.0201705899	0.0272588134	0.0179651584	0.0269689113	-0.0042504109	-0.0132686943	0.0107202642	0.0223171543	-0.0065463255	-0.0113879796	0.0021900560	0.0018228093	0.0072822520	-0.0042767874	-0.0112497509	-0.0167964492	-0.0005260058	0.0002352598	0.0032267650	0.0044884752	-0.0026055621	0.0063148709	-0.0006043775	-0.0058009597	0.0053207879	0.0027305156	0.0014175065	0.0051689763	0.0020217728	0.0067266040	0.0008921521	0.0002937039	-0.0018473635	-0.0040899208	-0.0009093402	-0.0000554004	0.0029807263	0.0013062565	0.0032455055	0.0035143944	0.0046031936	0.0010102908	0.0027480032	0.0012285655	0.0006573771	-0.0005017288	-0.0028028633	-0.0001800607	0.0007307822	0.0004077590	-0.0011046511	0.0000202837	0.0019320184	-0.0016328440	-0.0065147597	-0.0049695619	-0.0036702466	-0.0012589709	0.0007722633	0.0003165759	-0.0016388411	0.0038917870	0.0091093704	0.0102304388	0.0001399387	-0.0043512010	-0.0075614392	-0.0095135011	-0.0097670257	-0.0041479273	-0.0015782893	-0.0073455004	-0.0023047174	0.0064284820	0.0096368473	0.0058096736	-0.0034772120	0.0053852857	0.0067035477	-0.0000759211	0.0038669638	-0.0013609471	0.0001900080	0.0002195576	0.0029975520	0.0007458206	0.0044557597	0.0011784169	0.0003883996	0.0021482776	-0.0021916425	0.0011408329	-0.0019035037	0.0003380949	0.0009069136	0.0021788101	0.0006611311	0.0005542270	0.0001784045	0.0008740535	-0.0051248246	-0.0028444384	-0.0007066223	0.0016884774	0.0010019174	0.0011406499	0.0008590579	-0.0032911382	-0.0050343764	-0.0052804104	-0.0047171279	-0.0009971919	0.0065822527	0.0084750885	0.0006074416	-0.0001817494	0.0017243495
-0.0046876166	0.0014167080	0.0004158017	-0.0037816248	-0.0048308065	-0.0035197323	-0.0041278889	-0.0009046677	-0.0028093955	-0.0012344029	-0.0025379395	-0.0018542808	-0.0007062863	-0.0004409249	-0.0009074739	-0.0002572822	0.0005299149	-0.0010758471	-0.0005751521	0.0006597869	0.0009879244	0.0010355874	0.0021910728	0.0043524918	0.0026740360	0.0031181313	-0.0006355428	-0.0004453076	0.0040175919	0.0032352307	0.0044755610	0.0047394629	0.0132340416	0.0129383262	0.0044731386	0.0011473648	0.0007380021	0.0009318996	-0.0007382417	0.0031309538	-0.0100913625	-0.0005695713	-0.0032383972	-0.0010774136	0.0098488750	0.0051970156	0.0009480838	0.0089379000	-0.0145177208	0.0062344451	0.0159261748	-0.0043555941	-0.0242228024	0.0152298398	-0.0199285783	-0.0116027696	0.0217959210	0.0230011065	-0.0305919703	-0.0131799867	0.0508502573	0.0059816367	-0.0512832738	0.0099806720	-0.0564523488	-0.0197357461	0.0128166676	0.0218050350	0.0268363021	-0.0158800185	-0.0461821929	0.0133612286	-0.0095880534	-0.0116143562	0.0057246098	0.0005207375	-0.0167117864	0.0240740459	0.0065900972	-0.0221873149	0.0455623269	-0.0273009688	0.0665478334	0.0493575484	-0.0062661003	0.0225216821	-0.0243048072	-0.0105729941	0.0353172198	0.0101935100	0.0128733888	0.0235704668	0.0310794786	0.0264580082	0.0031704321	0.0075274399	0.0069865654	0.0197236501	-0.0040045697	-0.0153212706	-0.0136678861	-0.0009631370	0.0116340406	-0.0024020260	0.0084401602	0.0196852759	-0.0033506653	0.0079155797	0.0167044811	-0.0021755602	0.0141541883	-0.0064059715	-0.0078782663	-0.0069294712	0.0157571752	-0.0114026042	-0.0175508540	0.0031413462	-0.0049535874	0.0001466488	-0.0097877216	-0.0062446469	-0.0062635499	-0.0052366555	-0.0015311225	0.0011605629	-0.0022449829	0.0023328462	-0.0011776965	0.0038364478	-0.0003418347	-0.0008937194	0.0002456554	-0.0005926294	0.0013700775	0.0023044201	0.0047195572	-0.0031519942	-0.0012886066	-0.0034405794	-0.0052906265	-0.0016642738	-0.0023501310	0.0030540810	-0.0019596561	-0.0007149859	0.0032715639	0.0027403720	0.0019978150	0.0030365672	0.0014905018	0.0007223960	-0.0021542441	-0.0002705546	0.0012500345	0.0020069324	0.0027550138	0.0004861721	-0.0004870582	0.0000049552	0.0007079740	-0.0013477815	-0.0045975200	-0.0080759991	-0.0109368684	-0.0020093634	0.0012562901	-0.0070091849	-0.0104612922	-0.0035460952	0.0111014973	0.0112473397	-0.0000533886	-0.0007995185	-0.0003579944	-0.0044947104	0.0013807981	0.0014624927	-0.0026878545	-0.0003623225	-0.0021595627	-0.0022941609	-0.0032086270	-0.0045791385	-0.0020806049	-0.0019490211	-0.0008808819	0.0059348983	0.0017329950	-0.0021526730	-0.0016249084	0.0037409251	-0.0012233381	0.0033819473	-0.0003311759	0.0004391489	0.0032206743	-0.0011143275	0.0018942298	-0.0033235739	-0.0023811550	0.0007402657	0.0035019207	0.0007645292	0.0016133955	0.0021026407	0.0023810542	-0.0039534885	-0.0035027845	0.0001552833	0.0041199639	0.0038575542	0.0013642925	0.0015411259	0.0014716018	-0.0025405686	-0.0029611364	-0.0017774082	0.0054394924	0.0114482492	0.0105119729	-0.0011271432	-0.0009995786	0.0020353606
