0.0008900734	0.0005438283	0.0004037902	0.0013126817	0.0013345564	0.0008222389	-0.0009334516	-0.0019319517	-0.0011642226	-0.0006131749	-0.0012039815	-0.0012287244	-0.0017698637	-0.0011887809	-0.0000553424	-0.0000991346	0.0000308293	-0.0019524950	-0.0015201531	0.0001946287	0.0014099814	-0.0011361770	-0.0027853316	-0.0041244067	-0.0042702914	-0.0031284955	-0.0027821760	-0.0022473428	-0.0006633434	0.0024066425	0.0003388039	-0.0012271022	0.0012809881	0.0024864622	0.0012596755	0.0016150128	0.0015319464	0.0018629270	0.0015693823	0.0005269845	-0.0001364459	0.0014300019	0.0008266453	-0.0000337671	-0.0014952729	-0.0012234654	-0.0009724855	-0.0006562730	0.0010497727	0.0037588603	-0.0067126714	-0.0118872644	-0.0073996345	0.0012850827	0.0015239101	-0.0006919961	-0.0016498852	-0.0012192560	-0.0008053585	-0.0010314351	0.0000993813	-0.0000223804	-0.0019723258	-0.0016959404	-0.0020009640	-0.0010529307	-0.0015033911	-0.0017584268	-0.0019726641	-0.0019853348	-0.0009733541	-0.0014320035	-0.0017410063	0.0006375902	0.0012378681	0.0016767550	0.0025104110	0.0018643764	-0.0001022825	0.0001008643	-0.0002797907	-0.0012411010	-0.0006874702	-0.0006272817	0.0025588248	0.0001995470	-0.0071843374	-0.0075544869	-0.0060435347	-0.0046815430	-0.0028891223	-0.0004197686	0.0000078051	-0.0005865605	-0.0001065390	-0.0026330771	-0.0030220565	-0.0038344222	-0.0042370390	-0.0057039796	-0.0061220299	-0.0056107743	-0.0024891538	-0.0019465202	0.0016128365	-0.0000014421	-0.0014377483	-0.0004677967	-0.0003260868	0.0028115027	0.0029072384	0.0030894312	0.0013032005	-0.0002550500	0.0006166571	0.0000161803	-0.0002210306	0.0009926744	0.0003888759	-0.0011213506	0.0001471794	0.0013464093	0.0010493884	0.0003153109	0.0006839410	0.0009748911	0.0008697760	-0.0005762526	-0.0014215703	-0.0013816882	-0.0006211860	-0.0009147327	0.0000802002	0.0002444409	0.0018489417	-0.0007102267	0.0005344048	0.0010799128	-0.0044836728	-0.0033841822	0.0001688995	0.0018794503	0.0015200536	0.0023396125	0.0005052513	-0.0022262558	-0.0013568054	-0.0010908188	-0.0005471654	-0.0012206149	-0.0002843487	-0.0005207016	0.0009227787	0.0003122413	0.0005554584	-0.0002491125	-0.0002208995	0.0000674493	0.0008721401	0.0000201070	0.0001111680	-0.0005117244	-0.0006595924	-0.0000622539	0.0007741383	0.0006891122	-0.0010068277	-0.0013655020	-0.0032551931	-0.0039063962	-0.0042916648	-0.0035040306	-0.0022042310	0.0000258829	0.0006984524	-0.0005538705	0.0018974209	-0.0005711357	0.0010641636	0.0012023570	-0.0001280460	-0.0000959456	0.0010955241	0.0007983926	0.0010552576	-0.0006305369	0.0002300647	0.0006807006	-0.0010122394	-0.0019264821	-0.0008180097	0.0009279996	-0.0012655724	0.0002025819	-0.0012577935	-0.0017602015	-0.0027163744	-0.0000198926	0.0009350970	0.0000340601	-0.0005716116	-0.0013686677	-0.0018935514	-0.0021858604	-0.0012446197	-0.0003460636	-0.0004035509	-0.0011815355	-0.0000867105	0.0011214808	0.0021940530	0.0018555854	0.0011271826	0.0007149410	0.0000262804	0.0003609385	-0.0000630678	-0.0000528853	-0.0012378627	0.0000077148	0.0009123275	-0.0012639572	-0.0003408354	0.0009571904
0.0002739094	0.0010278270	0.0017867308	0.0011990811	-0.0004573374	-0.0009961704	-0.0007640798	-0.0004335241	-0.0008236833	-0.0011262428	-0.0017403708	-0.0012696851	-0.0017213178	-0.0015019716	-0.0001672729	-0.0009469073	0.0008820330	-0.0001474061	0.0003998012	0.0011370487	0.0012329536	-0.0035915358	-0.0047692196	-0.0024145183	-0.0035173388	-0.0029765265	-0.0033192541	-0.0028726435	-0.0008375223	0.0020574755	-0.0029820795	-0.0054088733	0.0002196933	0.0042498563	0.0022742043	0.0010023242	-0.0005054759	-0.0011852670	-0.0003349603	0.0017791111	0.0013550369	0.0012393969	-0.0006435546	-0.0008532490	-0.0013203970	-0.0001861911	-0.0010113581	-0.0019830451	-0.0001702120	0.0051785549	-0.0061882781	-0.0123651959	-0.0062272488	0.0026510803	0.0005885565	-0.0016475779	-0.0028019082	-0.0025780716	-0.0028858692	-0.0036707253	-0.0024752365	-0.0009797392	-0.0011810031	-0.0004910008	-0.0003463364	0.0006916135	0.0013217905	0.0010810919	-0.0005852403	-0.0021495027	-0.0014619426	-0.0025811829	-0.0014670971	0.0015823706	0.0028173109	0.0034191723	0.0035476065	0.0014123089	0.0007075377	-0.0003672714	-0.0012292864	-0.0023267604	-0.0015794106	-0.0009436855	0.0023106951	0.0004736970	-0.0031190887	-0.0051942798	-0.0056911795	-0.0042180610	-0.0015837057	0.0020093382	0.0028307347	-0.0007450823	0.0012152259	-0.0005850940	-0.0019558270	-0.0060223993	-0.0045646206	-0.0035570778	-0.0042880438	-0.0051268605	-0.0030711005	-0.0043870779	0.0002339535	-0.0004507776	-0.0020295351	-0.0015455770	-0.0019036622	-0.0001126752	0.0004348722	0.0014486177	0.0003890479	-0.0000394511	0.0005051823	0.0008623434	0.0009703042	0.0009931363	-0.0008712880	-0.0021776499	-0.0001783372	0.0003193259	0.0007067419	0.0012367563	-0.0001399840	-0.0008969302	-0.0015597843	-0.0018853969	-0.0010976166	0.0004591629	0.0015477295	0.0007178460	-0.0005371777	-0.0008858863	-0.0010489797	-0.0026999046	0.0013592814	0.0029213878	-0.0033460455	-0.0060889726	-0.0049576974	-0.0016897779	0.0035029245	0.0050087618	-0.0006612868	-0.0026140567	-0.0009988295	-0.0012014413	-0.0002271025	-0.0015185564	0.0002255214	0.0000587713	-0.0004974549	-0.0017978832	0.0003364633	0.0008452162	0.0002881093	-0.0003704537	-0.0002678218	-0.0014013995	-0.0011501490	-0.0011606069	-0.0005195804	-0.0000406659	-0.0001146785	-0.0009460654	-0.0021772804	-0.0013437376	-0.0029535028	-0.0032459027	-0.0034283537	-0.0024290199	-0.0028075657	-0.0021836369	-0.0019245701	-0.0026251499	0.0014644382	-0.0017229416	0.0005681015	0.0027043873	0.0010807349	-0.0003585106	-0.0001130890	-0.0001180903	0.0006620144	0.0002982176	0.0011253695	-0.0008689617	-0.0042926907	-0.0028004383	0.0005040853	0.0003691268	-0.0029230749	0.0009215510	-0.0000381884	-0.0012381035	-0.0008246187	0.0027475494	0.0033388606	0.0010673193	0.0001069620	-0.0014533594	-0.0018721884	-0.0017237085	-0.0011907867	-0.0012547318	-0.0029127088	-0.0033281730	-0.0012120279	0.0019457873	0.0022948135	0.0009003500	0.0000782381	-0.0001615481	-0.0012172178	-0.0000455426	0.0000793563	0.0002048668	-0.0008555826	0.0005112037	0.0000971208	-0.0023188863	-0.0004131239	0.0004414259
0.0009656617	0.0002245062	-0.0000614906	0.0007638680	-0.0033286936	-0.0042305286	-0.0029291334	0.0004279414	-0.0023413131	-0.0029877990	-0.0026771699	-0.0027768791	-0.0033448823	-0.0021889105	-0.0014072075	-0.0017572253	0.0004378241	0.0013863201	0.0035148612	0.0009917226	-0.0034211553	-0.0047775675	-0.0016868782	-0.0042808652	0.0005738793	-0.0022297271	-0.0052905455	-0.0015468290	-0.0006722752	0.0008116276	-0.0054796343	-0.0039744647	0.0009427187	0.0070608957	0.0050136764	0.0001628773	-0.0039621526	-0.0043669846	-0.0018020927	0.0000454855	0.0019687570	0.0005528996	-0.0020455089	0.0013616782	0.0017430055	0.0012274996	-0.0021997946	-0.0035859721	-0.0016580643	0.0068192272	-0.0036275899	-0.0114275124	-0.0034080858	0.0043498510	-0.0009592538	-0.0022929760	-0.0033335465	-0.0028760596	-0.0038140824	-0.0054557081	-0.0026127947	-0.0012635677	-0.0002321720	0.0006764383	0.0030818852	0.0046703746	0.0063090539	0.0086885970	0.0053356439	0.0089245681	-0.0052015455	-0.0138111673	-0.0001936115	0.0066763577	0.0104814153	0.0064464337	0.0022741321	-0.0018668715	-0.0036725921	-0.0057233190	-0.0084690452	-0.0080290921	-0.0025031783	-0.0021499079	0.0011870239	0.0038172486	0.0009407192	-0.0128025748	-0.0105229784	-0.0059714406	0.0024156254	0.0101756491	0.0074435254	0.0073313345	0.0010858458	-0.0006939097	-0.0068781236	-0.0044930810	-0.0001874118	-0.0011376316	0.0016885725	-0.0044170283	-0.0026299083	-0.0066830502	-0.0007323850	0.0004068263	-0.0001998213	-0.0021031243	-0.0030652359	-0.0024301154	-0.0023575390	-0.0048278174	0.0019984124	0.0002705310	-0.0027832626	0.0004880299	0.0000911578	-0.0005004908	-0.0043114540	-0.0032311133	-0.0024574944	0.0007855425	0.0013143863	0.0015957811	-0.0005855508	-0.0021479467	-0.0026176465	-0.0029290405	0.0016420151	0.0037223301	0.0037289662	-0.0028472038	0.0021107784	-0.0020982260	-0.0047426089	0.0014152564	0.0043496997	0.0052800821	-0.0029988987	-0.0038949037	-0.0052779224	-0.0018724027	0.0041829641	0.0034508305	0.0012865611	-0.0027512715	-0.0040142615	-0.0014248501	-0.0024378828	-0.0035124584	0.0003442382	0.0008591407	-0.0043003652	-0.0034651139	0.0011498540	0.0021269883	-0.0003574076	0.0000179904	-0.0005806851	-0.0009412915	-0.0010059953	-0.0013465316	-0.0006267860	-0.0015150069	-0.0028479239	-0.0018554075	-0.0009023447	-0.0046303151	0.0004524894	-0.0013155814	-0.0033874039	-0.0013181079	-0.0043167481	-0.0057810582	-0.0059241531	-0.0041925949	-0.0000798246	-0.0028537512	-0.0002529030	-0.0000096308	0.0016543990	-0.0015370946	-0.0017792635	0.0015301451	0.0032654072	0.0030042506	0.0011949094	0.0005429997	-0.0039968337	0.0009671819	0.0003344085	-0.0000558449	-0.0062815580	0.0011190262	-0.0001669666	-0.0033148457	0.0025788471	0.0058232215	0.0043907100	0.0028275307	-0.0003840406	-0.0008054911	-0.0016501216	-0.0016393093	-0.0029298980	-0.0025789842	-0.0054072211	-0.0033588998	-0.0006444799	0.0036304640	0.0034759273	0.0011898261	-0.0002607534	0.0001461142	-0.0003815884	-0.0005902306	0.0007448496	0.0011963856	0.0003865841	0.0007159594	-0.0004993679	-0.0028865440	0.0000064126	0.0009172572
0.0015095988	-0.0037150735	0.0017998416	0.0005040570	-0.0026129060	0.0006839929	-0.0043962584	-0.0008759039	-0.0027050432	-0.0023399047	-0.0020130677	-0.0021706969	-0.0027951156	-0.0019391624	-0.0019552861	-0.0007718451	0.0010497788	-0.0019793937	-0.0007938280	0.0002001307	0.0022253741	0.0004461734	-0.0019193375	-0.0068287444	-0.0018288929	-0.0053088367	-0.0007057777	-0.0028951685	-0.0044984207	0.0025988417	-0.0103934081	-0.0058648936	0.0006482101	0.0055259885	0.0019359614	-0.0004042809	0.0008475659	0.0001243301	-0.0019969377	-0.0051249908	-0.0025517126	0.0004260704	0.0003938693	0.0006499322	-0.0026438211	-0.0030360154	-0.0061175991	-0.0016532608	0.0025835023	0.0061787725	-0.0039396519	-0.0117913680	-0.0041532810	0.0034586000	-0.0012798029	-0.0047571547	-0.0066782301	-0.0070359767	-0.0050135693	-0.0031115841	-0.0014355357	-0.0003795047	-0.0010014276	0.0044071712	0.0112291398	0.0122854123	0.0044608288	-0.0020403056	-0.0169357210	-0.0049285195	0.0026280414	-0.0115877604	-0.0087763248	0.0018751329	0.0037244805	-0.0002098863	-0.0039642635	-0.0007865638	-0.0030175215	-0.0063445088	-0.0078898557	-0.0064564189	-0.0018918384	-0.0030047563	-0.0000881748	0.0067627849	0.0073884143	-0.0088401716	-0.0093376953	-0.0055831163	0.0054449337	0.0088378936	0.0066834297	0.0087047964	0.0011264851	-0.0057204925	-0.0059112539	0.0033960752	0.0081129204	0.0012327688	-0.0027455883	-0.0065718708	-0.0013459594	-0.0024956465	0.0017024761	-0.0003782902	0.0004085587	-0.0016322450	-0.0013417839	-0.0017639118	-0.0033901641	-0.0087783616	-0.0040750476	-0.0045220722	-0.0020771208	-0.0032829216	-0.0034447529	-0.0000878445	-0.0055836616	-0.0024891915	0.0008251633	0.0021451868	0.0005262513	-0.0009918394	-0.0022092180	-0.0013411818	-0.0003101852	-0.0014901567	-0.0004995653	-0.0005426321	0.0050910427	-0.0018533793	0.0007617298	-0.0015067470	0.0026919194	0.0021376680	-0.0018700857	0.0051611317	-0.0044347621	-0.0031364206	-0.0051658861	-0.0029249277	0.0022262854	0.0021127744	-0.0009819129	-0.0064835967	-0.0019887954	-0.0020430123	-0.0032421723	-0.0017545024	-0.0030478563	-0.0001631618	-0.0003125368	0.0005695851	0.0008196661	-0.0007706554	-0.0018827327	-0.0002021218	-0.0000353088	0.0009546056	0.0011792078	-0.0008772412	-0.0022022806	-0.0035620211	-0.0028436272	-0.0010449192	-0.0014366300	-0.0048280656	-0.0013588236	-0.0051617082	0.0018102932	-0.0012274671	-0.0057262066	-0.0008542059	-0.0067564738	-0.0054765567	-0.0019094073	-0.0040435675	-0.0022742320	-0.0034806316	-0.0010099744	-0.0044831345	-0.0002772623	0.0019726818	0.0033144311	0.0036941883	-0.0036198541	-0.0045559788	-0.0060719401	-0.0010722440	-0.0045751380	-0.0081769302	-0.0069224862	0.0056299488	0.0004795260	-0.0050415033	-0.0005826540	0.0018223252	0.0047996501	0.0037271804	0.0004411425	0.0008988818	-0.0012396661	-0.0026597502	-0.0048944871	-0.0040730457	-0.0070691337	-0.0049656611	-0.0027476028	0.0016487335	0.0026587893	0.0018525295	0.0002151538	0.0000769586	0.0003938962	-0.0002214509	0.0006723118	0.0019779883	0.0002803619	-0.0006399435	-0.0024902299	-0.0037586996	-0.0002544804	0.0002055165
0.0025468662	-0.0053314832	0.0016779646	-0.0010412573	-0.0042170170	-0.0007518995	-0.0036225582	-0.0013233148	-0.0021056023	-0.0010284325	-0.0009622078	-0.0012850906	-0.0024513612	-0.0013534847	0.0012435099	-0.0005061805	0.0001739450	0.0000133612	0.0024025291	0.0030332049	0.0013909148	-0.0009862570	0.0012275965	-0.0017949799	0.0015428582	-0.0067159962	0.0032691834	0.0009731858	-0.0017343644	0.0045116935	-0.0071199536	-0.0053750849	0.0019623023	0.0053305030	0.0007111240	-0.0009484265	0.0009672711	0.0006701511	0.0000987423	-0.0031660246	-0.0019132458	-0.0005076631	0.0005588604	0.0001175787	-0.0024411357	-0.0011910037	-0.0074452534	-0.0018341129	0.0047443761	0.0074119712	-0.0024655880	-0.0069585592	-0.0011667178	0.0019691850	-0.0027767648	-0.0069750152	-0.0074552097	-0.0078099133	-0.0082774479	-0.0076022232	-0.0057560401	-0.0038657619	-0.0018762772	-0.0016491497	0.0088198353	0.0165434219	0.0185207240	0.0143629536	-0.0142423743	-0.0214374252	-0.0172910485	-0.0142182112	-0.0066756168	-0.0034992078	0.0014963290	-0.0006840618	-0.0052893674	-0.0036105965	-0.0096568810	-0.0137009751	-0.0117118079	-0.0103941429	-0.0114211487	-0.0069852835	0.0007157135	0.0081561748	0.0096259816	-0.0067513930	-0.0061863787	-0.0036660908	0.0094767567	0.0103127696	0.0079152025	0.0108751915	-0.0018139125	-0.0094485004	-0.0035570865	0.0052845632	0.0092378091	0.0026726748	0.0035612227	0.0006885906	0.0001191432	-0.0029053153	0.0022069570	0.0008497246	0.0010514555	-0.0004926405	0.0006096556	0.0017605489	0.0010181624	-0.0053668777	-0.0032898823	-0.0066358321	-0.0019686620	-0.0041018054	-0.0049336902	-0.0011767240	-0.0068116360	-0.0033323534	0.0001344531	0.0024312662	0.0015387861	0.0019604180	0.0021118151	0.0013601063	0.0020419157	0.0006087595	0.0009096404	-0.0028759951	0.0025471903	-0.0013987449	0.0050129713	-0.0029800532	0.0027652171	0.0004388928	-0.0013465375	0.0058944523	-0.0045692809	-0.0042070560	-0.0017443132	-0.0003916943	0.0049858559	0.0043819188	0.0001131680	-0.0065658516	0.0005890062	-0.0011846719	-0.0028327161	-0.0004486558	-0.0010295170	0.0016605910	-0.0002392167	-0.0003434849	0.0024466938	0.0011296532	-0.0009397661	-0.0002633469	0.0006505481	0.0013966342	0.0020846406	0.0022711426	0.0011809757	0.0002358710	-0.0009202369	-0.0015829840	-0.0021481882	-0.0050274571	-0.0028673033	-0.0088612745	0.0027664313	0.0000376516	-0.0022180020	0.0042631738	-0.0026889397	-0.0046752705	-0.0041106907	-0.0061903368	-0.0027927298	-0.0030664331	-0.0008679974	-0.0052123647	0.0019737370	0.0039798459	0.0041163787	0.0036034724	-0.0026449978	-0.0023119301	-0.0004347027	-0.0010259952	-0.0112550789	-0.0077206939	0.0007061609	0.0078319386	-0.0022038443	-0.0047639618	0.0021298961	0.0024849263	0.0067297434	0.0056929253	0.0047125816	0.0037913581	0.0024914159	0.0018030577	-0.0010677078	-0.0032301820	-0.0060886643	-0.0040457025	-0.0015476871	0.0027240245	0.0019618217	0.0009528749	0.0003455986	-0.0003027672	0.0014482925	0.0004165395	0.0009778271	0.0020218855	0.0008519276	0.0003393598	-0.0018568384	-0.0023684329	0.0002942313	-0.0001518217
0.0027666888	-0.0038905656	-0.0017722007	-0.0026895551	-0.0058896570	-0.0045803390	-0.0031742118	0.0008928744	-0.0015088022	0.0000089731	-0.0005668643	-0.0019855339	-0.0037601558	-0.0015019239	0.0022913748	0.0002964688	0.0012984195	0.0023577146	0.0064655440	0.0043176869	-0.0017047843	-0.0037015218	0.0041505867	0.0019815252	0.0040276092	-0.0012162142	0.0041520144	0.0032153931	0.0011739423	0.0039945305	-0.0058741039	-0.0017116626	0.0021897580	0.0056556333	0.0007407670	-0.0013391548	-0.0021477479	-0.0015439111	0.0019209804	0.0020339405	0.0019320352	0.0004553742	-0.0011396825	0.0008076798	0.0002022153	0.0015108126	-0.0051581287	-0.0023183369	0.0030563367	0.0085695153	-0.0003759009	-0.0022782490	0.0011964829	0.0008013261	-0.0026956243	0.0002863972	0.0042401571	0.0028124745	0.0011214063	0.0005993502	0.0020520003	0.0053425459	0.0114860628	0.0051745675	0.0080516813	0.0105284834	0.0144009404	0.0262679812	0.0111988569	-0.0037370399	-0.0264687389	-0.0233720168	0.0014291932	-0.0014780810	0.0067584375	0.0084477412	0.0040111644	0.0054651359	-0.0033613602	-0.0046217162	-0.0034528193	-0.0092318729	-0.0157033540	-0.0102236792	-0.0045970138	0.0025653115	0.0080422945	-0.0092249298	-0.0118789263	-0.0081881443	0.0022794800	0.0036787575	0.0050983443	0.0060679684	-0.0063006757	-0.0077874665	-0.0003437929	0.0054330770	0.0064855944	0.0049383002	0.0090188878	0.0045379996	-0.0038632688	-0.0067322673	-0.0012999241	-0.0015669829	-0.0012843639	-0.0008639813	0.0014471592	0.0026308491	0.0025342696	-0.0022096178	0.0000689323	-0.0024707445	-0.0015981391	-0.0019562002	-0.0033319648	-0.0004943203	-0.0061712377	-0.0022994401	-0.0026079179	0.0014084111	0.0019586904	0.0023740474	0.0016632079	0.0006885690	0.0008710676	-0.0005134362	0.0022554591	-0.0001183225	0.0010321122	-0.0049430197	0.0031477183	-0.0036497510	-0.0020802908	0.0004219652	0.0008092995	0.0030326243	-0.0073052845	-0.0039050027	-0.0033091046	-0.0015492879	0.0048299637	0.0044426257	0.0003142835	-0.0041698036	-0.0002488509	-0.0008743301	-0.0014170494	-0.0001286698	0.0015885226	0.0034238813	-0.0033884707	-0.0036427067	0.0020226210	0.0029481426	-0.0003798332	-0.0005727029	-0.0000318541	0.0003356681	0.0016053887	0.0035026465	0.0041799173	0.0034543937	0.0001893201	-0.0021774415	-0.0017894239	-0.0064923125	-0.0040871534	-0.0064938818	0.0001338452	-0.0012259466	-0.0012620576	0.0029707947	-0.0011974610	-0.0003678876	-0.0036402552	-0.0059476132	-0.0016925676	-0.0023091750	-0.0002218561	-0.0016154001	0.0049978178	0.0052610813	0.0019444778	0.0001519918	-0.0018146478	0.0034462796	0.0047946642	-0.0005666343	-0.0081515489	0.0010665959	0.0063683758	0.0036534350	-0.0046786107	-0.0015798132	0.0049583991	0.0037653588	0.0052595623	0.0037173189	0.0039742691	0.0041734097	0.0041642291	0.0057364893	0.0020053841	-0.0006510473	-0.0044418662	-0.0033814763	-0.0016791627	0.0030547602	0.0005382821	-0.0010332309	-0.0012174889	-0.0016773264	0.0000346340	-0.0001594662	0.0004110796	0.0011456548	0.0008663104	0.0004972101	-0.0004036308	-0.0002292630	0.0000428557	-0.0005541134
0.0002184300	-0.0022056215	-0.0039952844	-0.0062903129	-0.0069494755	-0.0048262989	-0.0044000787	-0.0027527239	-0.0002756276	-0.0016607046	-0.0048317644	-0.0036521081	-0.0050367774	-0.0024607105	0.0009799404	0.0024959859	0.0031759744	0.0015900165	0.0035544320	0.0035165711	0.0036613417	0.0030801254	0.0045891656	0.0064509721	0.0020520794	0.0012277460	0.0066013839	0.0038403119	0.0032127742	0.0048491377	-0.0051190918	-0.0015904974	0.0045431904	0.0030896207	-0.0021007864	-0.0033508579	-0.0017152578	-0.0006048063	-0.0000500851	-0.0004517201	-0.0030569937	0.0021289522	0.0006718455	0.0048181056	-0.0026030310	0.0000869981	-0.0015885350	-0.0020446824	0.0027331307	0.0030491410	0.0032269852	-0.0010453290	0.0067544430	-0.0045675579	-0.0048422813	0.0026520030	-0.0000053453	0.0161268543	0.0105101811	0.0126626855	0.0017666682	0.0038347675	0.0134194382	-0.0040444480	0.0035837698	0.0105325840	0.0106389299	0.0215614028	0.0200521387	0.0234931353	0.0090546906	-0.0028968751	0.0092766248	0.0003977614	0.0184137318	0.0116072940	0.0041710092	0.0024364691	0.0131484345	0.0237512719	0.0338886641	0.0006875992	-0.0051257899	-0.0145912003	-0.0154674342	-0.0005290059	0.0165702309	0.0018904184	-0.0032821125	-0.0036134557	0.0021098342	0.0165012423	0.0166764539	0.0073391418	-0.0116485627	-0.0001674105	0.0065280199	0.0154327890	0.0197119936	0.0165659599	0.0124726258	0.0013400475	0.0007048207	-0.0010722335	0.0101335822	0.0026130159	-0.0082371403	-0.0000370536	-0.0002067030	0.0009527769	0.0006741226	0.0044626966	-0.0022704608	0.0026951856	0.0021256984	-0.0003689381	-0.0035944283	0.0008996141	-0.0052247769	-0.0003536991	-0.0006231610	0.0030985447	0.0033594077	0.0027931361	0.0018667403	0.0014054057	0.0029037658	-0.0000835013	0.0020447979	-0.0002473013	-0.0006069259	-0.0052002976	-0.0015361961	-0.0034551444	-0.0094410656	0.0016662902	0.0012969486	0.0066500213	-0.0042318138	0.0043226765	-0.0025962826	-0.0035149981	0.0051391600	0.0050082058	-0.0025765351	-0.0015770198	-0.0005494741	0.0006232989	0.0005613918	0.0013596313	0.0002521215	0.0023623353	0.0012965492	0.0013206279	0.0011667141	0.0011904683	-0.0007134656	-0.0008423312	-0.0037141494	0.0024430621	0.0038434952	0.0063021863	0.0087153222	0.0097177448	0.0050803982	0.0020501944	-0.0012752176	-0.0063231648	-0.0106618758	-0.0054778932	-0.0009092696	-0.0017546583	-0.0033186795	0.0000634926	-0.0042431639	-0.0034231781	-0.0010356116	-0.0030913460	-0.0008210531	0.0007518271	-0.0017414873	0.0008054242	0.0077117961	0.0034078462	0.0010924090	-0.0007761482	-0.0006271391	0.0060227308	0.0054484345	-0.0011549750	-0.0039887428	0.0051768990	0.0034320122	-0.0004267280	-0.0023086851	0.0035073487	0.0053171469	0.0051440964	0.0069179418	0.0063676951	0.0045037875	0.0046028607	0.0051982310	0.0038757345	0.0059991782	0.0024251256	-0.0010041253	0.0014167605	-0.0037041921	-0.0020550247	-0.0024521484	-0.0016250282	0.0012982375	-0.0023528771	-0.0040633059	0.0014824114	-0.0000691908	-0.0001416700	-0.0007149617	0.0021850881	-0.0002592075	0.0007059599	-0.0009957418	-0.0002967044
0.0017967192	0.0009214723	-0.0022360873	-0.0028925282	-0.0014287170	-0.0032770014	0.0010789775	0.0000489361	0.0015996036	-0.0013075569	-0.0018914585	-0.0034260238	-0.0056654303	-0.0009405963	-0.0005110823	0.0014547806	0.0019235336	0.0016251255	0.0029164036	0.0035778650	0.0037898207	0.0046455110	0.0053232713	0.0070537571	0.0059727794	0.0040223319	0.0047689551	0.0048701316	0.0061689131	0.0016004909	0.0005554941	0.0005725058	0.0060228761	0.0023784321	-0.0008942187	-0.0018600905	-0.0011874560	0.0003396431	0.0006357253	0.0005321215	-0.0020302339	0.0024100011	0.0020466163	0.0078882258	0.0005136447	0.0046613230	-0.0024244473	0.0011924257	0.0082153613	0.0053673014	0.0093059149	0.0006188095	0.0054764301	-0.0029944652	-0.0019315078	-0.0063463356	-0.0126161259	0.0127818501	-0.0037287653	-0.0040064948	-0.0097091114	0.0063024610	0.0184555426	-0.0050656344	-0.0078330012	0.0017504748	-0.0009509502	-0.0052730478	-0.0044084322	0.0186178647	0.0121033974	0.0029605383	0.0082541723	0.0072145117	0.0154016661	0.0070738569	-0.0003315290	-0.0060448139	-0.0016307863	0.0070461254	0.0037077274	-0.0262756385	-0.0214475393	-0.0290928744	-0.0115501164	0.0157866627	0.0069312407	-0.0067518763	0.0079077305	-0.0063291220	-0.0223924834	-0.0157091785	-0.0064977747	-0.0182487108	-0.0211050157	-0.0001020057	0.0056432532	0.0016439492	0.0041045030	0.0058410317	0.0124080572	0.0003624605	0.0016440586	0.0108829262	0.0278112702	0.0009172619	-0.0042907200	-0.0074556461	-0.0083553288	0.0054293494	-0.0066179289	0.0019429817	-0.0004206195	0.0022484153	-0.0003378931	0.0001556053	-0.0022420469	-0.0010694470	-0.0034465892	-0.0019715982	-0.0011103600	0.0019590603	0.0027023898	0.0021834555	0.0012563219	0.0015224495	0.0028624854	0.0000356929	0.0035727336	-0.0004744422	0.0017882428	-0.0039192284	0.0034604194	-0.0032204352	-0.0080037722	-0.0040219058	-0.0040214374	0.0041200542	-0.0019247577	0.0062639080	0.0022568160	-0.0040864209	-0.0007508738	0.0012264508	-0.0004793953	-0.0016225015	0.0004451313	0.0002770126	-0.0000880768	0.0015914524	0.0029235911	0.0032711704	0.0029815191	0.0019852195	0.0021071960	0.0015951466	-0.0010194223	-0.0011183562	-0.0084036170	-0.0035756771	-0.0012005623	0.0024192778	0.0067037391	0.0104677202	0.0057523558	0.0029692452	-0.0009699325	-0.0046692328	-0.0072056074	-0.0048077079	-0.0062378962	-0.0038318599	-0.0033482730	-0.0039000837	-0.0024519763	-0.0060160086	-0.0019836158	-0.0038391545	-0.0016579465	-0.0006321195	-0.0005903922	0.0015064168	0.0027352101	-0.0000118209	-0.0004535913	-0.0005337493	0.0049925339	0.0073714312	0.0044061127	-0.0003723486	-0.0044194134	0.0015962179	-0.0002921288	0.0018831758	0.0047832630	0.0074000335	0.0049519357	0.0024196687	0.0026410278	0.0033205142	0.0045274934	0.0059194127	0.0061247796	0.0044497363	0.0058634738	0.0009130953	0.0024695992	0.0049407156	-0.0008201186	0.0011308852	-0.0041026981	-0.0018951753	0.0027645023	-0.0032951138	-0.0012185768	-0.0012441899	-0.0052239117	0.0016898025	-0.0033797743	0.0010067902	0.0001762948	0.0002673635	-0.0006908386	0.0009648326
0.0019981591	0.0016607672	-0.0038159101	-0.0015965715	0.0016833053	-0.0025091404	0.0039942921	0.0042898902	0.0044208132	0.0001627324	0.0031843386	0.0000044441	-0.0022047544	0.0023603272	0.0021849289	0.0026934464	0.0051383595	0.0037720983	0.0037032082	0.0040537785	0.0029006691	0.0018350151	0.0094985599	0.0078077461	0.0096133649	0.0083348490	0.0056608035	0.0060989852	0.0081192954	0.0002461418	0.0033159652	0.0059912503	0.0084398994	0.0060784142	0.0030824612	0.0012782860	-0.0005807150	0.0003534557	0.0011792327	0.0021381506	-0.0007854584	0.0019348889	0.0009849450	0.0062285224	-0.0022179172	0.0063752765	0.0036606649	0.0047826776	0.0115118455	0.0006763691	0.0000403310	0.0013761934	0.0152718639	-0.0005500186	0.0023470551	-0.0050936062	0.0076144561	0.0470737368	0.0132559324	0.0087504890	0.0178603753	0.0274173450	0.0197819993	-0.0049656155	-0.0034026899	-0.0022745465	-0.0109012388	-0.0189331640	-0.0170383994	0.0085472353	0.0132991467	0.0067794248	0.0060830321	0.0082664611	0.0089641055	0.0005246701	0.0037619681	-0.0031523313	0.0123349037	0.0194151755	0.0138670234	-0.0196568798	-0.0102324039	-0.0131367557	0.0126023972	0.0501087531	0.0165521037	-0.0295928568	-0.0159244686	-0.0252529196	-0.0396992266	-0.0148878070	0.0001198505	-0.0160479415	-0.0146436132	0.0101166461	0.0172813796	0.0032710489	0.0052860207	-0.0005211368	0.0136733744	0.0110547729	0.0180122871	0.0137104159	0.0217880867	-0.0066698305	-0.0056781503	-0.0130199809	-0.0105423080	0.0063032615	-0.0041727512	-0.0004893496	0.0026569800	0.0050855135	0.0020695808	0.0027296615	0.0030299779	0.0022146611	0.0025374009	0.0041868472	0.0022306014	0.0027861963	0.0035981422	0.0037785161	0.0040180865	0.0028536564	0.0039271200	0.0002715383	0.0055804285	-0.0011151244	0.0006826131	-0.0063112420	0.0050081094	-0.0034445771	-0.0079380646	-0.0037605120	-0.0075719259	-0.0025303676	-0.0061133411	0.0041329381	0.0030240286	-0.0022408562	0.0030527383	0.0043109003	0.0075667100	0.0010856024	0.0028169283	0.0017381363	0.0027300697	0.0035412838	0.0059215706	0.0069059539	0.0040225312	0.0009462746	0.0007566170	0.0022691884	0.0006414443	-0.0007394977	-0.0057129129	-0.0029678212	-0.0022574102	0.0011285266	0.0056119990	0.0103654945	0.0089740213	0.0067527746	0.0106540909	0.0030388071	-0.0007892581	0.0003109214	-0.0050311643	-0.0026780991	0.0007471819	-0.0011100660	0.0045372685	0.0011536945	0.0019922536	-0.0011191387	0.0018966773	-0.0000529733	0.0025257217	0.0043909717	0.0017950202	0.0021452452	0.0053758770	-0.0002966844	0.0038646879	0.0016093208	-0.0023241581	-0.0018670034	-0.0029633215	0.0041222493	0.0028377427	0.0027727154	0.0032052610	0.0038843830	0.0019493066	-0.0026537967	-0.0024801721	0.0025140243	0.0071330289	0.0051784082	0.0052336040	0.0048301378	0.0065998980	-0.0020534378	0.0023223343	0.0080039836	0.0046276441	0.0040682405	-0.0051937136	-0.0047476818	0.0050558960	-0.0011269430	0.0039043629	0.0003657507	-0.0034052683	0.0029814597	-0.0030667561	0.0013245412	0.0025938884	-0.0008274995	-0.0002292907	0.0015692568
0.0011340705	0.0002022918	-0.0004314847	-0.0006133857	0.0044155549	0.0029894265	0.0041893916	0.0048948661	0.0080320193	0.0017811855	0.0021851843	0.0007520589	-0.0002716450	0.0018370311	0.0002256887	0.0016363345	0.0012289796	0.0006334654	-0.0011373358	-0.0006885006	-0.0007741785	0.0008394545	0.0002748136	0.0038951254	0.0018300950	0.0018447364	0.0066518588	0.0032001424	0.0069762506	0.0043354942	0.0028713981	0.0028746936	0.0076444577	0.0061802170	0.0053535248	0.0042454931	0.0026222502	0.0031096728	0.0028427429	0.0012813950	-0.0030493811	0.0009294102	-0.0006923982	0.0027869667	-0.0048481557	0.0013271308	0.0008181415	0.0081723910	0.0155799072	0.0030373074	-0.0025473882	-0.0038782898	0.0179850869	-0.0026730648	-0.0104178069	-0.0146480426	-0.0012654569	0.0345907398	-0.0077444287	-0.0108112739	0.0131270066	0.0241597947	0.0011647522	-0.0170262717	-0.0043360246	0.0052099512	0.0057656141	-0.0048703072	-0.0208362937	-0.0121322274	0.0047904905	0.0004123012	-0.0018988871	-0.0036971327	-0.0168651845	-0.0231787991	-0.0121863354	-0.0179882813	-0.0285823680	-0.0086339759	0.0040668501	-0.0112233926	-0.0065393443	-0.0208300985	-0.0228354502	0.0306517631	0.0076719001	-0.0341111571	-0.0199816879	-0.0165108498	-0.0263584908	0.0028583501	0.0124483723	0.0053597526	-0.0169149525	0.0042675566	0.0186017789	0.0194190443	0.0024488335	-0.0105069242	0.0080461008	0.0123175010	0.0239918064	0.0067456691	0.0104955081	0.0086881490	0.0056683631	-0.0025509547	0.0038153860	0.0160779953	0.0018916789	0.0062604658	-0.0000432221	0.0031289642	0.0029431514	0.0002109914	0.0003226065	0.0005558325	-0.0024871479	0.0000411224	-0.0001922160	0.0013912206	0.0021028030	0.0027182554	0.0027339195	0.0017644867	0.0013287771	0.0007124861	0.0021649620	-0.0015547388	0.0009346299	-0.0025154375	0.0025574742	-0.0043678125	-0.0039168056	-0.0024484452	-0.0040893606	-0.0044772252	-0.0157728326	-0.0080236113	-0.0047762226	-0.0022114292	0.0003610421	0.0011571196	0.0006639842	-0.0020795104	0.0008247215	-0.0012563934	0.0002541707	0.0010583630	0.0002298543	0.0031270790	0.0021945040	0.0021228311	0.0009086885	0.0009805363	-0.0001726360	-0.0007117023	-0.0049361475	-0.0033230120	-0.0030335239	-0.0010551908	-0.0007748614	0.0000024276	-0.0020228392	-0.0005938401	0.0010338505	0.0024384246	-0.0069534723	-0.0018568361	0.0000451138	-0.0026552062	-0.0001493730	-0.0004217677	-0.0007891359	-0.0018158816	-0.0012086008	-0.0022698406	-0.0017568115	0.0009457736	0.0005012062	0.0014724592	0.0008560010	-0.0007586165	0.0014463334	-0.0018463089	-0.0023043170	-0.0044987351	-0.0036569459	-0.0011110781	-0.0000290619	0.0038312550	-0.0000531843	-0.0017673321	-0.0064321877	-0.0050759432	-0.0021307583	-0.0019554882	0.0009377906	0.0027075990	0.0050969962	0.0020748132	0.0007387194	-0.0002870420	0.0026201133	-0.0021086421	-0.0020765683	0.0036655287	0.0078696776	0.0042633461	-0.0047751805	-0.0059294305	0.0028873342	0.0015388404	0.0048709642	0.0039232569	0.0016956463	0.0037796604	-0.0010328060	0.0028181253	0.0009881085	-0.0009513354	-0.0003989066	0.0004847558
0.0020079068	-0.0009174009	0.0007511730	0.0020632904	0.0035260615	0.0042482754	0.0065203486	0.0065190513	0.0062136394	0.0038945505	0.0040683006	0.0016782166	0.0006560412	0.0028480974	0.0016651016	0.0010450508	0.0022693269	0.0011807997	0.0005965627	0.0008407869	0.0002449225	0.0014437420	-0.0003713230	0.0027703969	0.0018014295	-0.0002809409	0.0056539886	0.0035705315	0.0043884087	0.0050957082	0.0042563989	0.0025012577	0.0085468898	0.0088117411	0.0089142174	0.0079240929	0.0062236204	0.0056132590	0.0025617245	0.0009525221	-0.0042036683	0.0013591095	-0.0031778598	0.0014673928	-0.0048672156	0.0021801027	-0.0057329834	0.0040100003	0.0145170633	0.0030802111	0.0057524480	0.0064066569	0.0129998373	-0.0089513073	-0.0118264519	-0.0137648787	-0.0048357211	0.0298052616	-0.0227314625	-0.0225918069	0.0139537174	0.0361211076	0.0149892475	0.0032600421	-0.0088639092	-0.0200397074	0.0040163733	0.0104253329	-0.0179262329	-0.0300160442	-0.0010643665	-0.0109326160	0.0171047170	0.0073324945	0.0008256967	-0.0065101208	0.0009667282	-0.0241472274	-0.0394954644	-0.0041357898	0.0232355352	0.0262624156	0.0199456643	-0.0063312994	-0.0300393421	0.0136416107	-0.0056222752	-0.0169616416	0.0086992942	-0.0310112331	-0.0444139689	-0.0080790743	-0.0109796422	-0.0205589700	-0.0406419821	-0.0140514048	0.0043785218	0.0314756520	0.0289184954	0.0047383639	0.0328644663	0.0224467721	0.0137702776	0.0045611998	-0.0038941654	0.0091126570	0.0043136436	-0.0153742880	-0.0031311945	0.0149759129	-0.0029398496	-0.0025800690	0.0041344906	0.0065917270	0.0077024130	0.0069057033	0.0036608167	-0.0003432935	-0.0020196713	-0.0011662291	-0.0040565189	0.0002641139	0.0008182631	0.0011942115	0.0022314941	0.0015749544	0.0017439390	0.0023985882	0.0022250346	-0.0017973185	-0.0012123124	-0.0010810706	-0.0034121899	-0.0058438191	-0.0011768922	-0.0009130223	0.0002174119	0.0079383636	0.0019046236	0.0068953410	0.0099543780	0.0044535045	-0.0008627387	-0.0012904765	-0.0012277991	-0.0002863726	0.0043676021	0.0012022041	0.0004323007	0.0024779348	0.0017275296	0.0021440333	0.0030291148	0.0022597834	0.0007477744	0.0012018217	-0.0007893490	-0.0010250849	-0.0053307577	-0.0019400446	-0.0001856992	0.0084156040	0.0093725361	0.0018338546	0.0022264523	-0.0033712862	-0.0059156488	0.0007833478	-0.0056042704	-0.0025709108	0.0012208828	0.0026266174	-0.0010480961	0.0017262109	0.0032157954	-0.0010855243	-0.0022378734	-0.0024548105	-0.0013966620	0.0018825470	0.0029349048	0.0011387899	0.0037091586	-0.0015785764	0.0015260890	0.0008447478	0.0006176403	0.0049849115	0.0085533056	0.0075129555	0.0033763137	0.0024402179	-0.0035426763	-0.0026727589	-0.0061487951	-0.0026981868	0.0018429393	0.0040782304	0.0067093903	0.0050690202	0.0035583384	0.0028232215	0.0017439657	0.0024082016	0.0000592264	-0.0003013443	-0.0019555292	-0.0028256951	0.0062465915	0.0071002371	-0.0041637341	-0.0055333278	-0.0026112134	-0.0007939346	0.0041290675	0.0037238069	0.0028546338	0.0047650202	0.0002859213	0.0023982564	0.0014901703	-0.0011416666	-0.0003413437	0.0006311911
0.0017525395	0.0016552689	-0.0017766772	0.0051449612	0.0035114323	0.0033243829	0.0065323999	0.0065154042	0.0075953184	0.0046457788	0.0034904650	0.0025331276	0.0023549392	0.0015893804	0.0026249748	-0.0008017319	0.0011499501	0.0001236046	-0.0003169948	0.0004196965	-0.0011188067	0.0000554316	0.0010116297	-0.0005015877	0.0005800899	0.0039140717	-0.0013960360	0.0031473890	0.0013720893	0.0021588772	0.0018786254	0.0021475921	0.0078993794	0.0087896995	0.0096279075	0.0073354049	0.0032467565	0.0026184409	0.0025166655	0.0023124889	-0.0028459993	0.0025585345	-0.0027281230	0.0049108509	-0.0017030243	0.0065532038	-0.0002298085	-0.0012037016	0.0090839136	0.0069944900	0.0192254670	0.0207686406	0.0069841221	-0.0176146477	-0.0134434383	0.0019119577	0.0201714691	0.0491021872	-0.0029017930	-0.0082712043	0.0378969088	0.0482482687	0.0007024659	0.0006219179	-0.0103167389	-0.0522928312	-0.0342982039	0.0021600239	-0.0088753542	-0.0356373601	-0.0060200510	-0.0227216072	-0.0071793892	-0.0188259929	-0.0098880278	-0.0088813063	-0.0114620831	-0.0327876918	-0.0291633364	0.0170869343	0.0476384722	0.0361047313	0.0137627497	-0.0067525348	-0.0223816093	0.0213056188	0.0106844958	-0.0106869759	0.0113749960	-0.0552685931	-0.0518036969	0.0028868490	-0.0325513370	-0.0407192595	-0.0454501137	-0.0309198014	-0.0227872618	0.0187146422	0.0312825330	0.0280248616	0.0529988408	0.0178045481	-0.0002581009	-0.0059537813	-0.0141201224	-0.0003444846	-0.0063921791	-0.0262993108	-0.0158255696	-0.0006011155	0.0027146111	-0.0061530131	0.0106587792	0.0078259055	0.0100726318	0.0108914934	0.0043455786	0.0033505508	-0.0003409403	0.0015011270	-0.0020113520	0.0010321605	0.0015345702	0.0017614607	0.0027956620	0.0019595444	0.0026064902	0.0008102993	0.0039084931	0.0007940377	-0.0026317921	-0.0030050823	-0.0004430790	-0.0012459178	-0.0071238913	-0.0005945269	0.0032531938	0.0092629474	0.0196850542	0.0213977676	0.0200005211	0.0104397628	0.0054752389	-0.0002085637	0.0005511653	0.0023554363	-0.0023842084	0.0013690746	0.0003886105	-0.0006548588	0.0003501927	-0.0006144706	-0.0003207321	-0.0002004297	-0.0003078209	0.0000068018	-0.0024773788	-0.0022790129	-0.0062541803	-0.0037013039	0.0035723438	0.0126557881	0.0165594090	0.0127139846	0.0141008403	0.0054740161	0.0055560404	0.0017986877	-0.0059197838	0.0049932506	-0.0035383268	0.0049482915	-0.0011111232	-0.0000254044	0.0018755265	-0.0007703130	-0.0028970658	-0.0027424726	0.0005356324	0.0008641127	0.0018465597	0.0038035207	-0.0002520295	-0.0016210015	0.0001901556	0.0002622745	0.0040892661	0.0039310288	0.0025549028	0.0013203565	-0.0072015007	-0.0034616210	-0.0038815443	0.0021137428	0.0025411649	0.0023449324	0.0037152208	0.0058268788	0.0022341628	0.0022814418	-0.0000549816	0.0013946177	0.0009134181	0.0000949565	0.0009571385	-0.0007810612	-0.0029698117	-0.0060487376	0.0029505095	0.0087091392	0.0012841203	-0.0074586514	-0.0026045942	-0.0022120527	0.0007181323	0.0031342551	0.0046167127	0.0020263661	0.0028370109	0.0006004283	0.0025599059	-0.0007538737	-0.0001257409	0.0008399478
-0.0006984078	0.0013203195	-0.0015235342	0.0011451815	0.0030186456	0.0022989658	0.0045321481	0.0041246982	0.0052588545	0.0043789288	0.0019760909	0.0018294512	0.0022235778	0.0004635244	0.0025417628	0.0005158061	0.0014748982	0.0018114933	0.0019722262	0.0020140717	0.0003459122	0.0012206500	-0.0004539001	0.0040247771	-0.0025079460	0.0028522594	-0.0009222345	-0.0014885366	0.0016465742	0.0005040608	-0.0015612257	0.0013896787	0.0060117980	0.0069813300	0.0074822814	0.0062575480	0.0035560192	0.0041864803	0.0031324027	0.0028408994	-0.0010597866	0.0003660034	-0.0075105857	0.0014431321	-0.0034117550	0.0072504450	0.0003533675	-0.0069916798	-0.0001004068	0.0105718467	0.0314008407	0.0176882874	-0.0066977651	-0.0162699576	-0.0004025702	0.0040501016	0.0068076313	0.0249380544	-0.0271302275	-0.0294878799	0.0210432541	0.0457096696	-0.0157075748	-0.0108874440	-0.0078801122	-0.0610828400	-0.0431954078	0.0129095949	-0.0077126403	-0.0483466834	0.0159679428	-0.0081754485	-0.0153745199	-0.0288352482	-0.0047357664	-0.0060226046	-0.0316852592	-0.0358216092	-0.0257337671	0.0095867021	0.0238594897	0.0035043475	-0.0181612801	-0.0088333888	0.0051854374	0.0423932672	0.0048878239	-0.0415966101	-0.0139453597	-0.0554142259	-0.0307500884	0.0216314178	-0.0141154639	-0.0155878644	-0.0232620146	-0.0144453039	-0.0128714507	0.0074659307	0.0094399350	0.0045696674	0.0288472697	0.0078332368	0.0195004847	0.0136630796	-0.0070519904	-0.0125382328	-0.0289625842	-0.0309552401	-0.0121884868	-0.0020180226	0.0022983844	0.0003433962	0.0044454928	0.0002637672	0.0062809428	0.0036827673	0.0025120827	0.0024546366	-0.0048778807	-0.0026465522	-0.0072467308	-0.0028784964	-0.0033148443	-0.0035869670	-0.0029747258	-0.0024224964	-0.0015722453	-0.0019044664	-0.0018245343	0.0013712801	-0.0028396058	-0.0024696090	-0.0017912998	0.0011796632	-0.0085953306	-0.0034199706	0.0056179897	0.0065435804	0.0135005079	0.0193620566	0.0180200748	0.0141527886	0.0092655849	0.0034149941	0.0000882156	0.0027195229	-0.0020527504	-0.0003080031	0.0031770437	0.0002643045	0.0024229805	0.0026473084	0.0013203071	0.0017857248	0.0024976002	0.0021268493	0.0010072151	-0.0005944289	-0.0089559183	-0.0060932245	0.0007453458	0.0048308684	0.0059183454	0.0055329492	0.0118706366	0.0026691034	0.0045590978	0.0046250513	-0.0074091950	0.0080010900	-0.0008535882	0.0000299768	0.0006880979	-0.0015506324	-0.0015769568	0.0015695683	0.0009673893	0.0009907219	0.0033236190	0.0044776979	-0.0013793517	0.0013346344	0.0004368945	-0.0023670732	0.0035144466	0.0006216626	0.0023545134	-0.0016588329	-0.0051207785	-0.0037071768	-0.0108510032	-0.0028809742	0.0013113534	0.0082257073	0.0070577771	0.0063278587	0.0036040670	0.0044973842	0.0021544197	0.0013010616	0.0008931775	0.0017915264	0.0023346010	-0.0005191315	0.0012980431	0.0013230831	-0.0013599501	-0.0047455104	-0.0001552361	0.0063685924	0.0072838636	-0.0070647122	-0.0046487451	-0.0004987931	-0.0009456809	0.0012657284	0.0046890182	0.0003965271	0.0001960032	0.0008179859	0.0016564976	-0.0010248515	-0.0005708003	0.0005107048
0.0003833539	-0.0006899426	-0.0008269410	0.0008287732	0.0005581490	0.0004558319	0.0021620714	0.0029998925	0.0028134189	0.0023761122	0.0032561917	0.0000094939	0.0011429394	0.0009242729	0.0005649660	0.0000324866	0.0018102386	0.0014969901	0.0017544553	0.0014161086	0.0002524479	0.0003133215	0.0001336166	-0.0003215750	-0.0007773899	0.0004155081	-0.0003457890	-0.0018446050	-0.0005506516	0.0001731286	-0.0026641786	-0.0008085349	0.0026560619	0.0031092828	0.0029337644	0.0027453620	0.0028212741	0.0040630200	0.0024579978	0.0027846820	0.0005290598	0.0021471367	-0.0040383255	0.0001011788	-0.0022118308	0.0146960085	0.0016609215	-0.0095821945	0.0005773426	0.0073039522	0.0194589514	0.0004950690	-0.0167474095	-0.0048193615	0.0086623803	-0.0096501391	-0.0103086811	0.0042294841	-0.0462819077	-0.0508081056	0.0051787756	0.0427166224	-0.0184465554	-0.0093013123	-0.0073821293	-0.0348126702	0.0005589282	0.0333807133	-0.0065309685	-0.0429933034	0.0217429381	0.0069146357	-0.0024556811	-0.0277993362	0.0047888039	0.0019179923	-0.0326065235	-0.0239237659	-0.0265371203	0.0027048215	0.0078761727	-0.0220983047	-0.0272290483	-0.0134736830	0.0075587239	0.0287129693	-0.0363509171	-0.0620180517	-0.0057159034	-0.0262610819	-0.0176599603	0.0116039002	-0.0319383554	-0.0338256210	-0.0299925804	-0.0121162981	-0.0106008183	0.0022828432	0.0034315675	-0.0192318484	-0.0080106631	-0.0078870961	0.0084603326	0.0316023193	0.0101991091	-0.0104114115	-0.0247370079	-0.0243563354	-0.0008070562	0.0017171610	-0.0068700137	-0.0093171112	-0.0001784313	-0.0019357074	0.0024173842	0.0007357921	0.0026109370	0.0022779268	-0.0004636424	0.0013781367	-0.0031772964	-0.0009701147	-0.0015706639	-0.0029516881	-0.0025845331	-0.0019028091	-0.0019583392	-0.0014928349	-0.0008619368	-0.0020187185	-0.0029236788	-0.0012081109	-0.0028715201	-0.0019745429	-0.0041308482	-0.0044692643	0.0031288129	0.0045276769	0.0050142840	0.0110294940	0.0154249547	0.0119881397	0.0073106377	0.0029869669	0.0003040349	0.0006089354	0.0016180784	-0.0007264329	0.0018928706	0.0019092059	0.0011518175	0.0008865877	0.0014650754	0.0015611803	0.0023318033	0.0032015298	0.0019677179	0.0010410511	-0.0062354426	-0.0042234082	0.0016211334	0.0039115297	0.0045685219	0.0031564683	0.0116535602	0.0065162522	0.0054561584	0.0031432204	-0.0021666335	0.0001721177	-0.0054372195	-0.0027932480	-0.0034940429	-0.0017392578	-0.0000113075	0.0015328587	0.0015345128	0.0003492528	0.0033755880	0.0032858672	0.0013029783	0.0011806227	0.0048147370	0.0015923154	0.0025655767	-0.0019072602	-0.0031276336	-0.0093977125	-0.0083398456	-0.0032332963	-0.0061159786	-0.0013920283	0.0017858781	0.0031583570	0.0033547268	0.0053158836	0.0049740905	0.0030915500	0.0021941457	-0.0003833305	0.0000405565	0.0015398193	0.0002460942	0.0011932019	-0.0005126515	-0.0013103398	0.0029360526	-0.0034345221	-0.0024127688	0.0058606174	0.0044564861	-0.0035529356	-0.0046304390	-0.0037061418	-0.0002668574	-0.0032364978	0.0003470408	-0.0002222077	-0.0023991121	0.0009715734	0.0023196952	-0.0010312670	-0.0006483002	0.0000839855
0.0041870428	0.0009542872	-0.0014237307	0.0012833512	-0.0002859694	-0.0001220469	0.0019559597	0.0007005784	0.0052580573	0.0007477162	0.0005024847	0.0021670684	0.0009900295	0.0003688537	-0.0002619860	0.0017216430	0.0015699808	0.0004739308	-0.0001973248	0.0017917717	-0.0021397313	-0.0003990788	-0.0016667976	-0.0060425922	-0.0024399466	0.0015887980	-0.0009278298	0.0042796605	0.0003052405	-0.0002052143	-0.0038782465	0.0001985096	-0.0003910251	0.0011652741	0.0046595060	0.0050402554	0.0030216537	0.0064561786	0.0055641439	0.0055479500	0.0006923520	0.0036201123	0.0084997993	0.0122377565	0.0021704631	0.0116560105	0.0043908833	0.0020939084	0.0320030488	0.0212841053	0.0107311476	0.0055349031	0.0146590415	0.0012548541	0.0097587192	-0.0020893803	0.0162721258	0.0020537057	-0.0452597290	-0.0255341791	0.0332509913	0.0451976731	-0.0111301197	-0.0069316495	-0.0285636373	-0.0222443808	0.0016349391	0.0090283537	-0.0107363015	-0.0447274074	0.0436147377	0.0299160723	0.0055134026	-0.0170522481	0.0296612196	0.0153159052	-0.0218958016	-0.0245654471	-0.0558505170	-0.0247646756	0.0010892230	-0.0263908245	-0.0301216654	-0.0548948199	-0.0368774123	0.0084715653	-0.0173837822	-0.0387584120	-0.0020067957	-0.0055987528	-0.0180306789	-0.0067478111	-0.0265820716	-0.0250688680	-0.0018573240	0.0008606648	0.0057005454	0.0080412980	0.0014969885	-0.0122850342	0.0046128947	-0.0153275039	-0.0121767595	0.0245155003	0.0290787444	0.0145428674	0.0093406141	-0.0023332033	-0.0017679711	0.0040035197	-0.0113698356	-0.0124788489	-0.0067194742	-0.0043327399	-0.0037441819	-0.0007409670	0.0028830185	0.0022947583	-0.0044181538	0.0037546817	-0.0014253601	-0.0022315420	-0.0034550643	-0.0037365260	-0.0028056414	-0.0021850197	-0.0023132616	0.0007068942	-0.0007523524	-0.0034441473	-0.0038687855	-0.0007594073	-0.0021222658	-0.0024696356	-0.0015636677	-0.0029252209	-0.0028340097	0.0036093255	0.0020584911	0.0070692301	0.0047331029	0.0060008662	0.0034928499	0.0056739198	0.0023221155	0.0025822597	0.0061227232	0.0067103673	0.0033365288	0.0036754834	0.0036191372	0.0006944226	0.0022064797	0.0030579763	0.0019421263	0.0045306832	0.0036124287	0.0038649708	-0.0020953836	-0.0010217123	-0.0004422530	0.0010479002	0.0008025109	0.0032150839	0.0040876153	0.0044979574	0.0088324631	0.0003910835	-0.0032382933	-0.0033249441	-0.0052659218	0.0002850532	0.0011117287	0.0034076939	0.0077983160	0.0072940481	-0.0008757624	-0.0038461108	-0.0029591022	-0.0012964709	-0.0005946897	-0.0025664829	0.0015744892	0.0052011968	-0.0026637842	-0.0097360509	-0.0052401368	-0.0066894442	-0.0078194905	-0.0031608250	-0.0020370625	0.0014750449	0.0001365783	0.0009956339	0.0038093508	0.0055783503	0.0077983122	0.0027115326	0.0010098399	-0.0011752762	0.0001505037	0.0000326058	-0.0012511545	-0.0013743045	-0.0011389480	-0.0033492439	0.0026240537	-0.0009298790	-0.0044537727	0.0054032849	0.0086353123	0.0033392035	0.0019171297	-0.0002318179	0.0032536781	-0.0010662656	-0.0019854570	0.0019746178	0.0030127564	0.0031367773	0.0008796448	-0.0022432837	-0.0019581451	-0.0011542962
0.0045622443	-0.0002879423	0.0012602716	0.0008552682	-0.0023107231	0.0026037025	0.0017826903	-0.0006406824	0.0047638272	-0.0003606151	0.0016883231	0.0024093781	-0.0021377557	0.0028625363	-0.0038723354	-0.0000935397	0.0010601783	-0.0001906017	0.0005741707	0.0026592405	-0.0012994182	-0.0008631684	-0.0011318317	-0.0041027623	-0.0025380263	-0.0025386615	0.0007253935	0.0016176689	-0.0035982900	0.0025448713	-0.0068511609	-0.0041487622	-0.0040007080	-0.0041563893	0.0001575715	0.0006623304	-0.0011052273	0.0019822307	0.0034832503	0.0035078889	0.0002013493	0.0033824816	0.0047667949	0.0127988765	0.0025729663	0.0035644674	0.0014629581	-0.0061806059	0.0335445516	0.0142947109	0.0163695440	0.0257726405	0.0430045202	0.0178732313	-0.0054789074	-0.0106345043	0.0093032215	-0.0195849352	-0.0325243026	-0.0171479248	0.0390751809	0.0351117626	-0.0313417315	-0.0305854455	-0.0479208268	0.0025452273	-0.0102277100	-0.0161336232	0.0078326678	-0.0402978361	0.0430681556	0.0163360741	-0.0201345701	-0.0002645776	0.0473408960	0.0236612819	-0.0029073544	-0.0209657326	-0.0400136635	-0.0166781470	0.0073541598	-0.0093708029	-0.0109393653	-0.0493215062	-0.0367324799	-0.0012094248	-0.0174787976	-0.0500244647	-0.0264745373	-0.0148629546	-0.0288499277	-0.0048927879	-0.0163841881	-0.0074927583	0.0019658315	-0.0044197123	0.0167108160	0.0108158411	0.0119691491	0.0066222898	0.0019891411	-0.0184239615	-0.0175998658	0.0082364986	0.0204762295	-0.0026405482	-0.0151945567	-0.0126628233	-0.0166703761	0.0031811311	-0.0010513862	-0.0034239634	0.0005948725	-0.0061732596	-0.0055389535	-0.0040591806	-0.0012257190	-0.0031142239	0.0016536006	0.0050675268	-0.0007367358	-0.0015184614	-0.0037069486	-0.0049670176	-0.0042525060	-0.0034641833	-0.0027103089	-0.0020124074	-0.0019431037	-0.0019201753	-0.0053579872	-0.0025059804	-0.0038818202	0.0007820763	-0.0064250007	0.0015266377	-0.0020654323	0.0006794796	0.0005251413	0.0035854531	0.0015954683	0.0024126754	-0.0000579887	0.0002185288	0.0007468935	0.0023372909	0.0022180742	0.0079623945	0.0030591884	0.0034486244	0.0032445078	0.0015071773	0.0035319838	0.0022001015	0.0013463817	0.0020017799	0.0003814318	0.0032885026	0.0024162512	0.0064896750	0.0049089515	0.0037238495	0.0031897405	0.0016596260	0.0017507122	0.0053475830	0.0063970340	0.0028312944	0.0007448115	-0.0059564169	-0.0003023123	0.0001249050	0.0028266725	0.0044374708	-0.0007368869	0.0044017001	0.0052937036	0.0097776772	0.0095577259	0.0086146872	0.0044750096	-0.0003472352	-0.0042829113	-0.0035137113	-0.0047952305	-0.0067568775	0.0037423996	0.0065652402	0.0033586570	0.0022057844	-0.0011014857	0.0008441153	0.0032088107	0.0054219561	0.0055737165	0.0035214485	0.0057420386	0.0032728994	0.0013800338	0.0019817909	0.0030029099	0.0014498476	0.0016323077	-0.0015852221	0.0005155637	0.0009186629	-0.0019569551	0.0023328499	-0.0064103371	-0.0019953027	0.0078453589	0.0042369617	0.0017223454	0.0000836415	-0.0013489934	0.0039139772	0.0000385876	0.0027388693	-0.0000603572	-0.0010733636	-0.0008540775	-0.0021057567	-0.0011850541	-0.0006944643
0.0052209576	-0.0020715464	0.0003861586	-0.0010553818	-0.0042752763	0.0019644070	-0.0032401490	-0.0032586325	0.0021499768	-0.0051745111	0.0012666614	-0.0021706766	-0.0030466071	0.0025381257	-0.0037668650	-0.0012128323	0.0024915165	0.0016969810	0.0012405382	0.0047364570	0.0012216428	0.0016592242	-0.0001106824	-0.0019991226	-0.0011615085	-0.0032155092	0.0032451062	0.0026592619	-0.0007488998	0.0022956613	-0.0073060412	-0.0058497707	-0.0029140753	-0.0054639895	-0.0018779889	-0.0017213362	-0.0029690596	-0.0016639133	-0.0052989363	-0.0048230751	-0.0020282259	0.0022424792	0.0058569396	0.0067468183	0.0041062334	0.0020461958	-0.0133753177	-0.0161364041	0.0088744825	-0.0191829465	-0.0116757210	-0.0003173245	0.0251754895	0.0305919312	-0.0176059660	-0.0317519456	0.0103826188	-0.0101251174	-0.0225245748	-0.0202473905	0.0105173402	-0.0048061637	-0.0086138966	-0.0131982975	-0.0552762747	0.0226930790	-0.0280837491	-0.0089149009	0.0643005148	-0.0233643856	0.0309701469	-0.0152848363	-0.0243451074	0.0343025960	0.0532260984	-0.0048006810	-0.0260004960	-0.0317405537	-0.0239860490	-0.0051599164	0.0079113264	0.0076147364	0.0109911980	-0.0096147750	-0.0092783738	-0.0011627153	0.0014013830	-0.0017749260	0.0138822366	-0.0038987915	-0.0244009774	-0.0153152272	-0.0248137470	-0.0188971702	-0.0050058672	0.0040470576	0.0273722876	-0.0047714869	0.0151169281	0.0147563694	0.0050552990	0.0025756122	0.0052621854	0.0134714600	0.0050431378	-0.0184832606	0.0034477850	0.0035920879	-0.0094024995	0.0117003247	0.0137011521	0.0024562853	0.0007301701	-0.0021589580	-0.0071177878	-0.0075287395	-0.0026354122	-0.0093057752	-0.0089768907	0.0011908354	-0.0026395514	-0.0029789363	-0.0039201295	-0.0045031663	-0.0035434004	-0.0013854705	0.0001248346	0.0040781545	0.0003087822	0.0000651712	-0.0040728436	0.0009906666	-0.0055279876	0.0011992912	-0.0081301322	-0.0020644059	-0.0020749876	-0.0027507951	-0.0084885815	-0.0017533370	-0.0045209681	-0.0022949567	-0.0091834357	-0.0045791999	-0.0070427167	-0.0013020335	-0.0003518988	0.0040388675	0.0035518436	0.0026520493	0.0023986122	0.0020686900	0.0041009947	0.0022387423	0.0023284927	0.0026244784	-0.0019409932	-0.0002926665	-0.0050386051	-0.0000353808	0.0024648609	0.0043887389	0.0014830634	-0.0051875995	-0.0050450973	0.0006822894	0.0005330074	0.0004561358	0.0027227707	-0.0009440032	0.0100969058	0.0079957293	0.0023287258	0.0021682908	-0.0040961383	-0.0013464555	-0.0034324275	-0.0006784077	0.0024612392	0.0049927528	0.0036606463	0.0001216269	-0.0072170463	-0.0022892356	0.0059361402	0.0027280157	0.0037154178	0.0072096307	0.0059582470	0.0039293701	-0.0020036460	-0.0022636154	-0.0076075434	-0.0076126717	-0.0073548974	-0.0070442418	-0.0034091920	0.0026821163	0.0044822856	0.0027434430	0.0012501713	0.0018741550	0.0014173316	0.0033090410	-0.0005624793	0.0020795611	0.0015815534	0.0025858483	-0.0015809045	-0.0046853977	0.0023794891	0.0098264245	0.0041758977	0.0059143025	0.0076249335	0.0067112404	0.0009947598	0.0017291504	-0.0005898696	-0.0016688564	-0.0017391895	-0.0033199035	-0.0021185954	-0.0015517790
0.0050202296	-0.0008578181	0.0011110911	-0.0003905139	-0.0029243410	0.0021193591	-0.0013067239	-0.0024209139	0.0032128000	-0.0036691420	0.0005324981	-0.0012523766	-0.0005827829	0.0011959452	-0.0034580096	-0.0001158265	0.0006527067	0.0013680303	0.0017817826	0.0047368952	0.0010849520	0.0009161052	0.0008542899	-0.0025042566	-0.0030246619	-0.0015753689	0.0016779141	0.0025069788	0.0007782370	0.0014145654	-0.0034891567	-0.0003235334	-0.0010388069	-0.0005977318	0.0039619976	0.0044086943	0.0013541207	-0.0002977245	-0.0084065003	-0.0090865260	-0.0059734248	0.0006538816	0.0088234823	0.0142900217	0.0116949389	0.0062736683	-0.0050057415	-0.0013099298	0.0180261806	-0.0080788489	-0.0015365211	0.0110456403	0.0182518996	0.0139288716	0.0044079465	0.0024128864	0.0207631774	-0.0098151537	-0.0080453968	0.0210279226	0.0071117682	-0.0272542853	0.0090701422	0.0205586702	-0.0185116231	0.0533864386	-0.0279645137	-0.0252641104	0.0593983345	-0.0312522724	-0.0173340291	-0.0203942638	-0.0012957603	0.0480922721	0.0262960978	-0.0343820006	-0.0438852310	-0.0237007476	-0.0223822519	-0.0172393993	0.0068119103	0.0250387378	0.0208982211	0.0137619302	-0.0257086847	-0.0282056369	-0.0030676201	-0.0035087466	0.0001308225	-0.0032446282	-0.0155103244	-0.0266082920	0.0023782449	0.0155180842	0.0140617099	0.0092038475	0.0194682330	-0.0018269140	0.0078712218	-0.0015258088	-0.0129507137	0.0096993651	0.0142091978	-0.0034644133	-0.0230698101	-0.0462877750	-0.0000948440	0.0180718489	-0.0230319500	-0.0074779009	0.0050862692	0.0010712817	0.0046167057	-0.0013991452	-0.0049655423	-0.0035046719	-0.0011686292	-0.0119336871	-0.0093486635	0.0017886702	0.0001424673	-0.0017279946	-0.0026312156	-0.0040287087	-0.0030056899	-0.0010762559	0.0004843590	0.0026081908	0.0019980646	-0.0006955242	-0.0003596168	-0.0006651242	-0.0017168690	-0.0007856282	-0.0015366289	-0.0005872811	-0.0006522824	0.0004798095	-0.0013123919	0.0014291541	-0.0011143808	-0.0000633498	-0.0042346870	-0.0017644734	-0.0025310165	-0.0014849784	-0.0033304279	-0.0021315152	-0.0043387776	-0.0028388789	-0.0011076642	-0.0010312214	0.0013965899	0.0011385799	0.0016384723	0.0011794008	-0.0001987629	-0.0017511679	-0.0031175516	-0.0009012877	0.0000702814	0.0034414956	0.0026317199	0.0031565905	0.0022486441	0.0004022710	0.0045201527	-0.0035863614	0.0007668831	-0.0020099680	0.0040456187	0.0013722354	-0.0006787777	-0.0012241332	-0.0048070764	-0.0078809708	-0.0166461915	-0.0170833413	-0.0144660650	-0.0079544187	-0.0002296659	0.0041048005	-0.0053959936	-0.0011636297	0.0109617915	0.0064363610	0.0054786801	0.0051111025	0.0051773274	0.0027896534	-0.0040231575	-0.0032847691	-0.0062500197	-0.0089246072	-0.0104184952	-0.0095568579	-0.0070945267	-0.0030855120	0.0007920760	0.0012976675	0.0017536854	0.0039397064	0.0030774805	0.0015612697	0.0017905668	0.0006033803	0.0008391386	0.0005377060	-0.0015430999	-0.0013705710	-0.0004107165	-0.0019738954	0.0017360011	0.0043502385	0.0079096258	0.0018931847	-0.0064066122	-0.0033736255	0.0025782268	0.0021597028	-0.0010056052	-0.0018545139	-0.0010432012	-0.0011883627
0.0036825004	-0.0004312137	0.0026953376	-0.0016183524	-0.0049280035	0.0017221260	0.0023635556	0.0013479078	0.0015937778	-0.0007845769	0.0041711861	0.0000504645	0.0008596512	0.0037557404	0.0025834814	0.0015356187	0.0082345158	0.0050733760	0.0048483945	0.0067036478	0.0029815948	0.0008578032	0.0033943513	-0.0049341461	0.0004561591	0.0016888768	0.0006817714	0.0042869477	0.0034451131	0.0032671324	-0.0019145973	0.0046962998	0.0008802155	0.0014976850	0.0060951244	0.0086799916	0.0036046980	-0.0000403817	-0.0112323482	-0.0200171731	-0.0093101412	-0.0072828876	-0.0022618864	0.0076141614	0.0074883155	-0.0018918798	-0.0110994447	-0.0072354507	0.0045832247	-0.0009916667	0.0126551352	0.0327831991	-0.0068265293	-0.0320180506	0.0117646642	0.0001543951	-0.0055656689	-0.0430548228	-0.0237913728	0.0435332656	0.0151884351	-0.0200837888	0.0206732005	0.0204237886	0.0162572786	0.0728738755	-0.0082219550	-0.0553396903	0.0273042992	-0.0026313774	0.0196756385	0.0040621022	0.0081232656	0.0268778689	-0.0037193196	-0.0289203115	-0.0187120885	-0.0234635007	-0.0204044990	-0.0018523498	0.0184775703	0.0482731126	0.0394320711	0.0205876697	-0.0321487598	-0.0472839624	-0.0308293030	-0.0237277113	0.0072714156	0.0362092629	0.0233426951	-0.0021040458	0.0281275325	0.0293887965	0.0195893273	0.0239135362	0.0446128398	0.0316346176	0.0311571583	0.0191491600	0.0006129099	0.0014983211	0.0105867889	0.0111890975	0.0125690736	-0.0148663940	0.0094117690	0.0199197140	-0.0128357038	-0.0251910277	-0.0081330612	0.0052816458	0.0133190202	-0.0034672800	0.0013662481	-0.0028559263	-0.0075080497	-0.0120265568	-0.0044664717	-0.0021025245	-0.0051703490	-0.0012434386	-0.0018130820	-0.0044290517	-0.0028385925	0.0007121421	0.0014915690	0.0030048531	0.0034500472	0.0002813215	0.0001037038	0.0004414518	-0.0006775815	-0.0006710570	-0.0003907894	0.0012478838	0.0004740870	0.0011118350	-0.0011379514	0.0035012017	-0.0006016779	-0.0008319396	-0.0049522030	-0.0017859973	0.0032312837	0.0057190573	0.0047758366	0.0030435487	-0.0029980093	-0.0033668936	-0.0028833270	-0.0027516326	-0.0005860671	0.0012941228	0.0019548954	0.0008526383	0.0007185334	0.0002915756	-0.0008113440	0.0004301297	-0.0020238543	-0.0004784548	0.0009139009	0.0031731010	0.0045477389	-0.0005358484	0.0044152783	-0.0014083735	-0.0076075830	-0.0037711745	0.0033955935	-0.0006728180	0.0032029848	0.0029507973	0.0033143866	0.0004478274	-0.0027297756	-0.0040353574	-0.0051302440	0.0004320212	0.0106539158	0.0146246981	0.0059196949	-0.0020441972	0.0068045994	0.0067892503	0.0076530813	0.0043995474	-0.0024075196	-0.0004882382	-0.0038495203	-0.0037227920	-0.0006329091	0.0008893406	0.0004039897	-0.0021528818	-0.0040387153	-0.0055646189	-0.0033166644	0.0008311283	0.0052397246	0.0073037017	0.0042407126	0.0016480435	0.0026448783	0.0022859913	0.0025973041	0.0004164668	-0.0004387856	-0.0004326995	-0.0011608821	-0.0010140680	0.0015301697	0.0021893727	0.0044174176	-0.0005848845	-0.0091714719	-0.0054492010	0.0049915784	0.0049412097	0.0011276468	-0.0016116877	-0.0002999562	-0.0010064520
0.0055627902	-0.0003998348	0.0019103353	-0.0009447389	-0.0046379799	-0.0003564057	0.0013641312	-0.0049365424	0.0008849548	-0.0031825921	-0.0013809036	-0.0018434854	0.0005182797	-0.0020723846	0.0004654345	-0.0053743478	0.0045162807	0.0039865738	0.0045773089	0.0073830821	0.0039983704	0.0031745830	0.0020149725	-0.0047653513	-0.0003167499	-0.0040523754	0.0014687589	0.0006389626	-0.0012475867	0.0021360382	-0.0066030743	-0.0011555563	-0.0025479586	-0.0011099615	0.0029898768	0.0058822660	0.0009512108	-0.0012465762	-0.0133924261	-0.0218673740	-0.0130399009	-0.0106034353	-0.0028357981	-0.0007166946	0.0017911533	-0.0002993695	-0.0125089111	-0.0072032288	0.0004783869	-0.0133659076	0.0077762492	0.0215911232	-0.0280574001	-0.0568801239	-0.0298087187	-0.0499356054	-0.0124118766	-0.0252268184	0.0108271353	0.0503669605	-0.0343734026	-0.0801481456	0.0117453365	-0.0051473901	-0.0039367713	0.0427374914	-0.0084058428	-0.0426974893	0.0096899271	0.0097068446	0.0576013103	0.0086153410	0.0047319490	0.0160699412	0.0055895098	0.0087835994	0.0305935014	-0.0050673070	-0.0360892862	-0.0043461742	0.0367264301	0.0510020778	0.0427616835	0.0204862580	-0.0333702452	-0.0420748815	-0.0371935703	-0.0485045612	-0.0259032361	0.0313989259	0.0542450510	0.0186741799	0.0223857481	0.0040921215	-0.0226155594	-0.0382711627	-0.0447477847	-0.0614768900	-0.0381374694	-0.0096134469	-0.0054345978	-0.0028162133	0.0423453301	0.0449034721	0.0251341015	-0.0037836684	-0.0189041942	-0.0217874832	-0.0232814420	-0.0385864042	-0.0020317156	0.0232597515	0.0238822903	-0.0052604293	-0.0092812609	-0.0033748457	-0.0034444130	-0.0041720103	-0.0018777491	-0.0063757976	-0.0063344454	-0.0010381383	0.0017343939	-0.0007720519	-0.0022713004	0.0022502549	0.0033579508	0.0043149590	0.0037835643	0.0008393996	0.0001584573	0.0001512985	-0.0010545010	-0.0009807369	-0.0010722608	0.0000326390	-0.0004522192	0.0001166686	-0.0022637667	0.0009429709	-0.0020955221	0.0002502925	-0.0030010000	-0.0019149140	0.0034972623	0.0076593501	0.0058457060	0.0053149285	0.0027246666	0.0013624307	-0.0016350406	-0.0014655727	0.0005227379	0.0001019950	0.0002413785	0.0001027403	0.0007414194	-0.0003023954	0.0009692198	0.0019951609	-0.0001373492	0.0004357542	0.0032990125	-0.0000423308	0.0033466539	0.0045113009	0.0003002580	-0.0027090311	-0.0065691094	-0.0047646975	0.0058079129	0.0038041482	0.0049641887	0.0017950509	0.0080314288	-0.0034995065	-0.0105981249	-0.0155929625	-0.0188322905	-0.0219143145	-0.0123448791	0.0022429824	0.0101177916	-0.0041471310	0.0050152009	0.0098511549	-0.0010213959	-0.0003856922	0.0017970137	0.0001554018	-0.0019534435	-0.0013862603	0.0021060980	0.0059785661	0.0062649348	0.0017711043	-0.0002156455	-0.0011745032	0.0000967047	0.0026995339	0.0007270016	0.0031641768	0.0048139095	0.0053212252	0.0044351998	0.0023395289	0.0009639834	0.0008898969	-0.0001997892	0.0002696165	0.0008619363	-0.0013922001	-0.0018108431	-0.0017584966	0.0027612227	0.0059546810	-0.0032224613	-0.0028557251	0.0055108247	0.0033131882	0.0008421537	-0.0016689962	-0.0003676192	-0.0002672038
0.0058968412	0.0017164568	0.0019567022	-0.0015619489	-0.0056224973	-0.0019857066	0.0038069668	-0.0057901740	0.0007261061	-0.0005508116	-0.0021984326	-0.0015660319	0.0015139575	-0.0029425339	0.0020514154	-0.0021868912	0.0056300196	0.0022292610	0.0006627596	0.0036461013	0.0027872988	0.0028170608	0.0039302553	-0.0054591605	0.0032053865	-0.0038045389	0.0040923306	0.0019810903	0.0009308238	0.0044160504	-0.0016822722	0.0018488345	0.0018626687	0.0004075505	0.0035280725	0.0054458063	0.0002562727	0.0006336761	-0.0098746745	-0.0158570763	-0.0023486833	-0.0037054317	0.0059583797	0.0033224120	-0.0025124582	-0.0003867839	-0.0111443261	-0.0025236588	-0.0098401699	-0.0335597247	0.0121674854	0.0226740651	-0.0135747511	-0.0199341122	-0.0074294894	-0.0069766878	0.0140736904	-0.0249391329	-0.0050353510	0.0177909285	-0.0598968491	-0.0710937232	0.0380631760	-0.0015540197	-0.0104390783	0.0139532229	0.0048310454	0.0041647698	-0.0115899807	-0.0307154786	0.0439681709	0.0270793885	0.0441170447	0.0195226632	-0.0197196193	-0.0136860143	0.0305356812	0.0163844377	-0.0132982899	-0.0141172502	-0.0003050882	0.0336329378	0.0260619391	0.0103967432	-0.0263256468	-0.0423730984	-0.0343955383	-0.0342878923	-0.0086896811	0.0428706966	0.0554709062	0.0300448518	0.0352969430	-0.0039786585	-0.0116555467	0.0043545095	0.0165871587	-0.0188102312	-0.0312691107	-0.0244974457	-0.0180639978	-0.0138328960	0.0334639736	0.0202817451	-0.0062530208	-0.0178411454	-0.0356656909	-0.0395438038	-0.0040923133	-0.0152388494	-0.0136821195	-0.0016278038	0.0049854815	-0.0063423440	-0.0054258476	-0.0031780251	-0.0060658776	-0.0051486506	-0.0073695476	-0.0106430342	-0.0038957312	-0.0018656510	0.0010266348	0.0034357810	0.0010461924	0.0023562580	0.0027301370	0.0035061170	0.0029754352	0.0006462885	0.0003124587	0.0000928068	-0.0003510121	-0.0002495967	-0.0008992057	-0.0008874943	-0.0016646647	-0.0021090433	-0.0054183248	-0.0024100053	-0.0045332680	-0.0017502954	-0.0046240170	-0.0038693703	0.0034819699	0.0079073729	0.0038114002	0.0074886293	0.0071811071	0.0042838524	0.0027544387	0.0005136980	-0.0002646527	-0.0010041468	0.0002909993	0.0011089772	0.0011657393	0.0003165604	0.0011706919	0.0025894612	-0.0013846129	-0.0026149261	-0.0024266522	0.0012489257	0.0023619928	0.0050411751	-0.0031107739	-0.0074957451	-0.0042521646	-0.0058481381	-0.0021607236	0.0035756556	0.0084069166	0.0056268102	0.0096108578	-0.0001685965	-0.0018648574	-0.0002188053	-0.0023724900	-0.0108785462	-0.0145003675	-0.0112714097	-0.0027914913	-0.0086376909	-0.0056054848	0.0125638945	0.0129504167	-0.0003208966	-0.0018145138	-0.0003846495	-0.0015612611	0.0000102751	0.0006955806	0.0033130310	0.0024104360	0.0010387397	0.0031593242	0.0005270000	0.0018701316	0.0028619589	0.0023863625	0.0032069529	0.0026951025	0.0036371618	0.0026926720	0.0024943841	0.0024939221	0.0026141629	0.0017184358	0.0000095274	0.0025568244	-0.0005930123	-0.0032380763	-0.0026422075	0.0033058759	0.0072641876	-0.0051266151	-0.0055908053	0.0064079552	0.0036383108	-0.0001004710	-0.0020407788	-0.0006915310	-0.0004947740
0.0043096659	0.0009692722	0.0039752605	-0.0031192615	-0.0075945277	-0.0025974768	-0.0019343181	-0.0040977462	-0.0024527055	-0.0050543351	-0.0002423869	-0.0044000768	-0.0005318144	-0.0016284919	-0.0029026635	-0.0046760426	0.0067669973	0.0018175626	0.0003119415	0.0035316898	0.0025721097	0.0034818084	0.0008509054	-0.0040727435	0.0007922860	-0.0033399286	0.0039620516	0.0000710624	0.0014388864	0.0024191074	-0.0049457671	0.0018263436	0.0002238719	0.0001643831	0.0024630791	0.0023732078	-0.0041424455	-0.0034447671	-0.0087807989	-0.0091883633	0.0037858111	0.0033008817	0.0078165410	0.0046539949	0.0044758036	0.0054736203	0.0010644088	0.0069730328	-0.0102961957	-0.0375905335	-0.0203470774	-0.0158424955	-0.0097400555	0.0108289793	0.0040876875	-0.0429581068	-0.0832717270	-0.1057376042	-0.0626443848	-0.0368299708	-0.0624849200	-0.0264805853	0.0521726161	-0.0009849456	-0.0327969678	-0.0302385688	0.0032714403	0.0147430785	-0.0218017232	-0.0594471209	0.0074162865	0.0328601524	0.0333273076	0.0154526578	-0.0049260519	-0.0250356197	-0.0182056632	0.0010801377	0.0075699668	-0.0018387223	-0.0307050310	0.0101269456	0.0063734064	0.0011032213	-0.0154783614	-0.0200752486	-0.0010932214	0.0008531767	0.0150124654	0.0414973907	0.0161957722	-0.0011680257	0.0178039707	-0.0062369579	-0.0127579980	0.0344541855	0.0417229347	-0.0039829463	-0.0095117604	0.0095568746	0.0101380283	-0.0020662195	-0.0002963861	-0.0114467219	-0.0014378014	0.0155215766	-0.0013772704	-0.0152028762	0.0059735738	-0.0016582892	-0.0160730388	-0.0109934118	0.0159052163	0.0181122031	0.0177074391	-0.0009614502	-0.0108446758	-0.0050265584	-0.0080679376	-0.0009712777	0.0037626424	-0.0004648831	-0.0032425763	-0.0002134102	0.0018691025	0.0017117820	0.0013802053	0.0029579601	0.0024160231	0.0001943033	-0.0006386042	-0.0005433862	-0.0012783915	-0.0007096739	-0.0009839293	-0.0004516660	-0.0023803944	-0.0035170694	-0.0080425441	-0.0034811567	-0.0057958676	-0.0045652892	-0.0079170819	-0.0025667103	0.0086693717	0.0109494403	0.0061298581	0.0083382279	0.0058147069	0.0034047435	0.0021223726	-0.0000999180	-0.0012845451	0.0008184009	0.0015904419	-0.0011602540	-0.0001536486	0.0009036635	-0.0011085604	0.0006459749	0.0001215715	-0.0000705337	-0.0016297544	-0.0019079593	0.0017019024	0.0013068505	-0.0055042244	-0.0020714030	-0.0010582798	-0.0048309513	-0.0006373256	0.0005288481	0.0029335604	0.0001660865	0.0007834429	-0.0001298437	0.0051532905	0.0075528249	0.0041119037	0.0025479519	0.0008387857	-0.0021011620	0.0020559838	-0.0112839006	-0.0211590603	-0.0041438723	0.0198323186	0.0112274205	-0.0060599530	-0.0036053448	-0.0030515743	-0.0033642333	-0.0001610311	0.0009927704	0.0019835029	0.0012803351	0.0061023789	0.0027597684	0.0006599380	-0.0002166944	0.0034695920	0.0041197231	0.0017739494	-0.0000817170	0.0008203783	0.0026020263	0.0020067864	0.0011425611	-0.0008206209	-0.0003294254	0.0014780466	0.0006878286	-0.0018761947	-0.0037058566	0.0001173995	0.0048298305	-0.0053855921	-0.0048764246	0.0063957362	0.0026222826	-0.0027217024	-0.0017695489	-0.0003581770	-0.0005262872
0.0084066810	-0.0004188013	-0.0019024704	-0.0048211990	-0.0103272023	-0.0039917808	-0.0022908058	-0.0013374669	-0.0003342305	-0.0047685951	0.0003296261	-0.0022588703	-0.0030667232	-0.0016690439	-0.0015873974	-0.0056635640	0.0027699480	-0.0006346973	-0.0035147213	0.0005377195	-0.0018226479	-0.0014579815	-0.0013644660	-0.0042207097	-0.0017868679	-0.0030883150	0.0026223164	0.0006219238	-0.0016302917	0.0040421239	-0.0016621713	0.0012457420	0.0029084911	0.0009461836	0.0046118619	0.0034252815	-0.0034450383	-0.0067762416	-0.0120622022	-0.0078591658	0.0068409787	0.0071084742	0.0069319271	0.0136653474	0.0130316429	0.0117414352	0.0068177045	0.0118571697	0.0152845830	0.0132177351	-0.0139476899	-0.0328279883	-0.0144828837	-0.0202067792	-0.0615790486	-0.0805961415	-0.1192374527	-0.1071296409	-0.0609248318	-0.0628774390	-0.0868061632	-0.0238687173	0.0661486238	0.0307389311	-0.0052203648	-0.0302154887	0.0178319756	0.0306002069	0.0161415376	-0.0283259246	-0.0158305876	0.0048207147	-0.0041403668	0.0000307392	0.0349681526	-0.0070676995	-0.0500215739	-0.0319555514	-0.0079332013	-0.0081750816	-0.0356539711	0.0040768730	0.0035217553	-0.0006295699	-0.0203401800	-0.0336001068	0.0084247952	0.0218082163	0.0239153411	0.0307671372	-0.0011751262	0.0036735518	0.0200439021	0.0081117293	0.0122647136	0.0143590681	-0.0215470381	-0.0688168928	-0.0398400314	-0.0061211726	-0.0176430512	-0.0104044266	-0.0193879716	-0.0283493157	-0.0028964491	-0.0031374204	-0.0168284923	-0.0296210051	-0.0323629230	-0.0148815159	-0.0092937741	0.0033976689	0.0187352933	0.0195802916	0.0019923048	-0.0044823391	0.0075132935	0.0036774466	-0.0061731171	-0.0045016785	0.0054338900	0.0034732483	-0.0062207850	-0.0000240772	0.0024868399	0.0038813089	0.0026224570	0.0027580436	0.0087058498	0.0030543299	-0.0012174650	0.0035938462	0.0008532823	0.0000504978	-0.0006570098	0.0022565073	-0.0041848854	-0.0053787394	-0.0088391090	-0.0049322830	-0.0077996082	-0.0072142789	-0.0088233445	-0.0002958516	0.0139179500	0.0117809875	0.0041650124	0.0066817952	0.0009454213	-0.0012871097	-0.0056030350	-0.0029092459	-0.0035309265	-0.0001249359	0.0025988296	0.0033005055	0.0033949863	0.0015922789	0.0001894678	0.0002193536	-0.0005020153	-0.0002294707	-0.0046568033	-0.0043812129	0.0050677177	0.0040360377	-0.0044578896	-0.0004393964	0.0014447973	-0.0035065382	0.0056316960	0.0049160384	-0.0022472425	-0.0024752365	0.0020022029	0.0013515244	0.0040730592	0.0019938040	0.0035020071	0.0073342193	0.0058138585	0.0045718146	0.0111418460	0.0016612058	-0.0141562615	-0.0202289727	-0.0011725655	0.0121135414	0.0009235474	-0.0024858005	-0.0025319713	0.0002486294	-0.0031414526	0.0027966863	0.0040562046	0.0047979918	0.0069461996	0.0056879343	0.0047325469	0.0038820165	-0.0022191163	-0.0005838368	-0.0001712952	0.0007540974	-0.0009360223	0.0023823967	0.0045875520	0.0028897629	0.0014188485	0.0010918123	0.0002661449	-0.0035922152	-0.0027586152	-0.0039248881	-0.0057226978	-0.0011046813	-0.0058231968	-0.0023438041	0.0062998352	0.0044946517	-0.0026250454	0.0000009267	0.0005252104	-0.0015816324
0.0075011016	0.0006640297	-0.0011734377	-0.0035501439	-0.0103296908	-0.0001903826	-0.0052440544	-0.0082393112	-0.0063611316	-0.0050981087	-0.0075773844	-0.0012674214	-0.0047541312	-0.0037257113	0.0010477036	-0.0031352267	0.0055398727	0.0015236201	-0.0018866033	0.0013552367	-0.0023978467	0.0000142800	0.0007138104	-0.0082328916	0.0001266855	-0.0014077430	-0.0037996818	0.0017357036	-0.0022098059	-0.0004556297	-0.0019488155	-0.0039226897	0.0006143913	-0.0022443112	0.0059250486	0.0035453599	-0.0023765692	-0.0034062441	-0.0150076468	-0.0182351489	-0.0029964657	0.0068070143	0.0140631748	0.0142193250	0.0025122131	0.0028825041	0.0079504382	0.0205511637	0.0277572125	0.0386525020	0.0388621986	-0.0126169641	-0.0430654697	-0.0740018114	-0.0405953191	-0.0500349104	-0.1011632830	-0.1065090522	-0.1021805406	-0.0878179595	-0.0534482896	-0.0117972037	0.0421739779	0.0128831761	-0.0155229634	-0.0464723110	-0.0205121543	-0.0255399495	-0.0091406461	-0.0278693084	-0.0086174970	-0.0085982764	-0.0197751950	0.0128544755	0.0545605496	0.0136099141	-0.0210193060	-0.0173585080	-0.0067373686	-0.0049247881	-0.0061053550	0.0095838001	0.0073803198	0.0099871866	-0.0028598085	-0.0264642779	0.0065215179	0.0331461020	0.0415102132	0.0421112478	0.0182194412	0.0295877606	0.0209857747	0.0023902410	0.0220481940	0.0227418896	0.0198991075	0.0132864993	0.0117560728	0.0120990155	-0.0174398478	-0.0152883437	0.0014568374	0.0035771020	0.0019427242	0.0135453483	-0.0048811687	-0.0053857411	-0.0225911513	-0.0077701225	-0.0050875992	0.0010490860	0.0015077094	0.0221954118	0.0159864668	0.0352782756	0.0445861295	0.0135421762	-0.0052216798	0.0011259154	0.0105250366	0.0060177338	0.0090865036	-0.0019102483	-0.0082642278	0.0080015147	0.0049029374	0.0053093969	0.0024922418	-0.0023613125	0.0051468355	0.0037277096	-0.0013817912	0.0054225828	-0.0021624058	0.0012977119	-0.0044732797	-0.0072912709	-0.0094458377	-0.0061588148	-0.0081890486	-0.0051431721	-0.0015130570	0.0052139517	0.0105799772	0.0023629197	0.0010217112	0.0009456887	-0.0023575656	0.0016064034	-0.0029472783	-0.0022792614	-0.0032715024	-0.0001147545	0.0041426774	0.0077841417	0.0038008892	0.0020008043	0.0004844627	-0.0002656259	-0.0021252104	0.0006853290	0.0017045315	0.0028280476	0.0054191593	0.0040089726	0.0094411960	0.0053206906	-0.0018361147	0.0003139979	-0.0043828064	-0.0007931323	-0.0052592736	-0.0014836509	-0.0004209877	-0.0082039600	-0.0061103986	-0.0008042204	-0.0017455654	0.0010040489	0.0010247470	0.0061591212	0.0121650780	0.0152779166	0.0034064122	-0.0188734196	-0.0073526427	0.0048432522	0.0084446864	0.0073649911	0.0013224210	0.0029829820	-0.0017017074	0.0072697252	0.0080278413	0.0070435726	0.0071407277	0.0032753327	0.0021673213	0.0001189314	-0.0023522233	-0.0003044357	-0.0016922792	0.0003997353	-0.0020420596	0.0014358631	0.0021132166	0.0005551783	-0.0003495855	-0.0007230072	-0.0023652418	-0.0046596071	-0.0041751838	-0.0048857061	0.0005207800	0.0004176041	-0.0055072852	-0.0031883470	0.0014037595	0.0024500205	-0.0035667093	0.0001601307	0.0013995313	-0.0015374385
0.0079319580	0.0003278418	0.0011351088	-0.0057459995	-0.0070060156	0.0006455232	-0.0072753830	-0.0037152003	-0.0102555435	-0.0058310842	-0.0076689459	-0.0056590568	-0.0009510766	-0.0014851282	-0.0027814386	-0.0046397098	0.0032935287	-0.0008277683	-0.0032257752	-0.0014345739	-0.0043900274	-0.0033337157	-0.0023354078	-0.0077093458	-0.0035947869	-0.0006352282	-0.0028042714	0.0003216313	0.0022689502	-0.0009869938	-0.0010548274	0.0001417697	0.0002631177	-0.0032665643	0.0080277501	0.0063931942	0.0047003883	0.0068738065	0.0025084889	-0.0061992700	0.0070634447	0.0093187708	0.0138616590	0.0097491881	0.0084436405	0.0155407237	0.0100045484	0.0157013126	0.0054137586	0.0195400566	0.0282748565	-0.0135359978	-0.0170532614	-0.0317053720	0.0016544909	-0.0111805629	-0.1169277877	-0.1201064289	-0.0997717455	-0.0771632269	-0.0176939592	-0.0210260227	0.0107236821	-0.0128677133	-0.0057258084	-0.0197211709	-0.0209064279	-0.0287928209	-0.0244021025	-0.0325263813	-0.0169884842	-0.0060538752	-0.0075811781	0.0316227898	0.0658519045	0.0346046835	0.0183555931	0.0170158278	-0.0108543560	-0.0228678025	-0.0133508109	-0.0011470830	-0.0078696683	-0.0116326828	-0.0137088969	-0.0375826620	-0.0071170921	0.0165478829	0.0121709472	0.0207777582	0.0088923275	0.0138114281	-0.0045328890	-0.0116779339	0.0066949534	0.0070697200	0.0033251029	0.0003924854	-0.0006132009	0.0007358016	0.0047115395	0.0120218173	0.0160017647	0.0213134848	0.0144678438	0.0157560315	0.0206596926	0.0216108076	0.0079794228	-0.0199792590	-0.0418667607	-0.0344273895	-0.0371434093	-0.0000094513	-0.0028484899	0.0030020210	0.0018607916	-0.0091029191	-0.0077738180	-0.0043484401	-0.0039444868	-0.0036409087	0.0107414359	-0.0003915342	-0.0105485823	-0.0028244238	-0.0053453394	0.0071086194	0.0080527198	-0.0095223021	0.0030670331	0.0000559387	-0.0025977339	0.0048692860	-0.0028283722	-0.0009441636	-0.0028636414	-0.0064916392	-0.0075706998	-0.0040770061	-0.0051026801	0.0014768995	0.0053859684	0.0044975076	-0.0012995100	-0.0108339423	-0.0063107498	-0.0027799932	-0.0047185440	0.0016420025	-0.0084243324	-0.0086594969	-0.0085071661	0.0002838863	0.0074490844	0.0067790886	0.0019862608	0.0015229277	-0.0001448345	-0.0042336499	-0.0046060625	0.0068178433	0.0116991075	0.0019937695	-0.0099111907	-0.0165144540	0.0013550901	0.0103072887	-0.0042745713	-0.0000575104	0.0017557341	0.0044907592	0.0048055453	-0.0012383044	-0.0000650255	-0.0049610543	0.0052763969	0.0109851463	0.0027669864	0.0009606853	0.0012699794	-0.0007083693	0.0033970100	0.0191072617	0.0216102898	-0.0114168897	-0.0127404211	-0.0022945921	0.0118977260	0.0145133696	0.0037964210	0.0046148677	0.0016012678	0.0038936774	0.0012916387	-0.0035678856	-0.0059432271	-0.0059433756	-0.0060288128	-0.0010292956	0.0028791581	0.0009593596	-0.0006636081	-0.0004931895	-0.0016803076	0.0013955202	0.0055752182	0.0018679025	0.0005281880	-0.0011585364	-0.0004236737	0.0001192439	0.0015768551	-0.0028622022	0.0044312007	0.0022291811	-0.0037210595	0.0001013712	0.0008032368	0.0021937098	-0.0014835295	0.0003029275	0.0028318823	-0.0007765557
0.0062195291	-0.0007386723	-0.0007300735	-0.0056163939	-0.0062046507	-0.0012028633	-0.0051504252	-0.0005466244	-0.0064080642	-0.0076612406	-0.0084935669	-0.0078648841	-0.0077723730	-0.0055845208	-0.0014918447	-0.0029349932	-0.0001022986	0.0012571862	-0.0003014915	0.0004179223	0.0011381074	-0.0005131239	-0.0007980764	-0.0022585369	0.0003604224	-0.0039295102	0.0012659740	-0.0049971249	-0.0019302350	-0.0002262258	-0.0033193436	-0.0005908846	0.0017167919	-0.0014634638	0.0013283391	0.0007516276	0.0022157258	0.0036316826	0.0005672395	0.0032658130	0.0072734416	0.0009650716	-0.0006224329	0.0002942311	0.0042114710	0.0187454298	-0.0139103290	-0.0093506817	-0.0278661754	0.0130826896	0.0163450800	0.0005686032	0.0166267883	-0.0004831783	0.0322321653	0.0215669125	-0.0749741346	-0.0893574730	-0.0828709751	-0.0589116178	-0.0162530374	-0.0201822370	-0.0061134826	-0.0028283992	0.0352191478	0.0101984916	0.0084985560	0.0144404154	-0.0010931331	0.0056778793	0.0072623049	0.0206904784	0.0161270276	-0.0169290081	-0.0100937234	0.0006461574	0.0114323907	0.0332734436	0.0007324126	-0.0268004034	-0.0215291809	0.0073794718	0.0094584376	-0.0152977379	-0.0068961363	-0.0154711008	0.0023508775	0.0121224485	0.0115085207	0.0244184677	0.0144280726	0.0185873266	0.0147582237	-0.0065500000	0.0073829144	-0.0067560547	-0.0173257962	-0.0169652514	-0.0109422496	-0.0238302480	-0.0229947194	-0.0058949119	0.0026523201	-0.0115672974	-0.0101295784	-0.0117421569	-0.0092511708	0.0202538073	0.0297625083	-0.0148388539	-0.0265754983	-0.0178795885	-0.0238782465	0.0040245689	-0.0137711233	-0.0233067200	-0.0130275544	0.0002402025	0.0121483430	-0.0057052951	-0.0066894046	-0.0130802803	-0.0002494475	0.0043409285	0.0033282123	-0.0028282665	-0.0105798226	-0.0001460607	0.0064967023	-0.0068537695	-0.0030728669	-0.0052609784	-0.0056848791	-0.0020345047	-0.0045832433	-0.0002189109	-0.0024185174	-0.0035058660	-0.0030527590	-0.0014422390	0.0013530358	0.0057854219	0.0079096518	-0.0011117936	-0.0052795843	-0.0066288463	-0.0012228928	-0.0004416616	-0.0048118094	-0.0037072406	-0.0088950908	-0.0011271643	-0.0003998104	0.0035832184	0.0053541143	-0.0012782600	-0.0041346983	-0.0006073675	0.0029086166	-0.0019728926	-0.0053314161	0.0017225876	0.0053410660	-0.0047273417	-0.0118697062	-0.0162264202	-0.0108418548	-0.0052757859	-0.0032642542	0.0007375185	0.0029229508	0.0023890985	0.0016426777	-0.0033890773	-0.0046649994	-0.0056173154	0.0004901169	-0.0007822183	-0.0052714422	0.0008560109	-0.0069784289	-0.0152326757	-0.0125202378	0.0031926674	0.0135287913	-0.0043368512	-0.0083321314	-0.0028196077	0.0066484837	0.0069816979	0.0024590190	0.0061108787	0.0001378942	-0.0037829322	-0.0081429584	-0.0100826509	-0.0052549853	-0.0013112116	0.0013969964	0.0043812734	0.0030493010	0.0016158379	0.0007232788	0.0019043805	0.0011199717	0.0026306352	0.0039222394	0.0014234785	0.0025361083	0.0003005752	0.0030369710	0.0030475995	0.0063267536	0.0033784611	0.0044563534	0.0018170748	-0.0009430267	0.0032134431	0.0009826301	0.0021522290	-0.0020605435	-0.0011362081	0.0020980090	-0.0019528908
0.0024408696	-0.0003446481	-0.0006660384	-0.0071922047	-0.0084612714	-0.0022741952	-0.0045764754	0.0003911590	-0.0024585170	-0.0012337783	-0.0004379004	-0.0021052728	-0.0040557962	-0.0044776276	-0.0023923924	-0.0044102897	-0.0025909627	-0.0014950831	-0.0024562140	-0.0011053580	-0.0003011514	-0.0010264446	-0.0024742901	-0.0000374927	0.0008160647	-0.0038550829	0.0027417529	-0.0028177043	-0.0057463278	-0.0006554901	-0.0004032991	-0.0012857567	-0.0004695477	-0.0005735358	-0.0005480127	-0.0011406618	0.0002741007	0.0019487032	0.0006283564	0.0042914306	0.0075503145	0.0048279082	0.0069155404	0.0039672824	0.0000812208	0.0137144532	-0.0077808909	-0.0059117847	-0.0140765365	0.0128434794	0.0168079827	0.0116418870	0.0106535675	0.0018504548	0.0251783468	0.0221547894	-0.0620284304	-0.0580661371	-0.0677924827	-0.0374019295	0.0012292119	-0.0144503508	0.0014312831	-0.0078544263	0.0073439088	-0.0114601776	-0.0286640897	-0.0073824460	-0.0097205918	-0.0072330870	0.0188513286	0.0471912287	0.0799521357	0.0230523571	-0.0151482848	-0.0331708342	-0.0190881789	0.0077820001	-0.0115436669	-0.0205419622	-0.0312924199	0.0069230977	0.0182269905	0.0030692285	0.0019350529	-0.0046054176	0.0030097268	0.0123642785	0.0063742897	0.0093180062	-0.0032372740	0.0048801629	0.0088896519	-0.0139067620	-0.0042898189	-0.0169287138	-0.0065745879	-0.0068794508	-0.0094804037	-0.0194374677	-0.0207997896	0.0057111704	0.0041867183	-0.0164779499	-0.0065053892	-0.0079884902	-0.0127291633	0.0028646626	0.0352272838	-0.0035942453	-0.0138672572	-0.0083603691	-0.0142589193	0.0202466585	0.0038525655	-0.0125082238	-0.0060644592	-0.0089473827	-0.0001173105	0.0005114796	0.0005590590	-0.0015069735	0.0051010041	0.0048010810	0.0105732856	0.0090539940	-0.0019689209	-0.0036965967	-0.0033137370	-0.0004659606	0.0020254115	-0.0039770319	-0.0043862080	-0.0017527568	-0.0036973725	-0.0014260652	0.0023907945	0.0017799726	0.0009756833	0.0030651879	0.0035244864	0.0056155412	0.0028857517	-0.0029302142	-0.0012459902	0.0037100820	0.0032844082	-0.0029087025	-0.0073251892	-0.0021061350	0.0018313047	0.0072808214	0.0054289629	0.0060623889	0.0088930614	0.0039760536	0.0025012395	0.0022237496	0.0034411368	0.0024497963	-0.0039761784	-0.0038655556	-0.0015627670	-0.0059627267	-0.0023511355	0.0030006045	0.0006305049	-0.0001390465	0.0059544081	0.0072029470	0.0049282266	-0.0022728569	-0.0086221695	-0.0139067182	-0.0030738972	0.0079151085	0.0051790103	-0.0037970594	-0.0057417187	0.0081706969	0.0093144355	0.0038584820	-0.0055272817	-0.0057706065	-0.0036800748	-0.0021283252	0.0032027564	-0.0011606850	-0.0009603385	-0.0033981446	-0.0018365037	0.0020560294	-0.0047446340	-0.0103052231	-0.0099976193	-0.0023256755	0.0066648968	0.0076004253	0.0051301499	0.0044885115	-0.0000232049	0.0001294154	-0.0014983790	0.0006382457	0.0009001335	0.0029486245	0.0051050102	0.0025352715	0.0042521292	0.0016398068	0.0034510340	0.0031209458	0.0023411498	0.0028727960	0.0036104424	-0.0016524879	-0.0039104964	0.0026994830	0.0014509554	0.0042560077	-0.0013548662	-0.0018502667	0.0042032604	-0.0024272625
0.0045990930	0.0000776906	-0.0017134703	-0.0036897906	-0.0034016273	-0.0032790524	-0.0005726379	-0.0022495578	0.0001084406	0.0020696516	0.0050812070	0.0058408077	0.0044284649	0.0017313934	0.0029291988	-0.0020577079	-0.0007074943	0.0003993108	-0.0010538900	0.0004631944	0.0010651986	0.0002927819	0.0021400000	-0.0036364975	0.0022169005	0.0027352306	-0.0039219209	0.0037975728	-0.0026376166	-0.0037343625	0.0006059335	-0.0042151683	-0.0009417972	-0.0012985147	-0.0029476930	-0.0021426110	-0.0002642291	-0.0010238336	0.0027731541	0.0003710736	0.0098661277	0.0085429428	-0.0011078548	0.0035941070	-0.0028590281	0.0073196148	-0.0198743418	-0.0225643609	-0.0303818099	-0.0055999774	-0.0072663017	-0.0029281490	0.0046521015	0.0021973867	-0.0073731933	0.0300858952	-0.0040139705	-0.0105333468	-0.0318123065	-0.0193974227	0.0104556233	-0.0183229856	-0.0137497624	-0.0160975400	0.0067475187	0.0173208676	0.0113796797	0.0077627273	0.0061493926	-0.0057828687	0.0282324757	0.0432955548	0.0580030680	0.0316741243	0.0601297393	0.0584571138	0.0490743220	0.0269924197	-0.0251250360	-0.0281104874	-0.0308718868	-0.0102844369	0.0064508021	-0.0034112176	-0.0059340727	-0.0052431962	0.0025532951	0.0051751034	-0.0024276038	-0.0115376385	-0.0183596425	-0.0079444302	-0.0080791526	-0.0230475366	-0.0162124112	-0.0242260341	-0.0023969142	-0.0105088325	-0.0030210800	-0.0117638819	-0.0181342270	0.0017748289	-0.0032261382	-0.0231253803	-0.0080393720	-0.0180648714	-0.0044260239	-0.0113837365	0.0200176127	-0.0047114370	0.0008184665	-0.0085126571	-0.0360582024	-0.0014934242	-0.0070306202	-0.0168238245	-0.0037954727	-0.0137652410	-0.0016181157	0.0093697011	0.0136627695	0.0042006858	0.0005642967	-0.0013508300	0.0037962503	0.0041901963	0.0078445664	-0.0040453486	0.0010594334	0.0015182464	0.0014703331	0.0011539112	0.0032595301	-0.0024642476	0.0021424287	-0.0030220274	0.0024999077	0.0004820512	0.0000832599	0.0013118868	0.0007715385	0.0012339881	-0.0029640244	-0.0060870643	-0.0008599038	0.0015327010	-0.0055864453	-0.0050556283	-0.0013634824	0.0026448057	0.0041448707	0.0030872338	0.0000371891	0.0037060804	0.0121926628	0.0092710052	0.0047697928	0.0040285471	0.0024648807	0.0027573272	-0.0017426214	-0.0024636257	-0.0055956249	-0.0114285452	-0.0047549037	0.0016144896	0.0018216423	0.0006736449	0.0007160923	0.0028277452	0.0084237829	0.0013414201	0.0001071442	-0.0086991414	-0.0097711105	0.0055280840	0.0048103705	-0.0152032077	-0.0081518963	-0.0032961371	-0.0028974712	0.0059824837	0.0061089951	-0.0037871781	-0.0072955918	-0.0026601048	0.0042690579	0.0012687101	-0.0016483781	-0.0032978952	0.0016141754	-0.0014845631	-0.0058789770	-0.0027283391	0.0048260088	0.0088184793	0.0094469879	0.0062959688	0.0048090178	0.0060138907	-0.0003184390	0.0003189928	0.0007680714	0.0025778115	0.0034102495	0.0054675378	0.0088038137	0.0049543283	0.0071987389	0.0025851349	0.0008948419	0.0023103456	0.0036830078	0.0033292836	0.0030163724	-0.0012758601	-0.0040111714	-0.0005150971	0.0022025949	0.0049035093	-0.0007198705	-0.0020539085	0.0048183510	-0.0020466931
0.0042580427	0.0019820344	-0.0026132977	-0.0030252698	-0.0021573175	-0.0041353791	0.0004352955	0.0008218469	-0.0001699884	0.0021235910	0.0042759483	0.0065821009	0.0073852642	0.0053488053	0.0045895716	0.0002808752	0.0025465924	0.0007786292	-0.0014881417	-0.0001289112	0.0007867945	-0.0001236761	0.0009287299	0.0004380892	-0.0023380963	0.0050166035	-0.0020794177	-0.0009666568	0.0016865055	-0.0035838787	0.0004008142	-0.0001402827	0.0007380073	0.0004016865	-0.0030782761	-0.0026978557	-0.0005106718	-0.0022990464	-0.0033097689	-0.0031020788	-0.0008191699	0.0047680372	0.0013975222	0.0036131963	-0.0069658733	-0.0086745834	-0.0152468747	0.0018710969	0.0102057979	0.0318574719	0.0394100845	0.0187474098	0.0240119379	0.0293555874	-0.0011127079	0.0409251638	0.0140305236	-0.0017441101	-0.0208529383	-0.0157432202	0.0087348726	0.0012442488	0.0240419824	0.0203389525	0.0276530758	0.0088196527	-0.0135983499	-0.0333815888	-0.0197404735	-0.0275466815	0.0101458896	0.0354536511	0.0097817359	-0.0187662318	0.0538525619	0.0693956912	0.0732742250	0.0573434010	0.0125102308	0.0052628373	0.0022037746	-0.0069749467	0.0146661215	0.0203819871	0.0097135110	0.0000116431	-0.0066269399	-0.0003510403	0.0085870242	-0.0015161333	0.0019633491	0.0055677961	-0.0045976602	-0.0187851321	-0.0141843036	-0.0224079490	-0.0031788377	-0.0212669205	0.0018979530	-0.0019439333	-0.0183919147	-0.0002100598	-0.0038641328	-0.0244301334	-0.0050512981	-0.0209339932	-0.0019663973	-0.0077607050	0.0013947170	-0.0202691257	0.0107902531	0.0181760453	-0.0120931733	0.0113841090	0.0071365391	0.0024541148	0.0197105296	0.0039988542	0.0082649756	0.0074954322	0.0075214407	0.0018432502	-0.0023394125	-0.0031427098	-0.0013996565	-0.0020544508	0.0081542935	-0.0010000730	0.0003906053	0.0033445277	-0.0009556350	0.0011886879	0.0052700620	-0.0025950400	0.0060120123	0.0031934311	0.0031725171	0.0027777534	0.0032233086	0.0029797130	0.0012970478	0.0021569892	0.0006994666	-0.0043637580	-0.0013977767	-0.0034952424	-0.0063023902	0.0005601230	0.0048491145	0.0026904242	0.0021311587	0.0042690574	0.0036704172	0.0048757493	0.0096636098	0.0053962576	0.0040268339	0.0050534802	0.0043826443	0.0037022592	0.0015620426	0.0005045005	-0.0027252561	-0.0068335161	0.0000674599	0.0001784249	-0.0015870567	0.0049240733	0.0067387479	0.0042915223	-0.0006632791	-0.0075624045	0.0036584202	0.0114093833	0.0058653341	-0.0031627738	-0.0069573317	-0.0174016096	-0.0012645010	0.0039392468	-0.0049859402	0.0000056995	0.0046320320	0.0034493555	0.0026380448	0.0064074486	0.0035385706	-0.0044030547	-0.0036165349	-0.0014470520	-0.0036213635	-0.0027580489	0.0001879500	0.0048593869	0.0064843213	0.0060670804	0.0068278965	0.0048059020	0.0012776777	0.0037591329	-0.0012144201	-0.0011468789	-0.0020490626	-0.0000601669	0.0003407465	0.0029438068	0.0054398342	0.0028300683	0.0017945478	-0.0001435401	0.0000962979	-0.0013845500	0.0022970941	0.0030962953	0.0017933304	-0.0013325160	-0.0055646459	-0.0028408135	0.0008552568	0.0056866161	-0.0011174304	-0.0022977211	0.0040140599	-0.0023522396
0.0014551680	-0.0008528052	0.0023286357	-0.0028014078	-0.0018162774	-0.0006044532	-0.0025781128	0.0003013629	0.0010553671	0.0000737191	0.0017820402	0.0026831655	0.0037078054	0.0030213369	0.0019005674	0.0007810556	-0.0008497556	0.0003094761	-0.0016228224	-0.0001523829	-0.0005714788	0.0000337037	0.0008475789	0.0024847004	0.0016933646	0.0008114348	0.0027960879	0.0000069481	0.0004960015	0.0001657969	0.0004888904	0.0007338789	0.0013964584	0.0003648911	0.0009461663	-0.0011118563	0.0003327729	0.0000968261	0.0005596797	-0.0002324461	0.0005058977	0.0032153844	0.0032702524	0.0007275199	0.0024643242	0.0039686579	-0.0169788878	0.0038036723	0.0140435901	0.0181845929	0.0162865929	-0.0150185386	-0.0190000460	0.0188780911	-0.0370312631	-0.0298146531	-0.0347202644	-0.0211631954	-0.0546388403	-0.0428846106	0.0206123460	0.0293055475	0.0216634609	0.0178439505	-0.0001052283	0.0034454346	-0.0321841463	-0.0569307953	-0.0292204507	-0.0382880121	-0.0220418032	0.0020108875	-0.0210287906	-0.0148802297	0.0324297622	0.0139003415	0.0020013116	0.0144588631	0.0341665894	0.0255416259	0.0051838486	0.0000641244	0.0088079106	0.0320898332	0.0159923807	-0.0038325125	-0.0186423883	-0.0016537396	0.0137798684	-0.0074105309	0.0047589452	0.0014862528	0.0017008504	-0.0043925401	-0.0043500499	-0.0139151029	0.0003229822	-0.0046596769	0.0141405454	0.0097502405	-0.0216305982	-0.0040191454	-0.0008558391	-0.0189889427	-0.0012159053	-0.0001032348	0.0071825478	-0.0020146312	-0.0000929628	-0.0231679380	0.0026809536	0.0225625206	-0.0110119535	-0.0065116212	-0.0031884981	-0.0054703681	0.0138315614	0.0035848024	-0.0039610337	-0.0028131325	-0.0008896407	0.0073650307	0.0160340313	-0.0016019520	-0.0041651004	-0.0036627010	-0.0022677593	0.0039384477	0.0023271388	-0.0004019194	0.0040940642	-0.0018280549	0.0033772578	0.0015737748	0.0001693096	-0.0005902526	0.0019822184	-0.0001445928	-0.0001611603	0.0004929297	0.0000284904	0.0007485861	0.0001456662	-0.0014746852	-0.0062305210	-0.0042381920	-0.0017285671	-0.0021757414	-0.0008789207	0.0001844426	-0.0020007093	0.0013020613	0.0003799890	-0.0006783694	0.0035745255	0.0020385268	0.0031639643	0.0035705660	0.0013115628	-0.0007829200	-0.0019312972	0.0040543671	0.0038309039	-0.0006602147	-0.0033488111	-0.0050292253	-0.0083344346	-0.0001616733	0.0137521531	0.0130860768	-0.0081498176	-0.0197267104	-0.0113697145	0.0038422085	0.0082466453	-0.0083799325	-0.0178465657	-0.0104663214	-0.0002187222	0.0035813877	0.0027256408	0.0072941016	0.0044689495	0.0038462563	-0.0022044373	0.0044625690	0.0043722382	-0.0055152178	-0.0004618483	-0.0004045006	-0.0033351851	0.0024449727	0.0055228025	0.0036278632	0.0018452706	0.0031090684	0.0052378732	0.0046486850	0.0003639681	0.0003836508	-0.0022678440	-0.0003845771	-0.0017466607	0.0000565168	0.0008960007	0.0030635963	0.0050743702	0.0016442197	0.0035612711	0.0007676473	0.0003648897	0.0006894086	0.0002036609	0.0013786391	0.0026473748	-0.0022691523	-0.0045624380	-0.0007715091	-0.0018437621	0.0028700728	0.0006759173	-0.0014672547	0.0015419540	-0.0015805693
0.0066036405	0.0015986814	0.0041748518	-0.0020485946	-0.0056338762	-0.0017789864	-0.0017836937	-0.0015872295	-0.0011344035	-0.0010680644	-0.0004353872	0.0002917182	0.0008444502	0.0014687448	0.0013137902	0.0000807245	-0.0011382033	-0.0000852460	-0.0014642848	-0.0007812187	-0.0010228483	-0.0002159513	0.0010763357	0.0023346737	0.0029479745	-0.0001150203	0.0031352898	0.0011321419	-0.0010834225	0.0013750470	0.0005275927	-0.0055846339	-0.0038529381	-0.0083445860	-0.0049150828	-0.0062318896	-0.0047317469	-0.0035593659	-0.0054656994	0.0024275160	-0.0022266386	-0.0024219740	-0.0080174841	-0.0094120353	0.0062935781	0.0142601393	-0.0234989263	-0.0120113287	-0.0108320247	-0.0013916381	0.0052180476	-0.0186707750	-0.0191126037	0.0235613193	-0.0115733854	-0.0184158720	0.0196934193	0.0450326391	-0.0120302644	0.0158081148	0.0935871825	0.0512938239	-0.0212047733	0.0089110099	0.0057498263	0.0244131610	0.0034674574	-0.0201625023	0.0115639661	0.0023804987	-0.0171643030	0.0097234510	-0.0198098645	0.0061631086	0.0187830254	0.0080363601	-0.0326683223	-0.0204113871	0.0010367148	0.0260489304	0.0069278050	-0.0263756737	0.0082943784	0.0227987804	0.0080801528	-0.0166920964	-0.0240302235	0.0036509247	0.0231656879	-0.0038530868	0.0067639002	0.0039235950	0.0040892363	-0.0048352713	0.0155540444	0.0110720452	0.0018997971	0.0006393964	0.0049950862	0.0095905093	-0.0155779133	0.0032844187	0.0219573490	0.0046947994	-0.0027955049	-0.0053760186	0.0067561725	0.0081364233	0.0020968639	0.0003509484	0.0314757079	0.0253329277	0.0095636668	0.0090892212	0.0048288666	-0.0036889829	0.0015283679	-0.0074839760	-0.0156948436	0.0002619649	-0.0030278061	-0.0027441592	0.0094361594	0.0046444582	-0.0037757158	-0.0051851692	-0.0050323638	-0.0006372891	0.0014866942	-0.0005976774	0.0066686352	0.0023564433	0.0013951783	0.0043131108	0.0073095774	-0.0003510517	0.0066958610	0.0015843838	0.0001371949	0.0028869789	0.0008237066	0.0003816516	0.0007920269	0.0041125109	-0.0017103489	0.0001271614	0.0041075698	0.0004087419	-0.0031573887	-0.0020550448	-0.0036650451	-0.0023047905	0.0007724573	0.0001296941	0.0035989382	0.0045110155	0.0053960849	0.0040998543	0.0037294070	0.0019363713	-0.0055083632	-0.0041396795	0.0025866944	0.0048845769	0.0039712950	-0.0032581703	-0.0082585569	-0.0035263621	0.0147315823	0.0215509497	0.0051516783	-0.0189267956	-0.0209529083	-0.0189247523	-0.0113004083	-0.0154135348	-0.0134203285	-0.0023208344	-0.0021401672	-0.0018986012	0.0040744683	0.0107651521	0.0035140968	-0.0024322891	0.0024990579	0.0068963342	0.0008045061	-0.0033532095	0.0005947307	-0.0000021637	-0.0012857532	0.0044987067	-0.0032506620	0.0011970876	0.0083972830	0.0012495440	0.0040578400	0.0009841281	0.0016942371	-0.0031329026	-0.0053770961	-0.0033406161	-0.0062581887	-0.0092878854	-0.0043423851	-0.0013482370	-0.0014432671	-0.0033564200	0.0005721935	-0.0007954504	0.0008179673	0.0010854778	0.0015763631	0.0018887775	0.0064584152	-0.0010470818	-0.0011893396	-0.0010747805	-0.0022894344	0.0029575576	0.0037414022	-0.0021937336	-0.0027035256	-0.0038206596
0.0042752954	0.0052126092	0.0022009341	0.0034741298	-0.0043080496	-0.0006215827	0.0009975259	-0.0001522793	-0.0006553948	-0.0001661382	-0.0006320174	0.0002897591	0.0003363656	0.0008630667	0.0021879396	0.0007978050	0.0006471078	0.0008860008	-0.0008645515	0.0002194267	-0.0003746334	0.0007784598	0.0018348237	-0.0002869687	0.0022034848	0.0018588139	-0.0005181029	0.0027655642	-0.0005677002	-0.0005136953	0.0010115183	-0.0043488992	-0.0005432452	-0.0049706264	-0.0082425866	-0.0071855076	-0.0068846699	-0.0045814454	-0.0036569247	-0.0005442675	-0.0055766413	-0.0010314916	-0.0101747680	-0.0058643683	-0.0030399580	-0.0017995937	-0.0069784513	0.0055014403	-0.0041825445	0.0085719796	0.0153433327	-0.0204116106	-0.0342934094	-0.0010096420	-0.0271127224	-0.0176224560	0.0402121395	0.0467116609	-0.0278335325	-0.0057211518	0.0660725236	0.0113829151	-0.0373359844	0.0315841548	0.0187624283	0.0236003604	0.0044606752	-0.0143715627	0.0058745528	-0.0072072661	-0.0024540264	0.0222014263	0.0065784338	0.0185957365	0.0273879506	0.0229504406	-0.0315179080	-0.0124054216	-0.0224560834	-0.0450559482	-0.0019691298	-0.0453740992	0.0251868740	0.0363224782	-0.0206506532	-0.0188426897	-0.0256252307	-0.0081339329	0.0170611683	-0.0155482544	-0.0074365544	0.0051688864	-0.0016962304	-0.0152054178	-0.0335805714	-0.0205347724	-0.0076868511	0.0051602330	0.0041600494	0.0005840608	-0.0118536828	-0.0074806791	-0.0047138953	-0.0073695797	0.0082237683	0.0155904433	0.0086184582	0.0307145491	0.0228465460	0.0013564704	0.0268048048	0.0070870696	-0.0059952964	0.0107207019	0.0218467750	-0.0042660078	-0.0123246899	0.0024527214	-0.0029443563	0.0061718673	0.0049605039	-0.0094584776	-0.0151718017	0.0026873718	0.0003469024	-0.0008501669	0.0001068662	-0.0053362730	-0.0016813623	0.0009583337	-0.0069384901	0.0027955770	0.0009959884	0.0013919177	0.0012689853	-0.0030390697	0.0047425809	-0.0018110131	0.0006810094	0.0006290949	-0.0018972816	0.0015760529	0.0008648046	0.0033983076	-0.0009020192	0.0014274749	0.0033276393	0.0041506044	0.0004866689	0.0019222934	0.0002788182	0.0011790106	0.0030605674	0.0004127790	0.0019903758	0.0018673942	0.0024469250	0.0026405379	0.0039312919	0.0065473942	0.0012490420	-0.0046318239	-0.0031067645	-0.0029929224	0.0003822308	0.0037582410	0.0020630781	-0.0015622182	0.0031771399	0.0156946350	0.0176564120	0.0019576345	-0.0072438130	-0.0128768291	-0.0133811887	-0.0111466032	0.0008010257	-0.0005616539	-0.0104370182	-0.0092465952	-0.0009617647	0.0047029313	-0.0011591305	-0.0101552689	0.0022899879	0.0071023386	0.0005610650	0.0048289560	-0.0023108879	-0.0021399499	-0.0040087602	0.0002344533	-0.0042032013	0.0037212963	0.0019060512	-0.0022394951	0.0024758324	-0.0025606463	0.0024909377	-0.0003327404	-0.0034523269	-0.0014757047	-0.0032258620	-0.0060181231	-0.0016563376	0.0003642699	0.0005113908	-0.0040546190	-0.0017289558	-0.0014040818	0.0005951736	-0.0005060516	-0.0001017517	0.0009423044	0.0009403353	-0.0023537625	-0.0042766077	-0.0041576596	-0.0046469290	0.0018016165	0.0041880147	-0.0021242832	-0.0038625763	-0.0017303077
-0.0002582372	0.0061083036	0.0056051183	0.0014430785	-0.0012619975	-0.0010253015	-0.0033551331	-0.0003359643	-0.0029489635	-0.0010848707	-0.0021579713	-0.0017177652	-0.0015802952	-0.0011835671	-0.0012024515	-0.0003905148	0.0003708293	0.0006262943	-0.0009480639	0.0002047220	-0.0011288653	-0.0003942959	0.0016752009	0.0032039303	-0.0002115741	0.0013805110	0.0000937962	-0.0015129214	-0.0001414458	-0.0010016079	-0.0032515575	-0.0007322893	0.0133701162	0.0141922450	0.0061988179	0.0024676628	-0.0009174225	-0.0027637118	-0.0084532294	-0.0055632237	-0.0130745545	-0.0011869934	-0.0038277421	-0.0047988784	0.0058651022	0.0006037806	0.0011151371	0.0193077493	-0.0025608886	0.0173797850	0.0145919733	-0.0192927867	-0.0469025597	0.0045709885	-0.0042430176	0.0140271457	0.0660530031	0.0613011904	-0.0112538049	0.0014068416	0.0619027577	-0.0031377384	-0.0557539091	0.0209860876	-0.0291576572	-0.0098860068	0.0130734406	0.0132649075	0.0078966087	-0.0227994826	-0.0304920655	0.0387017839	0.0126364175	0.0022861091	0.0163094122	0.0192880947	-0.0228508059	0.0240837783	-0.0260811895	-0.0581873506	0.0184957832	-0.0494556352	0.0434980020	0.0397896320	-0.0274359118	0.0154456832	-0.0134657174	-0.0053807902	0.0408207327	0.0127901305	-0.0062503256	-0.0001203840	0.0023759347	0.0025526793	-0.0170631930	-0.0015631773	0.0238541868	0.0382299162	0.0178921595	0.0040954612	-0.0043238970	0.0026150842	0.0229327101	0.0095767844	0.0338168964	0.0457131118	0.0214271713	0.0190627314	0.0093151648	-0.0254893601	0.0096222656	0.0088984091	0.0062056123	0.0070475060	0.0237401966	-0.0046252785	-0.0191308502	-0.0005436043	-0.0101270843	0.0023704381	0.0038461918	0.0009012213	-0.0005496005	0.0014599992	0.0015979477	0.0015733575	-0.0016692837	0.0029838621	-0.0068562422	0.0001362085	-0.0072094556	-0.0091901263	-0.0060761655	-0.0035779849	-0.0025606463	-0.0017600426	0.0065250262	-0.0021382533	0.0022962929	0.0003646119	-0.0021817333	0.0004195937	-0.0006855484	0.0039605517	-0.0042561381	-0.0033895569	0.0024047149	0.0025971974	0.0027151541	0.0033488912	0.0009250881	0.0007042064	-0.0021750622	-0.0035138605	-0.0029212749	-0.0017065872	0.0012248447	0.0012605779	0.0011543130	0.0048074811	0.0062410976	0.0054808129	0.0014179128	-0.0030743175	-0.0052109319	0.0060645211	0.0085249385	-0.0054156501	-0.0148706390	-0.0035483669	0.0182695575	0.0224173144	0.0102041364	0.0089421906	0.0103027644	0.0068200030	0.0155149354	0.0049129436	-0.0034262314	-0.0064993221	-0.0106006954	-0.0087154834	-0.0103798993	-0.0093546323	-0.0040550157	-0.0005586797	0.0000258674	0.0084547913	0.0021314351	-0.0025415816	-0.0025407153	0.0047066067	-0.0029672806	0.0040684105	-0.0000915163	-0.0010343749	0.0041378904	-0.0008008219	0.0065689874	0.0011707229	-0.0054256530	-0.0047047278	-0.0076450258	-0.0093766153	-0.0046971086	0.0006750369	0.0020458382	-0.0026659267	-0.0032759500	-0.0018111616	0.0016835569	0.0013883181	0.0004281930	0.0025112622	0.0053254585	0.0003734403	-0.0029765749	-0.0048751677	-0.0008849190	0.0050171041	0.0052560419	-0.0055446504	-0.0063409396	-0.0008501932
